{"learner":{"attributes":{"scikit_learn":"{\"_estimator_type\": \"classifier\"}"},"feature_names":["rsi","ema_diff","macd_diff","momentum","volume_rel","moving_average","atr","volume_change","ema_200","ema_100","ema_10","ema_50","close_pct_change_5"],"feature_types":["float","float","float","float","float","float","float","float","float","float","float","float","float"],"gradient_booster":{"gbtree":{"model":{"gbtree_model_param":{"num_parallel_tree":"1","num_trees":"500"},"iteration_indptr":[0,1,2,3,4,5,6,7,8,9,10,11,12,13,14,15,16,17,18,19,20,21,22,23,24,25,26,27,28,29,30,31,32,33,34,35,36,37,38,39,40,41,42,43,44,45,46,47,48,49,50,51,52,53,54,55,56,57,58,59,60,61,62,63,64,65,66,67,68,69,70,71,72,73,74,75,76,77,78,79,80,81,82,83,84,85,86,87,88,89,90,91,92,93,94,95,96,97,98,99,100,101,102,103,104,105,106,107,108,109,110,111,112,113,114,115,116,117,118,119,120,121,122,123,124,125,126,127,128,129,130,131,132,133,134,135,136,137,138,139,140,141,142,143,144,145,146,147,148,149,150,151,152,153,154,155,156,157,158,159,160,161,162,163,164,165,166,167,168,169,170,171,172,173,174,175,176,177,178,179,180,181,182,183,184,185,186,187,188,189,190,191,192,193,194,195,196,197,198,199,200,201,202,203,204,205,206,207,208,209,210,211,212,213,214,215,216,217,218,219,220,221,222,223,224,225,226,227,228,229,230,231,232,233,234,235,236,237,238,239,240,241,242,243,244,245,246,247,248,249,250,251,252,253,254,255,256,257,258,259,260,261,262,263,264,265,266,267,268,269,270,271,272,273,274,275,276,277,278,279,280,281,282,283,284,285,286,287,288,289,290,291,292,293,294,295,296,297,298,299,300,301,302,303,304,305,306,307,308,309,310,311,312,313,314,315,316,317,318,319,320,321,322,323,324,325,326,327,328,329,330,331,332,333,334,335,336,337,338,339,340,341,342,343,344,345,346,347,348,349,350,351,352,353,354,355,356,357,358,359,360,361,362,363,364,365,366,367,368,369,370,371,372,373,374,375,376,377,378,379,380,381,382,383,384,385,386,387,388,389,390,391,392,393,394,395,396,397,398,399,400,401,402,403,404,405,406,407,408,409,410,411,412,413,414,415,416,417,418,419,420,421,422,423,424,425,426,427,428,429,430,431,432,433,434,435,436,437,438,439,440,441,442,443,444,445,446,447,448,449,450,451,452,453,454,455,456,457,458,459,460,461,462,463,464,465,466,467,468,469,470,471,472,473,474,475,476,477,478,479,480,481,482,483,484,485,486,487,488,489,490,491,492,493,494,495,496,497,498,499,500],"tree_info":[0,0,0,0,0,0,0,0,0,0,0,0,0,0,0,0,0,0,0,0,0,0,0,0,0,0,0,0,0,0,0,0,0,0,0,0,0,0,0,0,0,0,0,0,0,0,0,0,0,0,0,0,0,0,0,0,0,0,0,0,0,0,0,0,0,0,0,0,0,0,0,0,0,0,0,0,0,0,0,0,0,0,0,0,0,0,0,0,0,0,0,0,0,0,0,0,0,0,0,0,0,0,0,0,0,0,0,0,0,0,0,0,0,0,0,0,0,0,0,0,0,0,0,0,0,0,0,0,0,0,0,0,0,0,0,0,0,0,0,0,0,0,0,0,0,0,0,0,0,0,0,0,0,0,0,0,0,0,0,0,0,0,0,0,0,0,0,0,0,0,0,0,0,0,0,0,0,0,0,0,0,0,0,0,0,0,0,0,0,0,0,0,0,0,0,0,0,0,0,0,0,0,0,0,0,0,0,0,0,0,0,0,0,0,0,0,0,0,0,0,0,0,0,0,0,0,0,0,0,0,0,0,0,0,0,0,0,0,0,0,0,0,0,0,0,0,0,0,0,0,0,0,0,0,0,0,0,0,0,0,0,0,0,0,0,0,0,0,0,0,0,0,0,0,0,0,0,0,0,0,0,0,0,0,0,0,0,0,0,0,0,0,0,0,0,0,0,0,0,0,0,0,0,0,0,0,0,0,0,0,0,0,0,0,0,0,0,0,0,0,0,0,0,0,0,0,0,0,0,0,0,0,0,0,0,0,0,0,0,0,0,0,0,0,0,0,0,0,0,0,0,0,0,0,0,0,0,0,0,0,0,0,0,0,0,0,0,0,0,0,0,0,0,0,0,0,0,0,0,0,0,0,0,0,0,0,0,0,0,0,0,0,0,0,0,0,0,0,0,0,0,0,0,0,0,0,0,0,0,0,0,0,0,0,0,0,0,0,0,0,0,0,0,0,0,0,0,0,0,0,0,0,0,0,0,0,0,0,0,0,0,0,0,0,0,0,0,0,0,0,0,0,0,0,0,0,0,0,0,0,0,0,0,0,0,0,0,0,0,0,0,0,0,0,0,0,0,0,0,0,0,0,0,0,0,0,0,0,0,0,0,0,0,0,0,0,0,0,0,0],"trees":[{"base_weights":[-8.417301E-5,3.8763782E-1,-1.0773583E-1,-1.4123029E-1,6.194948E-1,-5.2213173E-2,-6.771383E-1,2.7817755E-4,-1.3959991E-2,8.583031E-3,-8.192805E-4,3.5400137E-3,-1.3849775E-3,1.9783359E-2,-7.6208124E-3],"categories":[],"categories_nodes":[],"categories_segments":[],"categories_sizes":[],"default_left":[0,0,0,0,0,0,0,0,0,0,0,0,0,0,0],"id":0,"left_children":[1,3,5,7,9,11,13,-1,-1,-1,-1,-1,-1,-1,-1],"loss_changes":[4.679492E2,2.9884094E2,2.773827E2,1.5772282E2,2.8382428E2,2.8032376E2,1.7734457E2,0E0,0E0,0E0,0E0,0E0,0E0,0E0,0E0],"parents":[2147483647,0,0,1,1,2,2,3,3,4,4,5,5,6,6],"right_children":[2,4,6,8,10,12,14,-1,-1,-1,-1,-1,-1,-1,-1],"split_conditions":[-5.3510237E-1,-1.4370213E0,2.0812938E2,1.9537003E0,-2.6280582E0,5.076056E-1,1.9202924E2,2.7817755E-4,-1.3959991E-2,8.583031E-3,-8.192805E-4,3.5400137E-3,-1.3849775E-3,1.9783359E-2,-7.6208124E-3],"split_indices":[2,2,8,4,3,4,10,0,0,0,0,0,0,0,0],"split_type":[0,0,0,0,0,0,0,0,0,0,0,0,0,0,0],"sum_hessian":[1.1209341E4,2.435382E3,8.773959E3,7.42385E2,1.692997E3,7.9954146E3,7.785442E2,6.551043E2,8.728074E1,1.2628276E3,4.3016934E2,1.4002324E3,6.595182E3,2.3441113E1,7.551031E2],"tree_param":{"num_deleted":"0","num_feature":"13","num_nodes":"15","size_leaf_vector":"1"}},{"base_weights":[2.797424E-3,3.9272377E-1,-1.0669049E-1,-1.4424983E-1,6.266537E-1,9.299723E-3,-4.5183054E-1,-3.0533397E-3,2.0637073E-2,8.630588E-3,-7.6269975E-4,-5.239252E-4,7.5389263E-3,-3.997749E-3,-1.7829765E-2],"categories":[],"categories_nodes":[],"categories_segments":[],"categories_sizes":[],"default_left":[0,0,0,0,0,0,0,0,0,0,0,0,0,0,0],"id":1,"left_children":[1,3,5,7,9,11,13,-1,-1,-1,-1,-1,-1,-1,-1],"loss_changes":[4.7842166E2,3.086974E2,3.50273E2,2.6607202E2,2.844677E2,3.00904E2,1.5179065E2,0E0,0E0,0E0,0E0,0E0,0E0,0E0,0E0],"parents":[2147483647,0,0,1,1,2,2,3,3,4,4,5,5,6,6],"right_children":[2,4,6,8,10,12,14,-1,-1,-1,-1,-1,-1,-1,-1],"split_conditions":[-5.3510237E-1,-1.4370213E0,8.859368E-1,4.7022175E1,-2.6280582E0,3.0191478E-1,2.3072377E2,-3.0533397E-3,2.0637073E-2,8.630588E-3,-7.6269975E-4,-5.239252E-4,7.5389263E-3,-3.997749E-3,-1.7829765E-2],"split_indices":[2,2,1,1,3,1,10,0,0,0,0,0,0,0,0],"split_type":[0,0,0,0,0,0,0,0,0,0,0,0,0,0,0],"sum_hessian":[1.1204314E4,2.4557847E3,8.74853E3,7.4532166E2,1.7104629E3,6.5487007E3,2.1998296E3,6.954462E2,4.9875404E1,1.2798125E3,4.306504E2,6.0484907E3,5.0020987E2,2.1182922E3,8.153734E1],"tree_param":{"num_deleted":"0","num_feature":"13","num_nodes":"15","size_leaf_vector":"1"}},{"base_weights":[3.512666E-3,3.739926E-1,-1.0040259E-1,-1.5360448E-1,6.068154E-1,6.331761E-1,-1.406397E-1,1.110002E-4,-1.384723E-2,8.4003E-3,-6.5087696E-4,-3.1185085E-3,1.5302455E-2,-1.2382027E-3,-1.7490918E-2],"categories":[],"categories_nodes":[],"categories_segments":[],"categories_sizes":[],"default_left":[0,0,0,0,0,0,0,0,0,0,0,0,0,0,0],"id":2,"left_children":[1,3,5,7,9,11,13,-1,-1,-1,-1,-1,-1,-1,-1],"loss_changes":[4.322086E2,3.0216904E2,2.5887973E2,1.5285133E2,2.6744806E2,3.8711798E2,2.2466109E2,0E0,0E0,0E0,0E0,0E0,0E0,0E0,0E0],"parents":[2147483647,0,0,1,1,2,2,3,3,4,4,5,5,6,6],"right_children":[2,4,6,8,10,12,14,-1,-1,-1,-1,-1,-1,-1,-1],"split_conditions":[-5.3510237E-1,-1.4370213E0,1.3206754E2,1.9537003E0,-2.6280582E0,1.0418973E1,2.3072377E2,1.110002E-4,-1.384723E-2,8.4003E-3,-6.5087696E-4,-3.1185085E-3,1.5302455E-2,-1.2382027E-3,-1.7490918E-2],"split_indices":[2,2,5,4,3,7,10,0,0,0,0,0,0,0,0],"split_type":[0,0,0,0,0,0,0,0,0,0,0,0,0,0,0],"sum_hessian":[1.1224655E4,2.4581675E3,8.766487E3,7.5273773E2,1.7054299E3,4.5507623E2,8.311411E3,6.647901E2,8.794758E1,1.2658195E3,4.3961047E2,2.2193204E2,2.3314421E2,8.226465E3,8.4946365E1],"tree_param":{"num_deleted":"0","num_feature":"13","num_nodes":"15","size_leaf_vector":"1"}},{"base_weights":[3.8704084E-4,1.23836294E-1,-3.2713413E-1,5.786356E-1,1.3832699E-2,-4.0077883E-1,8.6761147E-1,4.7615264E-3,2.0705197E-2,-4.980778E-4,7.7992585E-3,-1.5473315E-3,-8.670935E-3,-8.39304E-3,1.4165022E-2],"categories":[],"categories_nodes":[],"categories_segments":[],"categories_sizes":[],"default_left":[0,0,0,0,0,0,0,0,0,0,0,0,0,0,0],"id":3,"left_children":[1,3,5,7,9,11,13,-1,-1,-1,-1,-1,-1,-1,-1],"loss_changes":[4.5405392E2,4.0802704E2,2.708289E2,2.4187671E2,3.2027945E2,3.321732E2,1.6871198E2,0E0,0E0,0E0,0E0,0E0,0E0,0E0,0E0],"parents":[2147483647,0,0,1,1,2,2,3,3,4,4,5,5,6,6],"right_children":[2,4,6,8,10,12,14,-1,-1,-1,-1,-1,-1,-1,-1],"split_conditions":[8.859368E-1,-5.3510237E-1,4.7022175E1,-5.66784E-1,3.0191478E-1,7.8269374E-1,1.4688521E2,4.7615264E-3,2.0705197E-2,-4.980778E-4,7.7992585E-3,-1.5473315E-3,-8.670935E-3,-8.39304E-3,1.4165022E-2],"split_indices":[1,2,1,2,1,12,8,0,0,0,0,0,0,0,0],"split_type":[0,0,0,0,0,0,0,0,0,0,0,0,0,0,0],"sum_hessian":[1.1227993E4,8.154879E3,3.0731145E3,1.5874518E3,6.5674272E3,2.8953105E3,1.7780382E2,1.4866478E3,1.0080405E2,6.0645693E3,5.0285767E2,1.8961569E3,9.991538E2,4.3135117E1,1.346687E2],"tree_param":{"num_deleted":"0","num_feature":"13","num_nodes":"15","size_leaf_vector":"1"}},{"base_weights":[-9.582962E-4,1.1954128E-1,-3.1968388E-1,4.6017918E-1,-1.3214366E-2,-3.9032814E-1,8.435149E-1,9.775221E-3,2.4065645E-3,-1.2969275E-3,6.3651344E-3,-1.5118023E-3,-8.465259E-3,-8.549588E-3,1.4153926E-2],"categories":[],"categories_nodes":[],"categories_segments":[],"categories_sizes":[],"default_left":[0,0,0,0,0,0,0,0,0,0,0,0,0,0,0],"id":4,"left_children":[1,3,5,7,9,11,13,-1,-1,-1,-1,-1,-1,-1,-1],"loss_changes":[4.3107507E2,3.683271E2,2.5336362E2,2.5916745E2,4.4369122E2,3.1665704E2,1.7276627E2,0E0,0E0,0E0,0E0,0E0,0E0,0E0,0E0],"parents":[2147483647,0,0,1,1,2,2,3,3,4,4,5,5,6,6],"right_children":[2,4,6,8,10,12,14,-1,-1,-1,-1,-1,-1,-1,-1],"split_conditions":[8.859368E-1,-1.4786308E0,4.7022175E1,9.8227906E-1,-3.1559438E-1,7.8269374E-1,1.4688521E2,9.775221E-3,2.4065645E-3,-1.2969275E-3,6.3651344E-3,-1.5118023E-3,-8.465259E-3,-8.549588E-3,1.4153926E-2],"split_indices":[1,12,1,4,1,12,8,0,0,0,0,0,0,0,0],"split_type":[0,0,0,0,0,0,0,0,0,0,0,0,0,0,0],"sum_hessian":[1.1222078E4,8.143802E3,3.0782766E3,2.2831072E3,5.8606943E3,2.9026548E3,1.756218E2,6.791413E2,1.603966E3,4.9704326E3,8.902619E2,1.9052279E3,9.974269E2,4.4112602E1,1.3150919E2],"tree_param":{"num_deleted":"0","num_feature":"13","num_nodes":"15","size_leaf_vector":"1"}},{"base_weights":[-2.6389544E-3,1.2077578E-1,-3.306488E-1,4.606577E-1,-1.2727702E-2,-4.00257E-1,8.179902E-1,9.702512E-3,2.420684E-3,-1.24984E-3,6.1390554E-3,-1.5823422E-3,-8.595798E-3,1.2233199E-2,-1.80902E-2],"categories":[],"categories_nodes":[],"categories_segments":[],"categories_sizes":[],"default_left":[0,0,0,0,0,0,0,0,0,0,0,0,0,0,0],"id":5,"left_children":[1,3,5,7,9,11,13,-1,-1,-1,-1,-1,-1,-1,-1],"loss_changes":[4.5505164E2,3.706267E2,2.4604251E2,2.563582E2,4.126667E2,3.2205334E2,1.8953769E2,0E0,0E0,0E0,0E0,0E0,0E0,0E0,0E0],"parents":[2147483647,0,0,1,1,2,2,3,3,4,4,5,5,6,6],"right_children":[2,4,6,8,10,12,14,-1,-1,-1,-1,-1,-1,-1,-1],"split_conditions":[8.859368E-1,-1.4786308E0,4.7022175E1,9.8227906E-1,-3.1559438E-1,7.8269374E-1,8.0324776E1,9.702512E-3,2.420684E-3,-1.24984E-3,6.1390554E-3,-1.5823422E-3,-8.595798E-3,1.2233199E-2,-1.80902E-2],"split_indices":[1,12,1,4,1,12,3,0,0,0,0,0,0,0,0],"split_type":[0,0,0,0,0,0,0,0,0,0,0,0,0,0,0],"sum_hessian":[1.123906E4,8.166878E3,3.0721814E3,2.3025205E3,5.8643574E3,2.8972576E3,1.7492387E2,6.9014886E2,1.6123716E3,4.97409E3,8.9026764E2,1.8983424E3,9.9891516E2,1.5200488E2,2.2918985E1],"tree_param":{"num_deleted":"0","num_feature":"13","num_nodes":"15","size_leaf_vector":"1"}},{"base_weights":[4.442329E-3,1.2469172E-1,-3.1400806E-1,5.693563E-1,1.7070761E-2,-3.8411468E-1,8.253668E-1,4.6993764E-3,2.0412399E-2,-4.2331862E-4,7.3449938E-3,-1.4291701E-3,-8.438589E-3,-8.607529E-3,1.3817417E-2],"categories":[],"categories_nodes":[],"categories_segments":[],"categories_sizes":[],"default_left":[0,0,0,0,0,0,0,0,0,0,0,0,0,0,0],"id":6,"left_children":[1,3,5,7,9,11,13,-1,-1,-1,-1,-1,-1,-1,-1],"loss_changes":[4.2875644E2,3.889354E2,2.4546466E2,2.3079364E2,2.789517E2,3.205516E2,1.6837254E2,0E0,0E0,0E0,0E0,0E0,0E0,0E0,0E0],"parents":[2147483647,0,0,1,1,2,2,3,3,4,4,5,5,6,6],"right_children":[2,4,6,8,10,12,14,-1,-1,-1,-1,-1,-1,-1,-1],"split_conditions":[8.859368E-1,-5.3510237E-1,4.7022175E1,-5.66784E-1,3.0191478E-1,7.8269374E-1,1.4688521E2,4.6993764E-3,2.0412399E-2,-4.2331862E-4,7.3449938E-3,-1.4291701E-3,-8.438589E-3,-8.607529E-3,1.3817417E-2],"split_indices":[1,2,1,2,1,12,8,0,0,0,0,0,0,0,0],"split_type":[0,0,0,0,0,0,0,0,0,0,0,0,0,0,0],"sum_hessian":[1.1194573E4,8.1265366E3,3.0680364E3,1.5827391E3,6.543798E3,2.8908245E3,1.7721182E2,1.4838326E3,9.890647E1,6.0442764E3,4.9952115E2,1.896937E3,9.938876E2,4.383148E1,1.3338034E2],"tree_param":{"num_deleted":"0","num_feature":"13","num_nodes":"15","size_leaf_vector":"1"}},{"base_weights":[-8.315008E-3,1.0656053E-1,-3.1258976E-1,4.365015E-1,-2.3201006E-2,-3.7808663E-1,7.8062063E-1,9.418545E-3,2.1987194E-3,-1.3309256E-3,5.931352E-3,-1.4566312E-3,-8.207072E-3,-8.924296E-3,1.3292283E-2],"categories":[],"categories_nodes":[],"categories_segments":[],"categories_sizes":[],"default_left":[0,0,0,0,0,0,0,0,0,0,0,0,0,0,0],"id":7,"left_children":[1,3,5,7,9,11,13,-1,-1,-1,-1,-1,-1,-1,-1],"loss_changes":[3.918337E2,3.484193E2,2.2027835E2,2.512702E2,3.9573645E2,2.9814923E2,1.6088373E2,0E0,0E0,0E0,0E0,0E0,0E0,0E0,0E0],"parents":[2147483647,0,0,1,1,2,2,3,3,4,4,5,5,6,6],"right_children":[2,4,6,8,10,12,14,-1,-1,-1,-1,-1,-1,-1,-1],"split_conditions":[8.859368E-1,-1.4786308E0,4.7022175E1,9.8227906E-1,-3.1559438E-1,7.8269374E-1,1.4688521E2,9.418545E-3,2.1987194E-3,-1.3309256E-3,5.931352E-3,-1.4566312E-3,-8.207072E-3,-8.924296E-3,1.3292283E-2],"split_indices":[1,12,1,4,1,12,8,0,0,0,0,0,0,0,0],"split_type":[0,0,0,0,0,0,0,0,0,0,0,0,0,0,0],"sum_hessian":[1.1208118E4,8.136807E3,3.071311E3,2.2961326E3,5.840675E3,2.8983198E3,1.729912E2,6.879458E2,1.6081866E3,4.957539E3,8.831356E2,1.9012748E3,9.9704504E2,4.256302E1,1.3042818E2],"tree_param":{"num_deleted":"0","num_feature":"13","num_nodes":"15","size_leaf_vector":"1"}},{"base_weights":[5.536196E-4,1.1750438E-1,-3.1036565E-1,9.6071297E-1,7.486895E-2,-3.761922E-1,7.6646227E-1,1.6254595E-2,3.1587565E-3,1.6912786E-4,8.600657E-3,-4.04505E-3,2.0589614E-2,1.9882057E-2,4.3053835E-5],"categories":[],"categories_nodes":[],"categories_segments":[],"categories_sizes":[],"default_left":[0,0,0,0,0,0,0,0,0,0,0,0,0,0,0],"id":8,"left_children":[1,3,5,7,9,11,13,-1,-1,-1,-1,-1,-1,-1,-1],"loss_changes":[4.079604E2,2.9302322E2,2.1766162E2,1.6764905E2,3.5318448E2,2.0012967E2,1.6479933E2,0E0,0E0,0E0,0E0,0E0,0E0,0E0,0E0],"parents":[2147483647,0,0,1,1,2,2,3,3,4,4,5,5,6,6],"right_children":[2,4,6,8,10,12,14,-1,-1,-1,-1,-1,-1,-1,-1],"split_conditions":[8.859368E-1,1.3731682E2,4.7022175E1,1.322073E2,3.703728E-1,2.8791824E2,2.7457142E0,1.6254595E-2,3.1587565E-3,1.6912786E-4,8.600657E-3,-4.04505E-3,2.0589614E-2,1.9882057E-2,4.3053835E-5],"split_indices":[1,9,1,5,1,7,6,0,0,0,0,0,0,0,0],"split_type":[0,0,0,0,0,0,0,0,0,0,0,0,0,0,0],"sum_hessian":[1.1217338E4,8.1517275E3,3.0656104E3,3.9130408E2,7.7604233E3,2.8896184E3,1.7599197E2,1.9192879E2,1.9937529E2,7.2279434E3,5.3248016E2,2.8572322E3,3.2386326E1,6.6993004E1,1.0899898E2],"tree_param":{"num_deleted":"0","num_feature":"13","num_nodes":"15","size_leaf_vector":"1"}},{"base_weights":[-1.1703263E-3,3.4572133E-1,-1.0086535E-1,-1.5091835E-1,5.582011E-1,6.0638434E-1,-1.4079043E-1,-9.850615E-3,5.179458E-4,1.6891092E-2,4.654201E-3,-3.3511105E-3,1.4934795E-2,-1.241045E-3,-1.7222041E-2],"categories":[],"categories_nodes":[],"categories_segments":[],"categories_sizes":[],"default_left":[0,0,0,0,0,0,0,0,0,0,0,0,0,0,0],"id":9,"left_children":[1,3,5,7,9,11,13,-1,-1,-1,-1,-1,-1,-1,-1],"loss_changes":[3.8808344E2,2.644374E2,2.4621512E2,1.27108734E2,1.833277E2,3.8966492E2,2.1752455E2,0E0,0E0,0E0,0E0,0E0,0E0,0E0,0E0],"parents":[2147483647,0,0,1,1,2,2,3,3,4,4,5,5,6,6],"right_children":[2,4,6,8,10,12,14,-1,-1,-1,-1,-1,-1,-1,-1],"split_conditions":[-5.215694E-1,-1.4370213E0,1.3206754E2,1.5345485E2,-1.1136364E0,1.0418973E1,2.3072377E2,-9.850615E-3,5.179458E-4,1.6891092E-2,4.654201E-3,-3.3511105E-3,1.4934795E-2,-1.241045E-3,-1.7222041E-2],"split_indices":[2,2,5,5,2,7,10,0,0,0,0,0,0,0,0],"split_type":[0,0,0,0,0,0,0,0,0,0,0,0,0,0,0],"sum_hessian":[1.1219669E4,2.504103E3,8.715565E3,7.5041345E2,1.7536897E3,4.649559E2,8.25061E3,1.4595677E2,6.0445667E2,1.3166144E2,1.6220282E3,2.2586363E2,2.3909225E2,8.1655317E3,8.507832E1],"tree_param":{"num_deleted":"0","num_feature":"13","num_nodes":"15","size_leaf_vector":"1"}},{"base_weights":[2.63879E-3,3.6794522E-1,-9.946219E-2,-1.1911878E-1,5.810418E-1,1.0903827E-2,-4.247196E-1,-2.6830635E-3,1.9515255E-2,8.103856E-3,-9.6806226E-4,-4.961121E-4,7.349041E-3,-1.9285578E-3,-7.4529205E-3],"categories":[],"categories_nodes":[],"categories_segments":[],"categories_sizes":[],"default_left":[0,0,0,0,0,0,0,0,0,0,0,0,0,0,0],"id":10,"left_children":[1,3,5,7,9,11,13,-1,-1,-1,-1,-1,-1,-1,-1],"loss_changes":[4.1798447E2,2.5414859E2,3.14416E2,2.3093683E2,2.648421E2,2.8659836E2,1.647955E2,0E0,0E0,0E0,0E0,0E0,0E0,0E0,0E0],"parents":[2147483647,0,0,1,1,2,2,3,3,4,4,5,5,6,6],"right_children":[2,4,6,8,10,12,14,-1,-1,-1,-1,-1,-1,-1,-1],"split_conditions":[-5.3510237E-1,-1.4370213E0,8.859368E-1,4.7022175E1,-2.6280582E0,3.0191478E-1,7.8269374E-1,-2.6830635E-3,1.9515255E-2,8.103856E-3,-9.6806226E-4,-4.961121E-4,7.349041E-3,-1.9285578E-3,-7.4529205E-3],"split_indices":[2,2,1,1,3,1,12,0,0,0,0,0,0,0,0],"split_type":[0,0,0,0,0,0,0,0,0,0,0,0,0,0,0],"sum_hessian":[1.1204595E4,2.446975E3,8.75762E3,7.448805E2,1.7020945E3,6.539582E3,2.2180378E3,6.956315E2,4.9249027E1,1.2716481E3,4.3044638E2,6.035999E3,5.035831E2,1.2880314E3,9.300064E2],"tree_param":{"num_deleted":"0","num_feature":"13","num_nodes":"15","size_leaf_vector":"1"}},{"base_weights":[-2.9251835E-4,1.14982404E-1,-3.066059E-1,5.4516417E-1,1.1184662E-2,-3.7456283E-1,7.919101E-1,4.45002E-3,2.0055562E-2,-4.987743E-4,7.418404E-3,-1.5367583E-3,-7.947416E-3,-8.626986E-3,1.3513001E-2],"categories":[],"categories_nodes":[],"categories_segments":[],"categories_sizes":[],"default_left":[0,0,0,0,0,0,0,0,0,0,0,0,0,0,0],"id":11,"left_children":[1,3,5,7,9,11,13,-1,-1,-1,-1,-1,-1,-1,-1],"loss_changes":[3.9541275E2,3.6329553E2,2.2887561E2,2.3045142E2,2.9252426E2,2.6756924E2,1.6656985E2,0E0,0E0,0E0,0E0,0E0,0E0,0E0,0E0],"parents":[2147483647,0,0,1,1,2,2,3,3,4,4,5,5,6,6],"right_children":[2,4,6,8,10,12,14,-1,-1,-1,-1,-1,-1,-1,-1],"split_conditions":[8.859368E-1,-5.3510237E-1,4.7022175E1,-5.66784E-1,3.0191478E-1,7.8269374E-1,1.5153972E2,4.45002E-3,2.0055562E-2,-4.987743E-4,7.418404E-3,-1.5367583E-3,-7.947416E-3,-8.626986E-3,1.3513001E-2],"split_indices":[1,2,1,2,1,12,9,0,0,0,0,0,0,0,0],"split_type":[0,0,0,0,0,0,0,0,0,0,0,0,0,0,0],"sum_hessian":[1.1196244E4,8.135308E3,3.0609363E3,1.5805574E3,6.554751E3,2.8832314E3,1.7770482E2,1.4803323E3,1.0022506E2,6.0500684E3,5.0468237E2,1.8906742E3,9.925571E2,4.476199E1,1.3294283E2],"tree_param":{"num_deleted":"0","num_feature":"13","num_nodes":"15","size_leaf_vector":"1"}},{"base_weights":[-3.6619562E-3,3.429644E-1,-1.00668356E-1,-1.4671429E-1,5.5896723E-1,6.9328113E-3,-4.1954923E-1,-2.929375E-3,1.9195572E-2,4.8891087E-3,2.0047788E-2,-5.4360105E-4,7.3414957E-3,-1.8206396E-3,-7.462198E-3],"categories":[],"categories_nodes":[],"categories_segments":[],"categories_sizes":[],"default_left":[0,0,0,0,0,0,0,0,0,0,0,0,0,0,0],"id":12,"left_children":[1,3,5,7,9,11,13,-1,-1,-1,-1,-1,-1,-1,-1],"loss_changes":[3.7660815E2,2.5912717E2,3.002714E2,2.27297E2,1.7117487E2,2.9173654E2,1.711535E2,0E0,0E0,0E0,0E0,0E0,0E0,0E0,0E0],"parents":[2147483647,0,0,1,1,2,2,3,3,4,4,5,5,6,6],"right_children":[2,4,6,8,10,12,14,-1,-1,-1,-1,-1,-1,-1,-1],"split_conditions":[-5.3510237E-1,-1.4370213E0,8.859368E-1,4.7022175E1,1.3770026E2,3.0191478E-1,7.8269374E-1,-2.929375E-3,1.9195572E-2,4.8891087E-3,2.0047788E-2,-5.4360105E-4,7.3414957E-3,-1.8206396E-3,-7.462198E-3],"split_indices":[2,2,1,1,7,1,12,0,0,0,0,0,0,0,0],"split_type":[0,0,0,0,0,0,0,0,0,0,0,0,0,0,0],"sum_hessian":[1.1198224E4,2.4480908E3,8.750133E3,7.4943695E2,1.6986539E3,6.5432104E3,2.2069216E3,7.007084E2,4.8728592E1,1.6214264E3,7.722755E1,6.035443E3,5.0776755E2,1.2788046E3,9.281171E2],"tree_param":{"num_deleted":"0","num_feature":"13","num_nodes":"15","size_leaf_vector":"1"}},{"base_weights":[7.689799E-4,3.488543E-1,-9.8747514E-2,-1.4398754E-1,5.6045043E-1,7.155134E-3,-4.112404E-1,-2.9215072E-3,1.9024422E-2,1.663376E-2,4.705387E-3,-5.152874E-4,6.992123E-3,-1.8369212E-3,-7.251264E-3],"categories":[],"categories_nodes":[],"categories_segments":[],"categories_sizes":[],"default_left":[0,0,0,0,0,0,0,0,0,0,0,0,0,0,0],"id":13,"left_children":[1,3,5,7,9,11,13,-1,-1,-1,-1,-1,-1,-1,-1],"loss_changes":[3.8811603E2,2.5985687E2,2.8835428E2,2.2767178E2,1.7206445E2,2.6437088E2,1.5738968E2,0E0,0E0,0E0,0E0,0E0,0E0,0E0,0E0],"parents":[2147483647,0,0,1,1,2,2,3,3,4,4,5,5,6,6],"right_children":[2,4,6,8,10,12,14,-1,-1,-1,-1,-1,-1,-1,-1],"split_conditions":[-5.215694E-1,-1.4370213E0,8.859368E-1,4.7022175E1,-1.1136364E0,3.0191478E-1,7.8269374E-1,-2.9215072E-3,1.9024422E-2,1.663376E-2,4.705387E-3,-5.152874E-4,6.992123E-3,-1.8369212E-3,-7.251264E-3],"split_indices":[2,2,1,1,2,1,12,0,0,0,0,0,0,0,0],"split_type":[0,0,0,0,0,0,0,0,0,0,0,0,0,0,0],"sum_hessian":[1.1202205E4,2.4900588E3,8.712146E3,7.4804944E2,1.7420093E3,6.5076914E3,2.2044548E3,6.983459E2,4.970358E1,1.2998718E2,1.6120221E3,5.9998516E3,5.0783954E2,1.2789089E3,9.255458E2],"tree_param":{"num_deleted":"0","num_feature":"13","num_nodes":"15","size_leaf_vector":"1"}},{"base_weights":[-3.0673603E-3,1.0662686E-1,-2.9476586E-1,4.1814554E-1,-1.5075554E-2,1.4791802E0,-3.347124E-1,9.144989E-3,2.0453534E-3,-5.711837E-3,1.0490742E-3,-1.6927266E-2,2.070018E-2,-3.9992644E-3,7.2206166E-3],"categories":[],"categories_nodes":[],"categories_segments":[],"categories_sizes":[],"default_left":[0,0,0,0,0,0,0,0,0,0,0,0,0,0,0],"id":14,"left_children":[1,3,5,7,9,11,13,-1,-1,-1,-1,-1,-1,-1,-1],"loss_changes":[3.5930325E2,3.0938635E2,2.1795358E2,2.4287552E2,3.91652E2,1.3050209E2,2.07173E2,0E0,0E0,0E0,0E0,0E0,0E0,0E0,0E0],"parents":[2147483647,0,0,1,1,2,2,3,3,4,4,5,5,6,6],"right_children":[2,4,6,8,10,12,14,-1,-1,-1,-1,-1,-1,-1,-1],"split_conditions":[8.859368E-1,-1.4786308E0,-8.312109E0,9.8227906E-1,3.685481E1,1.4333335E0,4.7022175E1,9.144989E-3,2.0453534E-3,-5.711837E-3,1.0490742E-3,-1.6927266E-2,2.070018E-2,-3.9992644E-3,7.2206166E-3],"split_indices":[1,12,3,4,0,1,1,0,0,0,0,0,0,0,0],"split_type":[0,0,0,0,0,0,0,0,0,0,0,0,0,0,0],"sum_hessian":[1.1227073E4,8.1593545E3,3.0677188E3,2.2914783E3,5.8678765E3,6.6765495E1,3.0009531E3,6.8846106E2,1.6030172E3,1.0406793E3,4.827197E3,1.0190881E1,5.657461E1,2.8271123E3,1.7384097E2],"tree_param":{"num_deleted":"0","num_feature":"13","num_nodes":"15","size_leaf_vector":"1"}},{"base_weights":[4.804305E-4,1.0915668E-1,-2.8877756E-1,5.1441795E-1,1.1417629E-2,-3.519698E-1,7.624194E-1,4.1497024E-3,1.9735694E-2,6.662991E-4,-7.2135683E-3,-1.3108804E-3,-7.776336E-3,1.1331017E-2,-1.768059E-2],"categories":[],"categories_nodes":[],"categories_segments":[],"categories_sizes":[],"default_left":[0,0,0,0,0,0,0,0,0,0,0,0,0,0,0],"id":15,"left_children":[1,3,5,7,9,11,13,-1,-1,-1,-1,-1,-1,-1,-1],"loss_changes":[3.5230594E2,3.2267786E2,2.0358421E2,2.2888184E2,2.6563968E2,2.7141696E2,1.6509976E2,0E0,0E0,0E0,0E0,0E0,0E0,0E0,0E0],"parents":[2147483647,0,0,1,1,2,2,3,3,4,4,5,5,6,6],"right_children":[2,4,6,8,10,12,14,-1,-1,-1,-1,-1,-1,-1,-1],"split_conditions":[8.859368E-1,-5.3510237E-1,4.7022175E1,-5.66784E-1,2.1057397E2,7.8269374E-1,8.0324776E1,4.1497024E-3,1.9735694E-2,6.662991E-4,-7.2135683E-3,-1.3108804E-3,-7.776336E-3,1.1331017E-2,-1.768059E-2],"split_indices":[1,2,1,2,8,12,3,0,0,0,0,0,0,0,0],"split_type":[0,0,0,0,0,0,0,0,0,0,0,0,0,0,0],"sum_hessian":[1.120527E4,8.145552E3,3.059718E3,1.5819508E3,6.5636006E3,2.886842E3,1.7287611E2,1.4822156E3,9.973525E1,6.104551E3,4.5904987E2,1.9014604E3,9.8538153E2,1.5126935E2,2.160678E1],"tree_param":{"num_deleted":"0","num_feature":"13","num_nodes":"15","size_leaf_vector":"1"}},{"base_weights":[-3.219552E-3,3.3859628E-1,-9.881839E-2,-1.5010792E-1,5.5116814E-1,6.0546445E-3,-4.1274557E-1,-2.9733109E-3,1.8683784E-2,1.6327176E-2,4.5999903E-3,6.8434974E-4,-6.415453E-3,-3.5987585E-3,-1.7531216E-2],"categories":[],"categories_nodes":[],"categories_segments":[],"categories_sizes":[],"default_left":[0,0,0,0,0,0,0,0,0,0,0,0,0,0,0],"id":16,"left_children":[1,3,5,7,9,11,13,-1,-1,-1,-1,-1,-1,-1,-1],"loss_changes":[3.6597656E2,2.5436731E2,2.8813934E2,2.2127805E2,1.6746753E2,2.6510608E2,1.5467911E2,0E0,0E0,0E0,0E0,0E0,0E0,0E0,0E0],"parents":[2147483647,0,0,1,1,2,2,3,3,4,4,5,5,6,6],"right_children":[2,4,6,8,10,12,14,-1,-1,-1,-1,-1,-1,-1,-1],"split_conditions":[-5.3510237E-1,-1.4370213E0,8.859368E-1,4.7022175E1,-1.1136364E0,2.0848186E2,2.3072377E2,-2.9733109E-3,1.8683784E-2,1.6327176E-2,4.5999903E-3,6.8434974E-4,-6.415453E-3,-3.5987585E-3,-1.7531216E-2],"split_indices":[2,2,1,1,2,8,10,0,0,0,0,0,0,0,0],"split_type":[0,0,0,0,0,0,0,0,0,0,0,0,0,0,0],"sum_hessian":[1.119773E4,2.446756E3,8.750975E3,7.417535E2,1.7050026E3,6.5603516E3,2.190623E3,6.921244E2,4.9629066E1,1.3123526E2,1.5737673E3,5.984761E3,5.755903E2,2.1087153E3,8.190754E1],"tree_param":{"num_deleted":"0","num_feature":"13","num_nodes":"15","size_leaf_vector":"1"}},{"base_weights":[2.43681E-3,3.4035578E-1,-9.286061E-2,-1.3859479E-1,5.512146E-1,6.466873E-1,-1.3408782E-1,-2.7672013E-3,1.8507646E-2,7.7717137E-3,-1.0605856E-3,2.9765018E-3,1.7041754E-2,-1.0639056E-2,-1.0604403E-3],"categories":[],"categories_nodes":[],"categories_segments":[],"categories_sizes":[],"default_left":[0,0,0,0,0,0,0,0,0,0,0,0,0,0,0],"id":17,"left_children":[1,3,5,7,9,11,13,-1,-1,-1,-1,-1,-1,-1,-1],"loss_changes":[3.6072574E2,2.4892874E2,2.6649164E2,2.0770229E2,2.5420502E2,1.6984926E2,2.1571642E2,0E0,0E0,0E0,0E0,0E0,0E0,0E0,0E0],"parents":[2147483647,0,0,1,1,2,2,3,3,4,4,5,5,6,6],"right_children":[2,4,6,8,10,12,14,-1,-1,-1,-1,-1,-1,-1,-1],"split_conditions":[-5.3510237E-1,-1.4370213E0,1.3206754E2,4.7022175E1,-2.6280582E0,3.2542858E0,-9.807708E0,-2.7672013E-3,1.8507646E-2,7.7717137E-3,-1.0605856E-3,2.9765018E-3,1.7041754E-2,-1.0639056E-2,-1.0604403E-3],"split_indices":[2,2,5,1,3,6,1,0,0,0,0,0,0,0,0],"split_type":[0,0,0,0,0,0,0,0,0,0,0,0,0,0,0],"sum_hessian":[1.1199704E4,2.4631057E3,8.736598E3,7.530193E2,1.7100864E3,4.6054236E2,8.276056E3,7.049351E2,4.8084206E1,1.2724591E3,4.3762735E2,3.4721967E2,1.133227E2,2.4122067E2,8.034835E3],"tree_param":{"num_deleted":"0","num_feature":"13","num_nodes":"15","size_leaf_vector":"1"}},{"base_weights":[-1.470969E-3,3.4040117E-1,-9.736849E-2,-1.4981581E-1,5.531517E-1,6.301106E-3,-4.0663773E-1,-2.922208E-3,1.8355066E-2,4.8294296E-3,1.955499E-2,4.227798E-3,-8.6727284E-4,-7.2321906E-3,-1.495993E-3],"categories":[],"categories_nodes":[],"categories_segments":[],"categories_sizes":[],"default_left":[0,0,0,0,0,0,0,0,0,0,0,0,0,0,0],"id":18,"left_children":[1,3,5,7,9,11,13,-1,-1,-1,-1,-1,-1,-1,-1],"loss_changes":[3.6820074E2,2.5666983E2,2.8120502E2,2.1126617E2,1.6799432E2,2.5457631E2,1.7906921E2,0E0,0E0,0E0,0E0,0E0,0E0,0E0,0E0],"parents":[2147483647,0,0,1,1,2,2,3,3,4,4,5,5,6,6],"right_children":[2,4,6,8,10,12,14,-1,-1,-1,-1,-1,-1,-1,-1],"split_conditions":[-5.3510237E-1,-1.4370213E0,8.859368E-1,4.7022175E1,1.3770026E2,5.01191E-1,8.1783885E-1,-2.922208E-3,1.8355066E-2,4.8294296E-3,1.955499E-2,4.227798E-3,-8.6727284E-4,-7.2321906E-3,-1.495993E-3],"split_indices":[2,2,1,1,7,4,4,0,0,0,0,0,0,0,0],"split_type":[0,0,0,0,0,0,0,0,0,0,0,0,0,0,0],"sum_hessian":[1.1228863E4,2.4592288E3,8.769635E3,7.4436615E2,1.7148625E3,6.5687236E3,2.200911E3,6.953428E2,4.902337E1,1.6343813E3,8.04812E1,1.1987036E3,5.37002E3,9.85413E2,1.2154978E3],"tree_param":{"num_deleted":"0","num_feature":"13","num_nodes":"15","size_leaf_vector":"1"}},{"base_weights":[-2.7524666E-3,1.0392087E-1,-2.8525698E-1,5.0404674E-1,7.0292642E-3,1.4026668E0,-3.2463118E-1,4.06294E-3,1.9390216E-2,-5.0319167E-4,6.8473103E-3,-1.6909648E-2,2.0469718E-2,-3.9225793E-3,7.491208E-3],"categories":[],"categories_nodes":[],"categories_segments":[],"categories_sizes":[],"default_left":[0,0,0,0,0,0,0,0,0,0,0,0,0,0,0],"id":19,"left_children":[1,3,5,7,9,11,13,-1,-1,-1,-1,-1,-1,-1,-1],"loss_changes":[3.3791147E2,3.15557E2,2.0472017E2,2.2179105E2,2.5474814E2,1.4348355E2,2.1844366E2,0E0,0E0,0E0,0E0,0E0,0E0,0E0,0E0],"parents":[2147483647,0,0,1,1,2,2,3,3,4,4,5,5,6,6],"right_children":[2,4,6,8,10,12,14,-1,-1,-1,-1,-1,-1,-1,-1],"split_conditions":[8.859368E-1,-5.3510237E-1,-8.312109E0,-5.66784E-1,3.0191478E-1,1.4333335E0,4.7022175E1,4.06294E-3,1.9390216E-2,-5.0319167E-4,6.8473103E-3,-1.6909648E-2,2.0469718E-2,-3.9225793E-3,7.491208E-3],"split_indices":[1,2,3,2,1,1,1,0,0,0,0,0,0,0,0],"split_type":[0,0,0,0,0,0,0,0,0,0,0,0,0,0,0],"sum_hessian":[1.1211013E4,8.138542E3,3.0724707E3,1.5857576E3,6.552784E3,6.924848E1,3.0032222E3,1.485824E3,9.993355E1,6.0423916E3,5.1039304E2,1.165629E1,5.759219E1,2.8258782E3,1.7734409E2],"tree_param":{"num_deleted":"0","num_feature":"13","num_nodes":"15","size_leaf_vector":"1"}},{"base_weights":[1.9252042E-5,3.2850134E-1,-9.167286E-2,-1.2438534E-1,5.2628064E-1,-7.6097496E-2,-1.6681458E0,4.0284987E-4,-1.3052231E-2,7.591871E-3,-1.6216802E-3,2.0192156E-2,-8.6932845E-4,-1.8063098E-2,-1.3676456E-3],"categories":[],"categories_nodes":[],"categories_segments":[],"categories_sizes":[],"default_left":[0,0,0,0,0,0,0,0,0,0,0,0,0,0,0],"id":20,"left_children":[1,3,5,7,9,11,13,-1,-1,-1,-1,-1,-1,-1,-1],"loss_changes":[3.377194E2,2.1923761E2,2.151112E2,1.4483482E2,2.7323984E2,1.9726753E2,1.7887817E1,0E0,0E0,0E0,0E0,0E0,0E0,0E0,0E0],"parents":[2147483647,0,0,1,1,2,2,3,3,4,4,5,5,6,6],"right_children":[2,4,6,8,10,12,14,-1,-1,-1,-1,-1,-1,-1,-1],"split_conditions":[-5.3510237E-1,-1.4370213E0,2.3072377E2,1.9537003E0,-2.6280582E0,1.307733E2,2.2731671E2,4.0284987E-4,-1.3052231E-2,7.591871E-3,-1.6216802E-3,2.0192156E-2,-8.6932845E-4,-1.8063098E-2,-1.3676456E-3],"split_indices":[2,2,10,4,3,11,11,0,0,0,0,0,0,0,0],"split_type":[0,0,0,0,0,0,0,0,0,0,0,0,0,0,0],"sum_hessian":[1.1210756E4,2.4458928E3,8.764862E3,7.4357715E2,1.7023156E3,8.680152E3,8.471058E1,6.53422E2,9.015519E1,1.2719158E3,4.3039978E2,4.3702553E1,8.636449E3,7.753563E1,7.174945E0],"tree_param":{"num_deleted":"0","num_feature":"13","num_nodes":"15","size_leaf_vector":"1"}},{"base_weights":[-6.5151637E-4,3.1879142E-1,-8.990906E-2,-1.3500085E-1,5.166244E-1,-4.0349096E-2,-6.026596E-1,2.5468715E-4,-1.3052264E-2,7.408511E-3,-1.4861658E-3,-2.2867275E-4,-1.7905047E-2,1.9910662E-2,-6.904956E-3],"categories":[],"categories_nodes":[],"categories_segments":[],"categories_sizes":[],"default_left":[0,0,0,0,0,0,0,0,0,0,0,0,0,0,0],"id":21,"left_children":[1,3,5,7,9,11,13,-1,-1,-1,-1,-1,-1,-1,-1],"loss_changes":[3.181014E2,2.1880713E2,2.2156674E2,1.390911E2,2.5324133E2,2.43273E2,1.7645078E2,0E0,0E0,0E0,0E0,0E0,0E0,0E0,0E0],"parents":[2147483647,0,0,1,1,2,2,3,3,4,4,5,5,6,6],"right_children":[2,4,6,8,10,12,14,-1,-1,-1,-1,-1,-1,-1,-1],"split_conditions":[-5.3510237E-1,-1.4370213E0,2.0812938E2,1.9537003E0,-2.6280582E0,2.3072377E2,1.9202924E2,2.5468715E-4,-1.3052264E-2,7.408511E-3,-1.4861658E-3,-2.2867275E-4,-1.7905047E-2,1.9910662E-2,-6.904956E-3],"split_indices":[2,2,8,4,3,10,10,0,0,0,0,0,0,0,0],"split_type":[0,0,0,0,0,0,0,0,0,0,0,0,0,0,0],"sum_hessian":[1.1154479E4,2.4355044E3,8.718975E3,7.3951385E2,1.6959905E3,7.9515E3,7.6747455E2,6.5119556E2,8.831828E1,1.2683618E3,4.2762878E2,7.8738633E3,7.7636765E1,2.4429316E1,7.430452E2],"tree_param":{"num_deleted":"0","num_feature":"13","num_nodes":"15","size_leaf_vector":"1"}},{"base_weights":[-7.493171E-4,1.05016865E-1,-2.8031024E-1,4.110878E-1,-1.5417003E-2,-3.4615368E-1,7.7631223E-1,1.0794858E-2,2.5774494E-3,-1.241325E-3,5.8897734E-3,-1.2411821E-3,-7.7347932E-3,1.1201004E-2,-1.7474689E-2],"categories":[],"categories_nodes":[],"categories_segments":[],"categories_sizes":[],"default_left":[0,0,0,0,0,0,0,0,0,0,0,0,0,0,0],"id":22,"left_children":[1,3,5,7,9,11,13,-1,-1,-1,-1,-1,-1,-1,-1],"loss_changes":[3.314725E2,2.998136E2,2.1434749E2,2.3511917E2,3.8365063E2,2.7480295E2,1.5883621E2,0E0,0E0,0E0,0E0,0E0,0E0,0E0,0E0],"parents":[2147483647,0,0,1,1,2,2,3,3,4,4,5,5,6,6],"right_children":[2,4,6,8,10,12,14,-1,-1,-1,-1,-1,-1,-1,-1],"split_conditions":[8.859368E-1,-1.4786308E0,4.7022175E1,1.3558475E2,-3.1559438E-1,7.8269374E-1,8.0324776E1,1.0794858E-2,2.5774494E-3,-1.241325E-3,5.8897734E-3,-1.2411821E-3,-7.7347932E-3,1.1201004E-2,-1.7474689E-2],"split_indices":[1,12,1,10,1,12,3,0,0,0,0,0,0,0,0],"split_type":[0,0,0,0,0,0,0,0,0,0,0,0,0,0,0],"sum_hessian":[1.1208484E4,8.132386E3,3.0760981E3,2.2956929E3,5.8366934E3,2.8962883E3,1.7980977E2,4.27266E2,1.8684269E3,4.9475474E3,8.89146E2,1.9068124E3,9.8947595E2,1.5874217E2,2.1067596E1],"tree_param":{"num_deleted":"0","num_feature":"13","num_nodes":"15","size_leaf_vector":"1"}},{"base_weights":[-2.795606E-3,3.107221E-1,-9.083911E-2,-1.4624818E-1,5.1169544E-1,6.184311E-1,-1.3040707E-1,-9.61571E-3,5.8173214E-4,7.3031825E-3,-1.3073169E-3,-2.7802682E-3,1.4754494E-2,-8.018645E-4,-6.176264E-3],"categories":[],"categories_nodes":[],"categories_segments":[],"categories_sizes":[],"default_left":[0,0,0,0,0,0,0,0,0,0,0,0,0,0,0],"id":23,"left_children":[1,3,5,7,9,11,13,-1,-1,-1,-1,-1,-1,-1,-1],"loss_changes":[3.0961627E2,2.2593344E2,2.4585066E2,1.253889E2,2.4002594E2,3.5605188E2,2.0292763E2,0E0,0E0,0E0,0E0,0E0,0E0,0E0,0E0],"parents":[2147483647,0,0,1,1,2,2,3,3,4,4,5,5,6,6],"right_children":[2,4,6,8,10,12,14,-1,-1,-1,-1,-1,-1,-1,-1],"split_conditions":[-5.3510237E-1,-1.4370213E0,1.3206754E2,1.5345485E2,-2.6280582E0,1.0418973E1,2.0812938E2,-9.61571E-3,5.8173214E-4,7.3031825E-3,-1.3073169E-3,-2.7802682E-3,1.4754494E-2,-8.018645E-4,-6.176264E-3],"split_indices":[2,2,5,5,3,7,8,0,0,0,0,0,0,0,0],"split_type":[0,0,0,0,0,0,0,0,0,0,0,0,0,0,0],"sum_hessian":[1.1214658E4,2.458293E3,8.756365E3,7.509853E2,1.7073076E3,4.619058E2,8.29446E3,1.4980257E2,6.011827E2,1.2737157E3,4.3359195E2,2.2608846E2,2.3581735E2,7.520447E3,7.74013E2],"tree_param":{"num_deleted":"0","num_feature":"13","num_nodes":"15","size_leaf_vector":"1"}},{"base_weights":[3.1751846E-3,1.0739074E-1,-2.7462542E-1,8.892566E-1,6.78114E-2,-3.375262E-1,7.5604457E-1,1.6808888E-2,4.1723866E-3,1.2163999E-4,8.140777E-3,1.3700102E-2,-3.7877234E-3,1.1184586E-2,-1.7356576E-2],"categories":[],"categories_nodes":[],"categories_segments":[],"categories_sizes":[],"default_left":[0,0,0,0,0,0,0,0,0,0,0,0,0,0,0],"id":24,"left_children":[1,3,5,7,9,11,13,-1,-1,-1,-1,-1,-1,-1,-1],"loss_changes":[3.246251E2,2.5226883E2,1.9856456E2,1.4607208E2,3.2233414E2,2.0361337E2,1.6110318E2,0E0,0E0,0E0,0E0,0E0,0E0,0E0,0E0],"parents":[2147483647,0,0,1,1,2,2,3,3,4,4,5,5,6,6],"right_children":[2,4,6,8,10,12,14,-1,-1,-1,-1,-1,-1,-1,-1],"split_conditions":[8.859368E-1,1.3731682E2,4.7022175E1,1.3180026E2,3.703728E-1,-8.312109E0,8.0324776E1,1.6808888E-2,4.1723866E-3,1.2163999E-4,8.140777E-3,1.3700102E-2,-3.7877234E-3,1.1184586E-2,-1.7356576E-2],"split_indices":[1,9,1,10,1,3,3,0,0,0,0,0,0,0,0],"split_type":[0,0,0,0,0,0,0,0,0,0,0,0,0,0,0],"sum_hessian":[1.121084E4,8.1529233E3,3.0579165E3,3.917944E2,7.7611294E3,2.8826628E3,1.7525356E2,1.4539236E2,2.4640202E2,7.223505E3,5.376242E2,6.722962E1,2.815433E3,1.5348111E2,2.1772455E1],"tree_param":{"num_deleted":"0","num_feature":"13","num_nodes":"15","size_leaf_vector":"1"}},{"base_weights":[9.5327786E-4,3.1736416E-1,-8.756646E-2,-1.3726774E-1,5.176768E-1,-7.204929E-2,-1.6410497E0,2.272638E-4,-1.3089444E-2,7.3913573E-3,-1.354183E-3,1.9758428E-2,-8.319027E-4,-1.7761627E-2,-1.2506901E-3],"categories":[],"categories_nodes":[],"categories_segments":[],"categories_sizes":[],"default_left":[0,0,0,0,0,0,0,0,0,0,0,0,0,0,0],"id":25,"left_children":[1,3,5,7,9,11,13,-1,-1,-1,-1,-1,-1,-1,-1],"loss_changes":[3.1407996E2,2.2331323E2,2.1110367E2,1.4072556E2,2.4624258E2,1.9812857E2,1.751854E1,0E0,0E0,0E0,0E0,0E0,0E0,0E0,0E0],"parents":[2147483647,0,0,1,1,2,2,3,3,4,4,5,5,6,6],"right_children":[2,4,6,8,10,12,14,-1,-1,-1,-1,-1,-1,-1,-1],"split_conditions":[-5.3510237E-1,-1.4370213E0,2.3072377E2,1.9537003E0,-2.6280582E0,1.307733E2,2.2731671E2,2.272638E-4,-1.3089444E-2,7.3913573E-3,-1.354183E-3,1.9758428E-2,-8.319027E-4,-1.7761627E-2,-1.2506901E-3],"split_indices":[2,2,10,4,3,11,11,0,0,0,0,0,0,0,0],"split_type":[0,0,0,0,0,0,0,0,0,0,0,0,0,0,0],"sum_hessian":[1.1211702E4,2.4503655E3,8.761337E3,7.4953235E2,1.7008331E3,8.675725E3,8.56122E1,6.603423E2,8.919009E1,1.2700413E3,4.307919E2,4.598832E1,8.629736E3,7.844876E1,7.1634374E0],"tree_param":{"num_deleted":"0","num_feature":"13","num_nodes":"15","size_leaf_vector":"1"}},{"base_weights":[2.4235307E-3,1.0303383E-1,-2.6661876E-1,3.9790955E-1,-1.2759357E-2,-3.298919E-1,7.669824E-1,8.996537E-3,1.8415427E-3,-1.1732461E-3,5.720233E-3,-1.1228187E-3,-7.4770567E-3,1.1236121E-2,-1.7205901E-2],"categories":[],"categories_nodes":[],"categories_segments":[],"categories_sizes":[],"default_left":[0,0,0,0,0,0,0,0,0,0,0,0,0,0,0],"id":26,"left_children":[1,3,5,7,9,11,13,-1,-1,-1,-1,-1,-1,-1,-1],"loss_changes":[3.0319193E2,2.783623E2,1.996304E2,2.4636829E2,3.5806583E2,2.6117258E2,1.5821262E2,0E0,0E0,0E0,0E0,0E0,0E0,0E0,0E0],"parents":[2147483647,0,0,1,1,2,2,3,3,4,4,5,5,6,6],"right_children":[2,4,6,8,10,12,14,-1,-1,-1,-1,-1,-1,-1,-1],"split_conditions":[8.859368E-1,-1.4786308E0,4.7022175E1,9.8227906E-1,-3.1559438E-1,7.8269374E-1,8.0324776E1,8.996537E-3,1.8415427E-3,-1.1732461E-3,5.720233E-3,-1.1228187E-3,-7.4770567E-3,1.1236121E-2,-1.7205901E-2],"split_indices":[1,12,1,4,1,12,3,0,0,0,0,0,0,0,0],"split_type":[0,0,0,0,0,0,0,0,0,0,0,0,0,0,0],"sum_hessian":[1.1198929E4,8.151306E3,3.0476226E3,2.297675E3,5.8536313E3,2.8724622E3,1.7516035E2,6.854712E2,1.6122037E3,4.9663887E3,8.8724274E2,1.8895806E3,9.828817E2,1.5367685E2,2.1483505E1],"tree_param":{"num_deleted":"0","num_feature":"13","num_nodes":"15","size_leaf_vector":"1"}},{"base_weights":[-2.7399432E-4,3.1197146E-1,-8.7641865E-2,-1.2684883E-1,5.0259477E-1,6.202352E-1,-1.2692402E-1,-2.6207422E-3,1.784385E-2,5.55618E-3,-1.3870241E-2,-2.569437E-3,1.4537208E-2,-1.0634601E-2,-9.909339E-4],"categories":[],"categories_nodes":[],"categories_segments":[],"categories_sizes":[],"default_left":[0,0,0,0,0,0,0,0,0,0,0,0,0,0,0],"id":27,"left_children":[1,3,5,7,9,11,13,-1,-1,-1,-1,-1,-1,-1,-1],"loss_changes":[3.06157E2,2.0530795E2,2.4391904E2,1.9271744E2,1.7217822E2,3.3756824E2,2.1645941E2,0E0,0E0,0E0,0E0,0E0,0E0,0E0,0E0],"parents":[2147483647,0,0,1,1,2,2,3,3,4,4,5,5,6,6],"right_children":[2,4,6,8,10,12,14,-1,-1,-1,-1,-1,-1,-1,-1],"split_conditions":[-5.3510237E-1,-1.4370213E0,1.3206754E2,4.7022175E1,2.1331297E2,1.0418973E1,-9.807708E0,-2.6207422E-3,1.784385E-2,5.55618E-3,-1.3870241E-2,-2.569437E-3,1.4537208E-2,-1.0634601E-2,-9.909339E-4],"split_indices":[2,2,5,1,8,7,1,0,0,0,0,0,0,0,0],"split_type":[0,0,0,0,0,0,0,0,0,0,0,0,0,0,0],"sum_hessian":[1.1220671E4,2.4526248E3,8.768046E3,7.4286444E2,1.7097604E3,4.6020547E2,8.307841E3,6.945835E2,4.828094E1,1.6637802E3,4.5980213E1,2.2456253E2,2.3564293E2,2.3868178E2,8.069159E3],"tree_param":{"num_deleted":"0","num_feature":"13","num_nodes":"15","size_leaf_vector":"1"}},{"base_weights":[-2.1313755E-3,9.89196E-2,-2.6943517E-1,3.8553923E-1,-1.3382395E-2,-3.3109677E-1,7.4039096E-1,8.705192E-3,1.7626984E-3,-5.4943757E-3,1.0053318E-3,-1.1374684E-3,-7.4971817E-3,1.0789978E-2,-1.7048474E-2],"categories":[],"categories_nodes":[],"categories_segments":[],"categories_sizes":[],"default_left":[0,0,0,0,0,0,0,0,0,0,0,0,0,0,0],"id":28,"left_children":[1,3,5,7,9,11,13,-1,-1,-1,-1,-1,-1,-1,-1],"loss_changes":[3.0272333E2,2.617832E2,1.916864E2,2.3221417E2,3.5693564E2,2.6361954E2,1.4858899E2,0E0,0E0,0E0,0E0,0E0,0E0,0E0,0E0],"parents":[2147483647,0,0,1,1,2,2,3,3,4,4,5,5,6,6],"right_children":[2,4,6,8,10,12,14,-1,-1,-1,-1,-1,-1,-1,-1],"split_conditions":[8.859368E-1,-1.4786308E0,4.7022175E1,9.8227906E-1,3.685481E1,7.8269374E-1,8.0324776E1,8.705192E-3,1.7626984E-3,-5.4943757E-3,1.0053318E-3,-1.1374684E-3,-7.4971817E-3,1.0789978E-2,-1.7048474E-2],"split_indices":[1,12,1,4,0,12,3,0,0,0,0,0,0,0,0],"split_type":[0,0,0,0,0,0,0,0,0,0,0,0,0,0,0],"sum_hessian":[1.1205293E4,8.131796E3,3.0734976E3,2.2885288E3,5.843267E3,2.8972583E3,1.762391E2,6.8888477E2,1.599644E3,1.02343616E3,4.819831E3,1.9079269E3,9.8933154E2,1.5529343E2,2.0945683E1],"tree_param":{"num_deleted":"0","num_feature":"13","num_nodes":"15","size_leaf_vector":"1"}},{"base_weights":[7.888565E-3,3.1235373E-1,-7.734438E-2,-1.2852722E-1,5.0495005E-1,6.224527E-1,-1.1644235E-1,2.7900463E-4,-1.303508E-2,4.3746443E-3,1.8866701E-2,-2.9217664E-3,1.4556968E-2,-1.0093959E-3,-1.6339613E-2],"categories":[],"categories_nodes":[],"categories_segments":[],"categories_sizes":[],"default_left":[0,0,0,0,0,0,0,0,0,0,0,0,0,0,0],"id":29,"left_children":[1,3,5,7,9,11,13,-1,-1,-1,-1,-1,-1,-1,-1],"loss_changes":[2.9050854E2,2.0796825E2,2.3937827E2,1.3700409E2,1.5808978E2,3.5325378E2,1.947313E2,0E0,0E0,0E0,0E0,0E0,0E0,0E0,0E0],"parents":[2147483647,0,0,1,1,2,2,3,3,4,4,5,5,6,6],"right_children":[2,4,6,8,10,12,14,-1,-1,-1,-1,-1,-1,-1,-1],"split_conditions":[-5.3510237E-1,-1.4370213E0,1.3206754E2,1.9537003E0,1.3770026E2,1.0418973E1,2.3072377E2,2.7900463E-4,-1.303508E-2,4.3746443E-3,1.8866701E-2,-2.9217664E-3,1.4556968E-2,-1.0093959E-3,-1.6339613E-2],"split_indices":[2,2,5,4,7,7,10,0,0,0,0,0,0,0,0],"split_type":[0,0,0,0,0,0,0,0,0,0,0,0,0,0,0],"sum_hessian":[1.1192805E4,2.4474548E3,8.74535E3,7.4420166E2,1.703253E3,4.619629E2,8.283387E3,6.576267E2,8.657499E1,1.6251925E3,7.806061E1,2.2053596E2,2.4142694E2,8.200676E3,8.271041E1],"tree_param":{"num_deleted":"0","num_feature":"13","num_nodes":"15","size_leaf_vector":"1"}},{"base_weights":[2.4265724E-3,1.04626335E-1,-2.7009588E-1,3.9005125E-1,-7.646809E-3,-2.9573038E-1,2.012979E-2,8.8709695E-3,1.7749057E-3,-1.0977717E-3,5.57563E-3,-3.571414E-3,7.0990627E-3],"categories":[],"categories_nodes":[],"categories_segments":[],"categories_sizes":[],"default_left":[0,0,0,0,0,0,0,0,0,0,0,0,0],"id":30,"left_children":[1,3,5,7,9,11,-1,-1,-1,-1,-1,-1,-1],"loss_changes":[3.117027E2,2.6082733E2,1.7923335E2,2.4260721E2,3.3731454E2,1.8671677E2,0E0,0E0,0E0,0E0,0E0,0E0,0E0],"parents":[2147483647,0,0,1,1,2,2,3,3,4,4,5,5],"right_children":[2,4,6,8,10,12,-1,-1,-1,-1,-1,-1,-1],"split_conditions":[8.859368E-1,-1.4786308E0,2.8791824E2,9.8227906E-1,-3.1559438E-1,4.7022175E1,2.012979E-2,8.8709695E-3,1.7749057E-3,-1.0977717E-3,5.57563E-3,-3.571414E-3,7.0990627E-3],"split_indices":[1,12,7,4,1,1,0,0,0,0,0,0,0],"split_type":[0,0,0,0,0,0,0,0,0,0,0,0,0],"sum_hessian":[1.1189488E4,8.138174E3,3.051314E3,2.296769E3,5.841405E3,3.0182947E3,3.3019108E1,6.870404E2,1.6097288E3,4.9481133E3,8.932916E2,2.8451926E3,1.7310207E2],"tree_param":{"num_deleted":"0","num_feature":"13","num_nodes":"13","size_leaf_vector":"1"}},{"base_weights":[-5.6472663E-3,9.373154E-2,-2.7129823E-1,3.8070858E-1,-1.7953496E-2,1.3952868E0,-3.0952775E-1,4.326466E-3,-1.5246141E-2,-1.220461E-3,5.4822355E-3,-1.6361661E-2,2.007219E-2,-3.7382795E-3,7.1270284E-3],"categories":[],"categories_nodes":[],"categories_segments":[],"categories_sizes":[],"default_left":[0,0,0,0,0,0,0,0,0,0,0,0,0,0,0],"id":31,"left_children":[1,3,5,7,9,11,13,-1,-1,-1,-1,-1,-1,-1,-1],"loss_changes":[2.961704E2,2.6168292E2,1.9502518E2,2.2700671E2,3.4649005E2,1.3067177E2,1.965716E2,0E0,0E0,0E0,0E0,0E0,0E0,0E0,0E0],"parents":[2147483647,0,0,1,1,2,2,3,3,4,4,5,5,6,6],"right_children":[2,4,6,8,10,12,14,-1,-1,-1,-1,-1,-1,-1,-1],"split_conditions":[8.859368E-1,-1.4786308E0,-8.312109E0,2.1331297E2,-3.600964E-1,1.4333335E0,4.7022175E1,4.326466E-3,-1.5246141E-2,-1.220461E-3,5.4822355E-3,-1.6361661E-2,2.007219E-2,-3.7382795E-3,7.1270284E-3],"split_indices":[1,12,3,8,1,1,1,0,0,0,0,0,0,0,0],"split_type":[0,0,0,0,0,0,0,0,0,0,0,0,0,0,0],"sum_hessian":[1.1216582E4,8.1633555E3,3.0532266E3,2.2862861E3,5.8770693E3,6.767094E1,2.9855557E3,2.2263696E3,5.9916725E1,4.9650254E3,9.120439E2,1.108469E1,5.658625E1,2.8094692E3,1.7608649E2],"tree_param":{"num_deleted":"0","num_feature":"13","num_nodes":"15","size_leaf_vector":"1"}},{"base_weights":[-5.16152E-4,-1.8828388E-2,1.3898946E0,9.8127943E-1,-4.397819E-2,-5.492474E-3,1.9797554E-2,-1.8521441E-3,1.6967399E-2,4.242224E-4,-2.769764E-3,1.887504E-2,-1.8528273E-2],"categories":[],"categories_nodes":[],"categories_segments":[],"categories_sizes":[],"default_left":[0,0,0,0,0,0,0,0,0,0,0,0,0],"id":32,"left_children":[1,3,5,7,9,11,-1,-1,-1,-1,-1,-1,-1],"loss_changes":[2.8582208E2,2.7872522E2,1.2011871E2,2.2717838E2,2.1760649E2,1.5860483E2,0E0,0E0,0E0,0E0,0E0,0E0,0E0],"parents":[2147483647,0,0,1,1,2,2,3,3,4,4,5,5],"right_children":[2,4,6,8,10,12,-1,-1,-1,-1,-1,-1,-1],"split_conditions":[2.8791824E2,1.2988467E2,2.1864285E0,-1.3489385E1,9.275432E-1,2.4219252E1,1.9797554E-2,-1.8521441E-3,1.6967399E-2,4.242224E-4,-2.769764E-3,1.887504E-2,-1.8528273E-2],"split_indices":[7,5,6,7,12,0,0,0,0,0,0,0,0],"split_type":[0,0,0,0,0,0,0,0,0,0,0,0,0],"sum_hessian":[1.1223615E4,1.1078691E4,1.449241E2,2.708302E2,1.0807861E4,4.3354496E1,1.015696E2,1.03242966E2,1.6758723E2,7.8848267E3,2.9230347E3,2.1401876E1,2.1952621E1],"tree_param":{"num_deleted":"0","num_feature":"13","num_nodes":"13","size_leaf_vector":"1"}},{"base_weights":[-4.72675E-3,2.9926315E-1,-8.964499E-2,-1.4160913E-1,4.9061987E-1,-3.804879E-2,-6.2279254E-1,-2.7058944E-3,1.7507741E-2,7.018576E-3,-1.3015075E-3,3.513696E-3,-1.2169906E-3,1.7172081E-2,-7.103751E-3],"categories":[],"categories_nodes":[],"categories_segments":[],"categories_sizes":[],"default_left":[0,0,0,0,0,0,0,0,0,0,0,0,0,0,0],"id":33,"left_children":[1,3,5,7,9,11,13,-1,-1,-1,-1,-1,-1,-1,-1],"loss_changes":[2.886877E2,2.0607521E2,2.4043655E2,1.810582E2,2.2340787E2,2.5970084E2,1.5928183E2,0E0,0E0,0E0,0E0,0E0,0E0,0E0,0E0],"parents":[2147483647,0,0,1,1,2,2,3,3,4,4,5,5,6,6],"right_children":[2,4,6,8,10,12,14,-1,-1,-1,-1,-1,-1,-1,-1],"split_conditions":[-5.3510237E-1,-1.4370213E0,2.0812938E2,4.7022175E1,-2.6280582E0,5.076056E-1,2.0132216E2,-2.7058944E-3,1.7507741E-2,7.018576E-3,-1.3015075E-3,3.513696E-3,-1.2169906E-3,1.7172081E-2,-7.103751E-3],"split_indices":[2,2,8,1,3,4,11,0,0,0,0,0,0,0,0],"split_type":[0,0,0,0,0,0,0,0,0,0,0,0,0,0,0],"sum_hessian":[1.1181215E4,2.4408713E3,8.740343E3,7.388571E2,1.7020143E3,7.9700957E3,7.702474E2,6.9251404E2,4.6343086E1,1.2697942E3,4.322201E2,1.4087448E3,6.561351E3,2.7117765E1,7.431296E2],"tree_param":{"num_deleted":"0","num_feature":"13","num_nodes":"15","size_leaf_vector":"1"}},{"base_weights":[-3.8979582E-3,9.488255E-2,-2.676478E-1,3.7953207E-1,-1.6463775E-2,-3.2624143E-1,7.0200557E-1,8.599901E-3,1.7411239E-3,-1.1968962E-3,5.5350005E-3,-1.1531484E-3,-7.3237964E-3,-8.530039E-3,1.2310608E-2],"categories":[],"categories_nodes":[],"categories_segments":[],"categories_sizes":[],"default_left":[0,0,0,0,0,0,0,0,0,0,0,0,0,0,0],"id":34,"left_children":[1,3,5,7,9,11,13,-1,-1,-1,-1,-1,-1,-1,-1],"loss_changes":[2.922681E2,2.5868076E2,1.7389357E2,2.2634488E2,3.4528455E2,2.46901E2,1.4460617E2,0E0,0E0,0E0,0E0,0E0,0E0,0E0,0E0],"parents":[2147483647,0,0,1,1,2,2,3,3,4,4,5,5,6,6],"right_children":[2,4,6,8,10,12,14,-1,-1,-1,-1,-1,-1,-1,-1],"split_conditions":[8.859368E-1,-1.4786308E0,4.7022175E1,9.8227906E-1,-3.1559438E-1,7.8269374E-1,1.4688521E2,8.599901E-3,1.7411239E-3,-1.1968962E-3,5.5350005E-3,-1.1531484E-3,-7.3237964E-3,-8.530039E-3,1.2310608E-2],"split_indices":[1,12,1,4,1,12,8,0,0,0,0,0,0,0,0],"split_type":[0,0,0,0,0,0,0,0,0,0,0,0,0,0,0],"sum_hessian":[1.1216089E4,8.1604497E3,3.0556394E3,2.2938823E3,5.8665674E3,2.8821426E3,1.7349683E2,6.8606104E2,1.6078213E3,4.967666E3,8.9890137E2,1.8978066E3,9.84336E2,4.3888012E1,1.2960883E2],"tree_param":{"num_deleted":"0","num_feature":"13","num_nodes":"15","size_leaf_vector":"1"}},{"base_weights":[2.0627088E-3,9.914903E-2,-2.5593704E-1,4.414367E-1,1.631178E-2,-3.1538486E-1,7.145738E-1,3.4127187E-3,1.8782835E-2,6.8425067E-4,-6.727418E-3,1.04478225E-2,-3.5373436E-3,-8.125696E-3,1.2027315E-2],"categories":[],"categories_nodes":[],"categories_segments":[],"categories_sizes":[],"default_left":[0,0,0,0,0,0,0,0,0,0,0,0,0,0,0],"id":35,"left_children":[1,3,5,7,9,11,13,-1,-1,-1,-1,-1,-1,-1,-1],"loss_changes":[2.7983368E2,2.3014993E2,1.7645688E2,2.2699014E2,2.3476743E2,1.505401E2,1.3263828E2,0E0,0E0,0E0,0E0,0E0,0E0,0E0,0E0],"parents":[2147483647,0,0,1,1,2,2,3,3,4,4,5,5,6,6],"right_children":[2,4,6,8,10,12,14,-1,-1,-1,-1,-1,-1,-1,-1],"split_conditions":[8.859368E-1,-5.3510237E-1,4.7022175E1,-5.66784E-1,2.1057397E2,1.3736119E2,1.4688521E2,3.4127187E-3,1.8782835E-2,6.8425067E-4,-6.727418E-3,1.04478225E-2,-3.5373436E-3,-8.125696E-3,1.2027315E-2],"split_indices":[1,2,1,2,8,10,8,0,0,0,0,0,0,0,0],"split_type":[0,0,0,0,0,0,0,0,0,0,0,0,0,0,0],"sum_hessian":[1.1169773E4,8.1162227E3,3.0535508E3,1.5806342E3,6.5355884E3,2.8779402E3,1.7561073E2,1.4787833E3,1.01850784E2,6.0768926E3,4.586961E2,7.819795E1,2.7997422E3,4.237645E1,1.3323428E2],"tree_param":{"num_deleted":"0","num_feature":"13","num_nodes":"15","size_leaf_vector":"1"}},{"base_weights":[9.090212E-4,9.842261E-2,-2.601064E-1,4.6282867E-1,1.0387786E-2,-3.1896803E-1,7.094414E-1,3.6797822E-3,1.8616917E-2,4.275815E-3,-8.2917896E-4,-1.0608414E-3,-7.229593E-3,-8.566392E-3,1.2226477E-2],"categories":[],"categories_nodes":[],"categories_segments":[],"categories_sizes":[],"default_left":[0,0,0,0,0,0,0,0,0,0,0,0,0,0,0],"id":36,"left_children":[1,3,5,7,9,11,13,-1,-1,-1,-1,-1,-1,-1,-1],"loss_changes":[2.843741E2,2.6093494E2,1.7364697E2,2.0930618E2,2.5509267E2,2.463695E2,1.4108522E2,0E0,0E0,0E0,0E0,0E0,0E0,0E0,0E0],"parents":[2147483647,0,0,1,1,2,2,3,3,4,4,5,5,6,6],"right_children":[2,4,6,8,10,12,14,-1,-1,-1,-1,-1,-1,-1,-1],"split_conditions":[8.859368E-1,-5.3510237E-1,4.7022175E1,-5.66784E-1,5.01191E-1,7.8269374E-1,2.1878754E2,3.6797822E-3,1.8616917E-2,4.275815E-3,-8.2917896E-4,-1.0608414E-3,-7.229593E-3,-8.566392E-3,1.2226477E-2],"split_indices":[1,2,1,2,4,12,10,0,0,0,0,0,0,0,0],"split_type":[0,0,0,0,0,0,0,0,0,0,0,0,0,0,0],"sum_hessian":[1.1170708E4,8.132926E3,3.0377827E3,1.5816562E3,6.5512695E3,2.8645461E3,1.7323657E2,1.4824043E3,9.925192E1,1.1967427E3,5.354527E3,1.876817E3,9.877291E2,4.259281E1,1.3064377E2],"tree_param":{"num_deleted":"0","num_feature":"13","num_nodes":"15","size_leaf_vector":"1"}},{"base_weights":[-9.871629E-4,-1.8576244E-2,1.3544791E0,7.854084E-2,-2.769118E-1,1.9065965E-2,1.15339994E-1,9.1677755E-3,4.3162671E-4,-1.0348415E-2,-1.9608517E-3,-1.838888E-2,2.0708624E-2],"categories":[],"categories_nodes":[],"categories_segments":[],"categories_sizes":[],"default_left":[0,0,0,0,0,0,0,0,0,0,0,0,0],"id":37,"left_children":[1,3,5,7,9,-1,11,-1,-1,-1,-1,-1,-1],"loss_changes":[2.6708112E2,2.7747485E2,9.7958984E1,2.3833307E2,1.849109E2,0E0,1.7691132E2,0E0,0E0,0E0,0E0,0E0,0E0],"parents":[2147483647,0,0,1,1,2,2,3,3,4,4,6,6],"right_children":[2,4,6,8,10,-1,12,-1,-1,-1,-1,-1,-1],"split_conditions":[2.8791824E2,8.859368E-1,-1.4786308E0,1.3698853E2,1.4340326E2,1.9065965E-2,3.559122E1,9.1677755E-3,4.3162671E-4,-1.0348415E-2,-1.9608517E-3,-1.838888E-2,2.0708624E-2],"split_indices":[7,1,12,9,8,0,0,0,0,0,0,0,0],"split_type":[0,0,0,0,0,0,0,0,0,0,0,0,0],"sum_hessian":[1.1200352E4,1.1057847E4,1.4250482E2,8.0371177E3,3.020729E3,9.820807E1,4.4296757E1,3.2446454E2,7.7126533E3,2.899546E2,2.7307744E3,2.2185543E1,2.2111214E1],"tree_param":{"num_deleted":"0","num_feature":"13","num_nodes":"13","size_leaf_vector":"1"}},{"base_weights":[3.6774672E-4,2.875649E-1,-7.977387E-2,-1.2903778E-1,4.6828297E-1,-3.1175835E-2,-5.7670003E-1,-2.5630847E-3,1.7121205E-2,6.7242347E-3,-1.295091E-3,3.7292617E-3,-9.106954E-4,1.7037379E-2,-6.6191885E-3],"categories":[],"categories_nodes":[],"categories_segments":[],"categories_sizes":[],"default_left":[0,0,0,0,0,0,0,0,0,0,0,0,0,0,0],"id":38,"left_children":[1,3,5,7,9,11,13,-1,-1,-1,-1,-1,-1,-1,-1],"loss_changes":[2.5793597E2,1.8413281E2,2.1157333E2,1.7395444E2,2.0820709E2,1.9322847E2,1.528027E2,0E0,0E0,0E0,0E0,0E0,0E0,0E0,0E0],"parents":[2147483647,0,0,1,1,2,2,3,3,4,4,5,5,6,6],"right_children":[2,4,6,8,10,12,14,-1,-1,-1,-1,-1,-1,-1,-1],"split_conditions":[-5.3510237E-1,-1.4370213E0,2.0812938E2,4.7022175E1,-2.6280582E0,-1.6432792E0,2.0132216E2,-2.5630847E-3,1.7121205E-2,6.7242347E-3,-1.295091E-3,3.7292617E-3,-9.106954E-4,1.7037379E-2,-6.6191885E-3],"split_indices":[2,2,8,1,3,12,11,0,0,0,0,0,0,0,0],"split_type":[0,0,0,0,0,0,0,0,0,0,0,0,0,0,0],"sum_hessian":[1.1204599E4,2.4439219E3,8.760677E3,7.394897E2,1.7044323E3,7.9811997E3,7.7947705E2,6.924824E2,4.700729E1,1.2704578E3,4.3397452E2,1.0295582E3,6.951641E3,2.7395182E1,7.520819E2],"tree_param":{"num_deleted":"0","num_feature":"13","num_nodes":"15","size_leaf_vector":"1"}},{"base_weights":[2.987319E-3,9.874637E-1,-2.1275988E-2,-2.0515475E-1,1.705172E0,-3.963332E-2,1.3542395E0,6.638036E-3,-1.8991616E-2,-1.9141847E-2,1.9511681E-2,2.087263E-3,-1.0790662E-3,2.4164206E-4,1.9331915E-2],"categories":[],"categories_nodes":[],"categories_segments":[],"categories_sizes":[],"default_left":[0,0,0,0,0,0,0,0,0,0,0,0,0,0,0],"id":39,"left_children":[1,3,5,7,9,11,13,-1,-1,-1,-1,-1,-1,-1,-1],"loss_changes":[2.6780862E2,2.311784E2,2.763501E2,1.5171474E2,1.5372775E2,1.8313313E2,1.1094519E2,0E0,0E0,0E0,0E0,0E0,0E0,0E0,0E0],"parents":[2147483647,0,0,1,1,2,2,3,3,4,4,5,5,6,6],"right_children":[2,4,6,8,10,12,14,-1,-1,-1,-1,-1,-1,-1,-1],"split_conditions":[1.2988467E2,-1.3489385E1,2.8791824E2,-2.1083254E1,-6.769585E0,-5.215694E-1,2.1864285E0,6.638036E-3,-1.8991616E-2,-1.9141847E-2,1.9511681E-2,2.087263E-3,-1.0790662E-3,2.4164206E-4,1.9331915E-2],"split_indices":[5,7,7,7,3,2,6,0,0,0,0,0,0,0,0],"split_type":[0,0,0,0,0,0,0,0,0,0,0,0,0,0,0],"sum_hessian":[1.1209765E4,2.6867462E2,1.094109E4,1.0120915E2,1.6746547E2,1.0797954E4,1.4313596E2,6.729674E1,3.391241E1,1.0226148E1,1.5723932E2,2.3278425E3,8.470111E3,4.3724876E1,9.941108E1],"tree_param":{"num_deleted":"0","num_feature":"13","num_nodes":"15","size_leaf_vector":"1"}},{"base_weights":[-3.176642E-3,9.2471816E-2,-2.5931564E-1,8.6885566E-1,5.2880883E-2,-3.1871453E-1,7.318957E-1,1.6548915E-2,3.984569E-3,1.1518373E-5,7.607307E-3,-3.4550685E-3,1.9431343E-2,-7.275297E-3,1.1981762E-2],"categories":[],"categories_nodes":[],"categories_segments":[],"categories_sizes":[],"default_left":[0,0,0,0,0,0,0,0,0,0,0,0,0,0,0],"id":40,"left_children":[1,3,5,7,9,11,13,-1,-1,-1,-1,-1,-1,-1,-1],"loss_changes":[2.7404596E2,2.5029886E2,1.7929854E2,1.454313E2,2.8379187E2,1.7459991E2,1.1809079E2,0E0,0E0,0E0,0E0,0E0,0E0,0E0,0E0],"parents":[2147483647,0,0,1,1,2,2,3,3,4,4,5,5,6,6],"right_children":[2,4,6,8,10,12,14,-1,-1,-1,-1,-1,-1,-1,-1],"split_conditions":[8.859368E-1,1.3731682E2,4.7022175E1,1.3180026E2,3.703728E-1,2.8791824E2,1.4688521E2,1.6548915E-2,3.984569E-3,1.1518373E-5,7.607307E-3,-3.4550685E-3,1.9431343E-2,-7.275297E-3,1.1981762E-2],"split_indices":[1,9,1,10,1,7,8,0,0,0,0,0,0,0,0],"split_type":[0,0,0,0,0,0,0,0,0,0,0,0,0,0,0],"sum_hessian":[1.1183889E4,8.1435356E3,3.040353E3,3.9410648E2,7.749429E3,2.869099E3,1.7125386E2,1.4660745E2,2.4749902E2,7.222609E3,5.268203E2,2.8363489E3,3.2750217E1,4.133087E1,1.2992299E2],"tree_param":{"num_deleted":"0","num_feature":"13","num_nodes":"15","size_leaf_vector":"1"}},{"base_weights":[5.8816173E-3,9.865856E-2,-2.4311337E-1,8.562238E-1,6.0396697E-2,2.0224012E-2,-2.6850772E-1,1.4529531E-2,2.9131223E-3,7.633617E-5,7.720266E-3,-3.303084E-3,7.236713E-3],"categories":[],"categories_nodes":[],"categories_segments":[],"categories_sizes":[],"default_left":[0,0,0,0,0,0,0,0,0,0,0,0,0],"id":41,"left_children":[1,3,5,7,9,-1,11,-1,-1,-1,-1,-1,-1],"loss_changes":[2.5779123E2,2.3560265E2,1.7482243E2,1.3131445E2,2.9062073E2,0E0,1.839828E2,0E0,0E0,0E0,0E0,0E0,0E0],"parents":[2147483647,0,0,1,1,2,2,3,3,4,4,6,6],"right_children":[2,4,6,8,10,-1,12,-1,-1,-1,-1,-1,-1],"split_conditions":[8.859368E-1,1.3731682E2,-9.455646E0,1.322073E2,3.703728E-1,2.0224012E-2,4.7022175E1,1.4529531E-2,2.9131223E-3,7.633617E-5,7.720266E-3,-3.303084E-3,7.236713E-3],"split_indices":[1,9,3,5,1,0,1,0,0,0,0,0,0],"split_type":[0,0,0,0,0,0,0,0,0,0,0,0,0],"sum_hessian":[1.1157276E4,8.1289775E3,3.0282993E3,3.89798E2,7.739179E3,3.269648E1,2.9956028E3,1.8879619E2,2.0100183E2,7.205915E3,5.332645E2,2.8205818E3,1.7502089E2],"tree_param":{"num_deleted":"0","num_feature":"13","num_nodes":"13","size_leaf_vector":"1"}},{"base_weights":[-1.2664137E-3,9.558438E-1,-2.4813693E-2,-1.6905344E-1,1.656254E0,-4.2749353E-2,1.3038913E0,6.975886E-3,-1.8911611E-2,-1.9069625E-2,1.9210126E-2,4.5293933E-4,-2.7064658E-3,1.8659651E-2,7.697043E-4],"categories":[],"categories_nodes":[],"categories_segments":[],"categories_sizes":[],"default_left":[0,0,0,0,0,0,0,0,0,0,0,0,0,0,0],"id":42,"left_children":[1,3,5,7,9,11,13,-1,-1,-1,-1,-1,-1,-1,-1],"loss_changes":[2.5268741E2,2.1239417E2,2.608328E2,1.5685092E2,1.6027213E2,2.1667015E2,1.0038591E2,0E0,0E0,0E0,0E0,0E0,0E0,0E0,0E0],"parents":[2147483647,0,0,1,1,2,2,3,3,4,4,5,5,6,6],"right_children":[2,4,6,8,10,12,14,-1,-1,-1,-1,-1,-1,-1,-1],"split_conditions":[1.2988467E2,-1.3489385E1,2.8791824E2,-2.1083254E1,-6.6760483E0,8.859368E-1,-1.4786308E0,6.975886E-3,-1.8911611E-2,-1.9069625E-2,1.9210126E-2,4.5293933E-4,-2.7064658E-3,1.8659651E-2,7.697043E-4],"split_indices":[5,7,7,7,12,1,12,0,0,0,0,0,0,0,0],"split_type":[0,0,0,0,0,0,0,0,0,0,0,0,0,0,0],"sum_hessian":[1.1209892E4,2.6821817E2,1.0941674E4,1.0321226E2,1.650059E2,1.0796898E4,1.447752E2,6.90554E1,3.415686E1,1.09835E1,1.5402242E2,7.7886997E3,3.0081987E3,9.893192E1,4.5843292E1],"tree_param":{"num_deleted":"0","num_feature":"13","num_nodes":"15","size_leaf_vector":"1"}},{"base_weights":[-4.878698E-3,2.8212804E-1,-8.589538E-2,-1.1428754E-1,4.564017E-1,-3.6361214E-2,-5.924005E-1,-2.419821E-3,1.6877914E-2,6.625383E-3,-1.4455337E-3,3.5097115E-3,-1.1845699E-3,1.9946473E-2,-6.6922773E-3],"categories":[],"categories_nodes":[],"categories_segments":[],"categories_sizes":[],"default_left":[0,0,0,0,0,0,0,0,0,0,0,0,0,0,0],"id":43,"left_children":[1,3,5,7,9,11,13,-1,-1,-1,-1,-1,-1,-1,-1],"loss_changes":[2.6013144E2,1.70193E2,2.1887018E2,1.7365549E2,2.1204169E2,2.5278616E2,1.5579742E2,0E0,0E0,0E0,0E0,0E0,0E0,0E0,0E0],"parents":[2147483647,0,0,1,1,2,2,3,3,4,4,5,5,6,6],"right_children":[2,4,6,8,10,12,14,-1,-1,-1,-1,-1,-1,-1,-1],"split_conditions":[-5.3510237E-1,-1.4370213E0,2.0812938E2,4.7022175E1,-2.6280582E0,5.076056E-1,1.9202924E2,-2.419821E-3,1.6877914E-2,6.625383E-3,-1.4455337E-3,3.5097115E-3,-1.1845699E-3,1.9946473E-2,-6.6922773E-3],"split_indices":[2,2,8,1,3,4,10,0,0,0,0,0,0,0,0],"split_type":[0,0,0,0,0,0,0,0,0,0,0,0,0,0,0],"sum_hessian":[1.1185284E4,2.4617825E3,8.723502E3,7.5186957E2,1.7099128E3,7.9473545E3,7.7614764E2,7.029262E2,4.894334E1,1.2731134E3,4.3679944E2,1.3892976E3,6.5580566E3,2.1664476E1,7.5448315E2],"tree_param":{"num_deleted":"0","num_feature":"13","num_nodes":"15","size_leaf_vector":"1"}},{"base_weights":[-2.2628887E-3,9.7993684E-1,-2.6137233E-2,-6.731675E-1,1.2048881E0,2.4635558E-1,-1.0084137E-1,1.7007934E-2,-1.9605275E-2,1.907201E-2,2.6444094E-3,1.8249212E-3,1.2745529E-2,-8.609905E-4,-1.5974628E-2],"categories":[],"categories_nodes":[],"categories_segments":[],"categories_sizes":[],"default_left":[0,0,0,0,0,0,0,0,0,0,0,0,0,0,0],"id":44,"left_children":[1,3,5,7,9,11,13,-1,-1,-1,-1,-1,-1,-1,-1],"loss_changes":[2.6215613E2,9.946614E1,2.2219958E2,1.0240965E2,1.5396893E2,1.5398943E2,1.8887386E2,0E0,0E0,0E0,0E0,0E0,0E0,0E0,0E0],"parents":[2147483647,0,0,1,1,2,2,3,3,4,4,5,5,6,6],"right_children":[2,4,6,8,10,12,14,-1,-1,-1,-1,-1,-1,-1,-1],"split_conditions":[1.2988467E2,-5.873344E0,-5.3510237E-1,1.8603628E1,4.526148E1,-5.66784E-1,2.3072377E2,1.7007934E-2,-1.9605275E-2,1.907201E-2,2.6444094E-3,1.8249212E-3,1.2745529E-2,-8.609905E-4,-1.5974628E-2],"split_indices":[5,12,2,0,0,2,10,0,0,0,0,0,0,0,0],"split_type":[0,0,0,0,0,0,0,0,0,0,0,0,0,0,0],"sum_hessian":[1.1177573E4,2.6429584E2,1.0913277E4,3.141838E1,2.3287744E2,2.3476455E3,8.565632E3,1.0934123E1,2.0484257E1,1.3272917E2,1.00148285E2,2.2114644E3,1.3618114E2,8.483127E3,8.2504684E1],"tree_param":{"num_deleted":"0","num_feature":"13","num_nodes":"15","size_leaf_vector":"1"}},{"base_weights":[-1.7776168E-3,-1.8965477E-2,1.3179282E0,7.198627E-2,-2.6140139E-1,-6.45214E-2,1.8936828E-2,2.4499986E-4,6.7134695E-3,2.009786E-2,-2.8937268E-3,1.7957835E-2,-1.8267626E-2],"categories":[],"categories_nodes":[],"categories_segments":[],"categories_sizes":[],"default_left":[0,0,0,0,0,0,0,0,0,0,0,0,0],"id":45,"left_children":[1,3,5,7,9,11,-1,-1,-1,-1,-1,-1,-1],"loss_changes":[2.5329115E2,2.4307423E2,1.14392334E2,2.2814572E2,1.9163542E2,1.448313E2,0E0,0E0,0E0,0E0,0E0,0E0,0E0],"parents":[2147483647,0,0,1,1,2,2,3,3,4,4,5,5],"right_children":[2,4,6,8,10,12,-1,-1,-1,-1,-1,-1,-1],"split_conditions":[2.8791824E2,8.859368E-1,2.1864285E0,3.703728E-1,-9.455646E0,-2.4063222E0,1.8936828E-2,2.4499986E-4,6.7134695E-3,2.009786E-2,-2.8937268E-3,1.7957835E-2,-1.8267626E-2],"split_indices":[7,1,6,1,3,3,0,0,0,0,0,0,0],"split_type":[0,0,0,0,0,0,0,0,0,0,0,0,0],"sum_hessian":[1.1164501E4,1.1021937E4,1.4256418E2,8.015545E3,3.006392E3,4.217804E1,1.0038614E2,7.4280728E3,5.8747217E2,3.571345E1,2.9706785E3,2.0508873E1,2.1669165E1],"tree_param":{"num_deleted":"0","num_feature":"13","num_nodes":"13","size_leaf_vector":"1"}},{"base_weights":[4.1511836E-3,-1.325737E-2,1.2998407E0,9.482867E-1,-3.7477832E-2,1.8280907E-2,1.1882264E-1,-1.9332018E-3,1.6272612E-2,4.909707E-4,-2.6056597E-3,-1.8143892E-2,2.0026913E-2],"categories":[],"categories_nodes":[],"categories_segments":[],"categories_sizes":[],"default_left":[0,0,0,0,0,0,0,0,0,0,0,0,0],"id":46,"left_children":[1,3,5,7,9,-1,11,-1,-1,-1,-1,-1,-1],"loss_changes":[2.5199196E2,2.5677213E2,9.218552E1,2.1029384E2,2.0771423E2,0E0,1.7423355E2,0E0,0E0,0E0,0E0,0E0,0E0],"parents":[2147483647,0,0,1,1,2,2,3,3,4,4,6,6],"right_children":[2,4,6,8,10,-1,12,-1,-1,-1,-1,-1,-1],"split_conditions":[2.8791824E2,1.2988467E2,-1.4786308E0,-1.3489385E1,8.859368E-1,1.8280907E-2,3.559122E1,-1.9332018E-3,1.6272612E-2,4.909707E-4,-2.6056597E-3,-1.8143892E-2,2.0026913E-2],"split_indices":[7,5,12,7,1,0,0,0,0,0,0,0,0],"split_type":[0,0,0,0,0,0,0,0,0,0,0,0,0],"sum_hessian":[1.1170034E4,1.1022923E4,1.4711142E2,2.6989835E2,1.0753024E4,1.0126799E2,4.5843422E1,1.0092365E2,1.6897469E2,7.7472793E3,3.0057446E3,2.2643604E1,2.319982E1],"tree_param":{"num_deleted":"0","num_feature":"13","num_nodes":"13","size_leaf_vector":"1"}},{"base_weights":[-2.5274917E-3,8.654548E-2,-2.4046798E-1,3.5066876E-1,-1.7224744E-2,1.3429132E0,-2.7741075E-1,1.008144E-2,1.992406E-3,-5.4875514E-3,9.589809E-4,-1.6112875E-2,1.955729E-2,-3.3637579E-3,6.6553187E-3],"categories":[],"categories_nodes":[],"categories_segments":[],"categories_sizes":[],"default_left":[0,0,0,0,0,0,0,0,0,0,0,0,0,0,0],"id":47,"left_children":[1,3,5,7,9,11,13,-1,-1,-1,-1,-1,-1,-1,-1],"loss_changes":[2.370897E2,2.2309686E2,1.7860754E2,2.2838412E2,3.5148032E2,1.2923077E2,1.658248E2,0E0,0E0,0E0,0E0,0E0,0E0,0E0,0E0],"parents":[2147483647,0,0,1,1,2,2,3,3,4,4,5,5,6,6],"right_children":[2,4,6,8,10,12,14,-1,-1,-1,-1,-1,-1,-1,-1],"split_conditions":[8.859368E-1,-1.4786308E0,-8.312109E0,1.3558475E2,3.685481E1,1.4333335E0,4.7022175E1,1.008144E-2,1.992406E-3,-5.4875514E-3,9.589809E-4,-1.6112875E-2,1.955729E-2,-3.3637579E-3,6.6553187E-3],"split_indices":[1,12,3,10,0,1,1,0,0,0,0,0,0,0,0],"split_type":[0,0,0,0,0,0,0,0,0,0,0,0,0,0,0],"sum_hessian":[1.1184625E4,8.138584E3,3.0460408E3,2.294946E3,5.8436377E3,6.8642555E1,2.9773982E3,4.2855893E2,1.8663872E3,1.0247574E3,4.8188804E3,1.1512918E1,5.712964E1,2.8027756E3,1.7462276E2],"tree_param":{"num_deleted":"0","num_feature":"13","num_nodes":"15","size_leaf_vector":"1"}},{"base_weights":[9.122529E-4,2.800222E-1,-7.672197E-2,-1.3693355E-1,4.6213284E-1,-2.8884148E-2,-5.68131E-1,-9.756845E-3,7.330044E-4,6.6989935E-3,-1.5075655E-3,3.5299966E-3,-1.1070146E-3,1.9907543E-2,-6.564841E-3],"categories":[],"categories_nodes":[],"categories_segments":[],"categories_sizes":[],"default_left":[0,0,0,0,0,0,0,0,0,0,0,0,0,0,0],"id":48,"left_children":[1,3,5,7,9,11,13,-1,-1,-1,-1,-1,-1,-1,-1],"loss_changes":[2.4259068E2,1.850613E2,2.0589435E2,1.3080603E2,2.1606076E2,2.4947198E2,1.7697421E2,0E0,0E0,0E0,0E0,0E0,0E0,0E0,0E0],"parents":[2147483647,0,0,1,1,2,2,3,3,4,4,5,5,6,6],"right_children":[2,4,6,8,10,12,14,-1,-1,-1,-1,-1,-1,-1,-1],"split_conditions":[-5.3510237E-1,-1.4370213E0,2.0812938E2,1.5551486E2,-2.6280582E0,5.076056E-1,1.9202924E2,-9.756845E-3,7.330044E-4,6.6989935E-3,-1.5075655E-3,3.5299966E-3,-1.1070146E-3,1.9907543E-2,-6.564841E-3],"split_indices":[2,2,8,10,3,4,10,0,0,0,0,0,0,0,0],"split_type":[0,0,0,0,0,0,0,0,0,0,0,0,0,0,0],"sum_hessian":[1.11935625E4,2.4353618E3,8.758201E3,7.404029E2,1.694959E3,7.9822056E3,7.759951E2,1.4765932E2,5.927436E2,1.2657747E3,4.2918436E2,1.4078279E3,6.5743774E3,2.5180649E1,7.5081445E2],"tree_param":{"num_deleted":"0","num_feature":"13","num_nodes":"15","size_leaf_vector":"1"}},{"base_weights":[4.1709855E-4,-1.6590295E-2,1.2815822E0,7.240969E-2,-2.5455955E-1,-3.6370702E-2,1.8570114E-2,8.801281E-3,3.8316514E-4,-1.135424E-2,-1.8764351E-3,1.7716087E-2,-1.7906222E-2],"categories":[],"categories_nodes":[],"categories_segments":[],"categories_sizes":[],"default_left":[0,0,0,0,0,0,0,0,0,0,0,0,0],"id":49,"left_children":[1,3,5,7,9,11,-1,-1,-1,-1,-1,-1,-1],"loss_changes":[2.4376508E2,2.338553E2,1.11221695E2,2.212685E2,1.7694318E2,1.475605E2,0E0,0E0,0E0,0E0,0E0,0E0,0E0],"parents":[2147483647,0,0,1,1,2,2,3,3,4,4,5,5],"right_children":[2,4,6,8,10,12,-1,-1,-1,-1,-1,-1,-1],"split_conditions":[2.8791824E2,8.859368E-1,2.1864285E0,1.3698853E2,1.4309082E2,3.3078583E2,1.8570114E-2,8.801281E-3,3.8316514E-4,-1.135424E-2,-1.8764351E-3,1.7716087E-2,-1.7906222E-2],"split_indices":[7,1,6,9,8,7,0,0,0,0,0,0,0],"split_type":[0,0,0,0,0,0,0,0,0,0,0,0,0],"sum_hessian":[1.118541E4,1.1039844E4,1.4556624E2,8.0353394E3,3.004504E3,4.4524628E1,1.0104161E2,3.2442435E2,7.710915E3,2.1099924E2,2.7935046E3,2.1921665E1,2.2602962E1],"tree_param":{"num_deleted":"0","num_feature":"13","num_nodes":"13","size_leaf_vector":"1"}},{"base_weights":[2.2041737E-3,9.4064957E-1,-2.1292347E-2,-1.8251856E-1,1.6041063E0,-3.823543E-2,1.2361096E0,7.0606973E-3,-1.8844374E-2,-1.91552E-2,1.8679181E-2,4.2388614E-4,-2.5537822E-3,-1.6450007E-3,1.842104E-2],"categories":[],"categories_nodes":[],"categories_segments":[],"categories_sizes":[],"default_left":[0,0,0,0,0,0,0,0,0,0,0,0,0,0,0],"id":50,"left_children":[1,3,5,7,9,11,13,-1,-1,-1,-1,-1,-1,-1,-1],"loss_changes":[2.4673938E2,2.0396791E2,2.3261865E2,1.561851E2,1.6321783E2,1.8860397E2,1.2352011E2,0E0,0E0,0E0,0E0,0E0,0E0,0E0,0E0],"parents":[2147483647,0,0,1,1,2,2,3,3,4,4,5,5,6,6],"right_children":[2,4,6,8,10,12,14,-1,-1,-1,-1,-1,-1,-1,-1],"split_conditions":[1.2988467E2,-1.3489385E1,2.8791824E2,-2.1083254E1,-6.769585E0,9.275432E-1,2.1864285E0,7.0606973E-3,-1.8844374E-2,-1.91552E-2,1.8679181E-2,4.2388614E-4,-2.5537822E-3,-1.6450007E-3,1.842104E-2],"split_indices":[5,7,7,7,3,12,6,0,0,0,0,0,0,0,0],"split_type":[0,0,0,0,0,0,0,0,0,0,0,0,0,0,0],"sum_hessian":[1.1187985E4,2.7232578E2,1.0915659E4,1.0139638E2,1.7092938E2,1.0771486E4,1.4417271E2,6.700011E1,3.439627E1,1.1482016E1,1.5944737E2,7.8555605E3,2.9159263E3,4.3760185E1,1.0041252E2],"tree_param":{"num_deleted":"0","num_feature":"13","num_nodes":"15","size_leaf_vector":"1"}},{"base_weights":[2.2084588E-4,-1.6831944E-2,1.2872663E0,7.547965E-2,-2.6326728E-1,2.2605557E-2,1.8266922E-2,3.0334637E-4,6.5373676E-3,1.9674772E-2,-2.8829577E-3,1.7671345E-2,-1.7680978E-2],"categories":[],"categories_nodes":[],"categories_segments":[],"categories_sizes":[],"default_left":[0,0,0,0,0,0,0,0,0,0,0,0,0],"id":51,"left_children":[1,3,5,7,9,11,-1,-1,-1,-1,-1,-1,-1],"loss_changes":[2.4538986E2,2.510412E2,9.969617E1,2.0956113E2,1.6846666E2,1.428492E2,0E0,0E0,0E0,0E0,0E0,0E0,0E0],"parents":[2147483647,0,0,1,1,2,2,3,3,4,4,5,5],"right_children":[2,4,6,8,10,12,-1,-1,-1,-1,-1,-1,-1],"split_conditions":[2.8791824E2,8.859368E-1,2.1864285E0,3.703728E-1,-9.455646E0,2.4219252E1,1.8266922E-2,3.0334637E-4,6.5373676E-3,1.9674772E-2,-2.8829577E-3,1.7671345E-2,-1.7680978E-2],"split_indices":[7,1,6,1,3,0,0,0,0,0,0,0,0],"split_type":[0,0,0,0,0,0,0,0,0,0,0,0,0],"sum_hessian":[1.117867E4,1.1033469E4,1.452017E2,8.0272534E3,3.006215E3,4.372717E1,1.0147454E2,7.4469185E3,5.8033466E2,3.2493793E1,2.9737212E3,2.2155817E1,2.1571352E1],"tree_param":{"num_deleted":"0","num_feature":"13","num_nodes":"13","size_leaf_vector":"1"}},{"base_weights":[-6.111524E-5,8.793484E-2,-2.3504938E-1,7.909722E-1,5.160904E-2,-2.9186067E-1,6.7536855E-1,1.5462137E-2,3.515327E-3,-2.3934913E-7,7.503123E-3,-3.16683E-3,1.8230325E-2,-7.893678E-3,1.1569399E-2],"categories":[],"categories_nodes":[],"categories_segments":[],"categories_sizes":[],"default_left":[0,0,0,0,0,0,0,0,0,0,0,0,0,0,0],"id":52,"left_children":[1,3,5,7,9,11,13,-1,-1,-1,-1,-1,-1,-1,-1],"loss_changes":[2.3170265E2,2.0815912E2,1.5809601E2,1.3236523E2,2.7969687E2,1.5146404E2,1.276082E2,0E0,0E0,0E0,0E0,0E0,0E0,0E0,0E0],"parents":[2147483647,0,0,1,1,2,2,3,3,4,4,5,5,6,6],"right_children":[2,4,6,8,10,12,14,-1,-1,-1,-1,-1,-1,-1,-1],"split_conditions":[8.859368E-1,1.3731682E2,4.7022175E1,1.3180026E2,3.703728E-1,2.8791824E2,1.5153972E2,1.5462137E-2,3.515327E-3,-2.3934913E-7,7.503123E-3,-3.16683E-3,1.8230325E-2,-7.893678E-3,1.1569399E-2],"split_indices":[1,9,1,10,1,7,9,0,0,0,0,0,0,0,0],"split_type":[0,0,0,0,0,0,0,0,0,0,0,0,0,0,0],"sum_hessian":[1.1203267E4,8.1514297E3,3.0518364E3,3.9946884E2,7.751961E3,2.873223E3,1.7861356E2,1.4601018E2,2.5345866E2,7.2194556E3,5.325054E2,2.8407317E3,3.2491142E1,4.403589E1,1.3457767E2],"tree_param":{"num_deleted":"0","num_feature":"13","num_nodes":"15","size_leaf_vector":"1"}},{"base_weights":[-9.245102E-4,-1.7300285E-2,1.2381893E0,9.036703E-1,-4.0355515E-2,-3.439529E-2,1.8056598E-2,-2.3338234E-3,1.589076E-2,4.0493687E-4,-2.4881861E-3,1.7500332E-2,-1.7662177E-2],"categories":[],"categories_nodes":[],"categories_segments":[],"categories_sizes":[],"default_left":[0,0,0,0,0,0,0,0,0,0,0,0,0],"id":53,"left_children":[1,3,5,7,9,11,-1,-1,-1,-1,-1,-1,-1],"loss_changes":[2.2660526E2,2.3406454E2,1.05252396E2,2.1018546E2,1.8125182E2,1.4494624E2,0E0,0E0,0E0,0E0,0E0,0E0,0E0],"parents":[2147483647,0,0,1,1,2,2,3,3,4,4,5,5],"right_children":[2,4,6,8,10,12,-1,-1,-1,-1,-1,-1,-1],"split_conditions":[2.8791824E2,1.2988467E2,2.1864285E0,-1.3489385E1,8.859368E-1,2.4219252E1,1.8056598E-2,-2.3338234E-3,1.589076E-2,4.0493687E-4,-2.4881861E-3,1.7500332E-2,-1.7662177E-2],"split_indices":[7,5,6,7,1,0,0,0,0,0,0,0,0],"split_type":[0,0,0,0,0,0,0,0,0,0,0,0,0],"sum_hessian":[1.1165468E4,1.1020807E4,1.446618E2,2.6822E2,1.0752586E4,4.490321E1,9.975859E1,1.011225E2,1.6709749E2,7.7483237E3,3.0042625E3,2.211053E1,2.2792679E1],"tree_param":{"num_deleted":"0","num_feature":"13","num_nodes":"13","size_leaf_vector":"1"}},{"base_weights":[2.8926206E-3,2.73107E-1,-7.199773E-2,-1.0703459E-1,4.3946552E-1,-5.7492387E-2,-1.5843904E0,-2.3405848E-3,1.6716508E-2,1.48041425E-2,3.5081469E-3,5.469834E-3,-9.14611E-4,-1.705251E-2,-5.377401E-3],"categories":[],"categories_nodes":[],"categories_segments":[],"categories_sizes":[],"default_left":[0,0,0,0,0,0,0,0,0,0,0,0,0,0,0],"id":54,"left_children":[1,3,5,7,9,11,13,-1,-1,-1,-1,-1,-1,-1,-1],"loss_changes":[2.2676398E2,1.538287E2,1.9239145E2,1.6781815E2,1.555911E2,1.7851918E2,9.622208E0,0E0,0E0,0E0,0E0,0E0,0E0,0E0,0E0],"parents":[2147483647,0,0,1,1,2,2,3,3,4,4,5,5,6,6],"right_children":[2,4,6,8,10,12,14,-1,-1,-1,-1,-1,-1,-1,-1],"split_conditions":[-5.3510237E-1,-1.4370213E0,2.3072377E2,4.7022175E1,-1.1136364E0,1.3206754E2,2.3755136E2,-2.3405848E-3,1.6716508E-2,1.48041425E-2,3.5081469E-3,5.469834E-3,-9.14611E-4,-1.705251E-2,-5.377401E-3],"split_indices":[2,2,10,1,2,5,5,0,0,0,0,0,0,0,0],"split_type":[0,0,0,0,0,0,0,0,0,0,0,0,0,0,0],"sum_hessian":[1.1203747E4,2.4307239E3,8.773023E3,7.400382E2,1.6906858E3,8.690709E3,8.2314476E1,6.915219E2,4.851627E1,1.3145271E2,1.559233E3,4.6158932E2,8.229119E3,7.322918E1,9.085297E0],"tree_param":{"num_deleted":"0","num_feature":"13","num_nodes":"15","size_leaf_vector":"1"}},{"base_weights":[-3.3337644E-3,9.187579E-1,-2.5957668E-2,-1.6620381E-1,1.5627074E0,-4.2961907E-2,1.2525072E0,6.9501647E-3,-1.8704357E-2,-1.912656E-2,1.8250786E-2,3.8872092E-4,-2.6341986E-3,-1.0545072E-3,1.7896801E-2],"categories":[],"categories_nodes":[],"categories_segments":[],"categories_sizes":[],"default_left":[0,0,0,0,0,0,0,0,0,0,0,0,0,0,0],"id":55,"left_children":[1,3,5,7,9,11,13,-1,-1,-1,-1,-1,-1,-1,-1],"loss_changes":[2.3210658E2,1.8641646E2,2.3613376E2,1.4828467E2,1.5604358E2,1.933733E2,1.041915E2,0E0,0E0,0E0,0E0,0E0,0E0,0E0,0E0],"parents":[2147483647,0,0,1,1,2,2,3,3,4,4,5,5,6,6],"right_children":[2,4,6,8,10,12,14,-1,-1,-1,-1,-1,-1,-1,-1],"split_conditions":[1.2988467E2,-1.3489385E1,2.8791824E2,-2.1083254E1,-6.769585E0,9.275432E-1,2.1864285E0,6.9501647E-3,-1.8704357E-2,-1.912656E-2,1.8250786E-2,3.8872092E-4,-2.6341986E-3,-1.0545072E-3,1.7896801E-2],"split_indices":[5,7,7,7,3,12,6,0,0,0,0,0,0,0,0],"split_type":[0,0,0,0,0,0,0,0,0,0,0,0,0,0,0],"sum_hessian":[1.112403E4,2.65448E2,1.0858582E4,9.9144966E1,1.6630302E2,1.0717007E4,1.415753E2,6.625546E1,3.28895E1,1.1232162E1,1.5507086E2,7.816387E3,2.9006196E3,4.0357185E1,1.0121811E2],"tree_param":{"num_deleted":"0","num_feature":"13","num_nodes":"15","size_leaf_vector":"1"}},{"base_weights":[3.7254426E-3,2.7103457E-1,-7.09227E-2,-1.194789E-1,4.4262335E-1,2.3973073E-1,-1.3837753E-1,-2.459785E-3,1.6618889E-2,6.383773E-3,-1.3601263E-3,1.2985072E-2,1.0889833E-3,-4.6803E-3,-4.3766855E-4],"categories":[],"categories_nodes":[],"categories_segments":[],"categories_sizes":[],"default_left":[0,0,0,0,0,0,0,0,0,0,0,0,0,0,0],"id":56,"left_children":[1,3,5,7,9,11,13,-1,-1,-1,-1,-1,-1,-1,-1],"loss_changes":[2.2334784E2,1.6378001E2,1.833837E2,1.6866466E2,1.923901E2,2.1613605E2,2.242064E2,0E0,0E0,0E0,0E0,0E0,0E0,0E0,0E0],"parents":[2147483647,0,0,1,1,2,2,3,3,4,4,5,5,6,6],"right_children":[2,4,6,8,10,12,14,-1,-1,-1,-1,-1,-1,-1,-1],"split_conditions":[-5.3510237E-1,-1.4370213E0,5.076056E-1,4.7022175E1,-2.6280582E0,1.3995744E2,6.813206E-1,-2.459785E-3,1.6618889E-2,6.383773E-3,-1.3601263E-3,1.2985072E-2,1.0889833E-3,-4.6803E-3,-4.3766855E-4],"split_indices":[2,2,4,1,3,9,4,0,0,0,0,0,0,0,0],"split_type":[0,0,0,0,0,0,0,0,0,0,0,0,0,0,0],"sum_hessian":[1.1191101E4,2.442406E3,8.748694E3,7.456679E2,1.696738E3,1.560319E3,7.1883755E3,6.9703174E2,4.863614E1,1.2677515E3,4.2898663E2,1.7062129E2,1.3896976E3,1.6021274E3,5.586248E3],"tree_param":{"num_deleted":"0","num_feature":"13","num_nodes":"15","size_leaf_vector":"1"}},{"base_weights":[-1.8398513E-3,8.9286906E-1,-2.3917452E-2,-1.944323E-1,1.5486869E0,-4.0717736E-2,1.2042084E0,6.792987E-3,-1.856808E-2,-1.9001374E-2,1.808912E-2,2.4453814E-3,-9.909743E-4,1.7177083E-2,4.154793E-3],"categories":[],"categories_nodes":[],"categories_segments":[],"categories_sizes":[],"default_left":[0,0,0,0,0,0,0,0,0,0,0,0,0,0,0],"id":57,"left_children":[1,3,5,7,9,11,13,-1,-1,-1,-1,-1,-1,-1,-1],"loss_changes":[2.2007883E2,1.9162164E2,2.2439302E2,1.4917119E2,1.537377E2,1.7866878E2,5.872827E1,0E0,0E0,0E0,0E0,0E0,0E0,0E0,0E0],"parents":[2147483647,0,0,1,1,2,2,3,3,4,4,5,5,6,6],"right_children":[2,4,6,8,10,12,14,-1,-1,-1,-1,-1,-1,-1,-1],"split_conditions":[1.2988467E2,-1.3489385E1,2.8791824E2,-2.1083254E1,-6.769585E0,5.076056E-1,-2.4063222E0,6.792987E-3,-1.856808E-2,-1.9001374E-2,1.808912E-2,2.4453814E-3,-9.909743E-4,1.7177083E-2,4.154793E-3],"split_indices":[5,7,7,7,3,4,3,0,0,0,0,0,0,0,0],"split_type":[0,0,0,0,0,0,0,0,0,0,0,0,0,0,0],"sum_hessian":[1.1139443E4,2.6730475E2,1.0872139E4,1.0083339E2,1.6647136E2,1.0726372E4,1.4576576E2,6.648224E1,3.435115E1,1.1237408E1,1.5523396E2,1.8217441E3,8.904628E3,8.757349E1,5.819228E1],"tree_param":{"num_deleted":"0","num_feature":"13","num_nodes":"15","size_leaf_vector":"1"}},{"base_weights":[-2.1481146E-3,-1.8380525E-2,1.2545804E0,6.736434E-2,-2.4767542E-1,3.3320338E-2,1.7619908E-2,8.635816E-3,3.383302E-4,-9.976064E-3,-1.6918754E-3,1.7138975E-2,-1.7446036E-2],"categories":[],"categories_nodes":[],"categories_segments":[],"categories_sizes":[],"default_left":[0,0,0,0,0,0,0,0,0,0,0,0,0],"id":58,"left_children":[1,3,5,7,9,11,-1,-1,-1,-1,-1,-1,-1],"loss_changes":[2.2763647E2,2.1660803E2,8.811778E1,2.1405885E2,1.7632776E2,1.308326E2,0E0,0E0,0E0,0E0,0E0,0E0,0E0],"parents":[2147483647,0,0,1,1,2,2,3,3,4,4,5,5],"right_children":[2,4,6,8,10,12,-1,-1,-1,-1,-1,-1,-1],"split_conditions":[2.8791824E2,8.859368E-1,2.1864285E0,1.3698853E2,1.4340326E2,3.3078583E2,1.7619908E-2,8.635816E-3,3.383302E-4,-9.976064E-3,-1.6918754E-3,1.7138975E-2,-1.7446036E-2],"split_indices":[7,1,6,9,8,7,0,0,0,0,0,0,0],"split_type":[0,0,0,0,0,0,0,0,0,0,0,0,0],"sum_hessian":[1.1156666E4,1.1015372E4,1.412936E2,8.017815E3,2.9975574E3,4.1786194E1,9.95074E1,3.2301102E2,7.6948037E3,2.8289166E2,2.7146655E3,2.1499691E1,2.0286505E1],"tree_param":{"num_deleted":"0","num_feature":"13","num_nodes":"13","size_leaf_vector":"1"}},{"base_weights":[7.896985E-4,-1.4767448E-2,1.2036533E0,7.051122E-2,-2.4247669E-1,1.7097132E-2,7.463495E-2,2.6530615E-4,6.3595083E-3,-1.1006683E-2,-1.7673379E-3,-1.7392186E-2,1.8662795E-2],"categories":[],"categories_nodes":[],"categories_segments":[],"categories_sizes":[],"default_left":[0,0,0,0,0,0,0,0,0,0,0,0,0],"id":59,"left_children":[1,3,5,7,9,-1,11,-1,-1,-1,-1,-1,-1],"loss_changes":[2.0916087E2,2.1429442E2,8.1412186E1,1.9964618E2,1.6944759E2,0E0,1.5018771E2,0E0,0E0,0E0,0E0,0E0,0E0],"parents":[2147483647,0,0,1,1,2,2,3,3,4,4,6,6],"right_children":[2,4,6,8,10,-1,12,-1,-1,-1,-1,-1,-1],"split_conditions":[2.8791824E2,8.859368E-1,-1.4786308E0,3.703728E-1,1.4309082E2,1.7097132E-2,3.559122E1,2.6530615E-4,6.3595083E-3,-1.1006683E-2,-1.7673379E-3,-1.7392186E-2,1.8662795E-2],"split_indices":[7,1,12,1,8,0,0,0,0,0,0,0,0],"split_type":[0,0,0,0,0,0,0,0,0,0,0,0,0],"sum_hessian":[1.1175277E4,1.1033563E4,1.4171404E2,8.0277905E3,3.0057725E3,9.7498116E1,4.421592E1,7.449413E3,5.7837775E2,2.127567E2,2.7930156E3,2.198632E1,2.2229599E1],"tree_param":{"num_deleted":"0","num_feature":"13","num_nodes":"13","size_leaf_vector":"1"}},{"base_weights":[-4.7091153E-4,2.5964203E-1,-7.328217E-2,-1.11540675E-1,4.2090112E-1,-2.8428549E-2,-6.2621194E-1,6.2356195E-3,-3.4642466E-3,6.1960435E-3,-1.6460223E-3,-1.3043574E-4,-1.6975014E-2,-3.217539E-3,-1.737458E-2],"categories":[],"categories_nodes":[],"categories_segments":[],"categories_sizes":[],"default_left":[0,0,0,0,0,0,0,0,0,0,0,0,0,0,0],"id":60,"left_children":[1,3,5,7,9,11,13,-1,-1,-1,-1,-1,-1,-1,-1],"loss_changes":[2.1108081E2,1.4594629E2,2.1594153E2,1.2781865E2,1.9781937E2,2.0682962E2,2.2047763E2,0E0,0E0,0E0,0E0,0E0,0E0,0E0,0E0],"parents":[2147483647,0,0,1,1,2,2,3,3,4,4,5,5,6,6],"right_children":[2,4,6,8,10,12,14,-1,-1,-1,-1,-1,-1,-1,-1],"split_conditions":[-5.3510237E-1,-1.4370213E0,2.0848186E2,-2.8391016E0,-2.6280582E0,2.3072377E2,1.3954268E0,6.2356195E-3,-3.4642466E-3,6.1960435E-3,-1.6460223E-3,-1.3043574E-4,-1.6975014E-2,-3.217539E-3,-1.737458E-2],"split_indices":[2,2,8,2,3,10,4,0,0,0,0,0,0,0,0],"split_type":[0,0,0,0,0,0,0,0,0,0,0,0,0,0,0],"sum_hessian":[1.1143204E4,2.436482E3,8.706722E3,7.380235E2,1.6984585E3,8.054401E3,6.52321E2,1.78313E2,5.597105E2,1.2680575E3,4.30401E2,7.981835E3,7.256617E1,5.130466E2,1.3927438E2],"tree_param":{"num_deleted":"0","num_feature":"13","num_nodes":"15","size_leaf_vector":"1"}},{"base_weights":[-1.2930718E-3,2.7145463E-1,-7.737505E-2,-1.05731614E-1,4.3595922E-1,-3.282585E-2,-6.293229E-1,-2.2702473E-3,1.6543845E-2,6.279595E-3,-1.3422138E-3,4.859084E-4,-3.635693E-3,1.9786287E-2,-7.3186574E-3],"categories":[],"categories_nodes":[],"categories_segments":[],"categories_sizes":[],"default_left":[0,0,0,0,0,0,0,0,0,0,0,0,0,0,0],"id":61,"left_children":[1,3,5,7,9,11,13,-1,-1,-1,-1,-1,-1,-1,-1],"loss_changes":[2.317581E2,1.5119133E2,2.1470157E2,1.5847739E2,1.8579172E2,2.1763338E2,1.7584506E2,0E0,0E0,0E0,0E0,0E0,0E0,0E0,0E0],"parents":[2147483647,0,0,1,1,2,2,3,3,4,4,5,5,6,6],"right_children":[2,4,6,8,10,12,14,-1,-1,-1,-1,-1,-1,-1,-1],"split_conditions":[-5.3510237E-1,-1.4370213E0,2.0848186E2,4.7022175E1,-2.6280582E0,1.4804982E0,1.9202924E2,-2.2702473E-3,1.6543845E-2,6.279595E-3,-1.3422138E-3,4.859084E-4,-3.635693E-3,1.9786287E-2,-7.3186574E-3],"split_indices":[2,2,8,1,3,1,10,0,0,0,0,0,0,0,0],"split_type":[0,0,0,0,0,0,0,0,0,0,0,0,0,0,0],"sum_hessian":[1.1166416E4,2.4349062E3,8.73151E3,7.395584E2,1.6953478E3,8.08038E3,6.511297E2,6.9269446E2,4.6863945E1,1.2681985E3,4.2714938E2,6.4848945E3,1.5954856E3,2.394125E1,6.271885E2],"tree_param":{"num_deleted":"0","num_feature":"13","num_nodes":"15","size_leaf_vector":"1"}},{"base_weights":[3.270256E-3,2.660715E-1,-6.982966E-2,1.9914571E-2,2.334547E-1,-2.7693309E-2,-5.9893745E-1,-1.5704834E-3,4.020132E-3,-1.1847682E-4,-1.6853314E-2,1.9539075E-2,-6.987559E-3],"categories":[],"categories_nodes":[],"categories_segments":[],"categories_sizes":[],"default_left":[0,0,0,0,0,0,0,0,0,0,0,0,0],"id":62,"left_children":[1,3,5,-1,7,9,11,-1,-1,-1,-1,-1,-1],"loss_changes":[2.1409978E2,1.3602614E2,1.943809E2,0E0,1.5681953E2,2.1214198E2,1.652458E2,0E0,0E0,0E0,0E0,0E0,0E0],"parents":[2147483647,0,0,1,1,2,2,4,4,5,5,6,6],"right_children":[2,4,6,-1,8,10,12,-1,-1,-1,-1,-1,-1],"split_conditions":[-5.3510237E-1,-7.118851E1,2.0848186E2,1.9914571E-2,-1.4370213E0,2.3072377E2,1.9202924E2,-1.5704834E-3,4.020132E-3,-1.1847682E-4,-1.6853314E-2,1.9539075E-2,-6.987559E-3],"split_indices":[2,7,8,0,2,10,10,0,0,0,0,0,0],"split_type":[0,0,0,0,0,0,0,0,0,0,0,0,0],"sum_hessian":[1.1142822E4,2.4243633E3,8.718459E3,4.3865753E1,2.3804976E3,8.0763394E3,6.4211993E2,7.177468E2,1.6627507E3,8.000865E3,7.547439E1,2.3463713E1,6.1865625E2],"tree_param":{"num_deleted":"0","num_feature":"13","num_nodes":"13","size_leaf_vector":"1"}},{"base_weights":[3.563298E-4,8.728896E-1,-2.1043966E-2,-2.4257235E-1,1.529441E0,-3.7288602E-2,1.1810781E0,5.7839295E-3,-1.8424362E-2,-1.8982813E-2,1.7870016E-2,4.2717287E-4,-2.5385688E-3,1.6970348E-2,3.6869384E-4],"categories":[],"categories_nodes":[],"categories_segments":[],"categories_sizes":[],"default_left":[0,0,0,0,0,0,0,0,0,0,0,0,0,0,0],"id":63,"left_children":[1,3,5,7,9,11,13,-1,-1,-1,-1,-1,-1,-1,-1],"loss_changes":[2.0820616E2,1.9586342E2,2.1257774E2,1.3210133E2,1.5186026E2,1.8608919E2,8.562373E1,0E0,0E0,0E0,0E0,0E0,0E0,0E0,0E0],"parents":[2147483647,0,0,1,1,2,2,3,3,4,4,5,5,6,6],"right_children":[2,4,6,8,10,12,14,-1,-1,-1,-1,-1,-1,-1,-1],"split_conditions":[1.2988467E2,-1.3489385E1,2.8791824E2,-2.1083254E1,-6.769585E0,9.275432E-1,-1.4786308E0,5.7839295E-3,-1.8424362E-2,-1.8982813E-2,1.7870016E-2,4.2717287E-4,-2.5385688E-3,1.6970348E-2,3.6869384E-4],"split_indices":[5,7,7,7,3,12,12,0,0,0,0,0,0,0,0],"split_type":[0,0,0,0,0,0,0,0,0,0,0,0,0,0,0],"sum_hessian":[1.1148452E4,2.6593552E2,1.0882517E4,9.876581E1,1.6716971E2,1.0738374E4,1.441419E2,6.569374E1,3.3072067E1,1.1238113E1,1.559316E2,7.842103E3,2.8962715E3,9.901157E1,4.5130333E1],"tree_param":{"num_deleted":"0","num_feature":"13","num_nodes":"15","size_leaf_vector":"1"}},{"base_weights":[3.7897506E-3,7.909104E-1,-1.8757427E-2,2.7405813E-2,1.7793177E-2,-3.4248512E-2,1.150279E0,4.8709074E-3,-1.8875184E-2,4.748765E-4,-2.5763982E-3,-1.1855352E-3,1.7284732E-2],"categories":[],"categories_nodes":[],"categories_segments":[],"categories_sizes":[],"default_left":[0,0,0,0,0,0,0,0,0,0,0,0,0],"id":64,"left_children":[1,3,5,7,-1,9,11,-1,-1,-1,-1,-1,-1],"loss_changes":[1.9848917E2,2.3498814E2,1.9694325E2,1.5648982E2,0E0,1.9596303E2,1.0454404E2,0E0,0E0,0E0,0E0,0E0,0E0],"parents":[2147483647,0,0,1,1,2,2,3,3,5,5,6,6],"right_children":[2,4,6,8,-1,10,12,-1,-1,-1,-1,-1,-1],"split_conditions":[1.3085466E2,8.756388E0,2.8791824E2,2.97E0,1.7793177E-2,9.275432E-1,2.1864285E0,4.8709074E-3,-1.8875184E-2,4.748765E-4,-2.5763982E-3,-1.1855352E-3,1.7284732E-2],"split_indices":[10,7,7,6,0,12,6,0,0,0,0,0,0],"split_type":[0,0,0,0,0,0,0,0,0,0,0,0,0],"sum_hessian":[1.1182322E4,3.1045007E2,1.0871872E4,1.7573198E2,1.3471811E2,1.0730649E4,1.4122281E2,1.4231447E2,3.3417503E1,7.856748E3,2.8739011E3,4.445731E1,9.6765495E1],"tree_param":{"num_deleted":"0","num_feature":"13","num_nodes":"13","size_leaf_vector":"1"}},{"base_weights":[2.5433481E-3,2.595569E-1,-7.081955E-2,2.1966852E-1,1.6979234E-2,2.365746E-1,-1.3779502E-1,2.848604E-3,-1.2983756E-2,1.3206214E-2,1.0504562E-3,-4.694942E-3,-4.235852E-4],"categories":[],"categories_nodes":[],"categories_segments":[],"categories_sizes":[],"default_left":[0,0,0,0,0,0,0,0,0,0,0,0,0],"id":65,"left_children":[1,3,5,7,-1,9,11,-1,-1,-1,-1,-1,-1],"loss_changes":[2.099782E2,1.4150812E2,1.7839423E2,2.3860951E2,0E0,2.2090479E2,2.2518748E2,0E0,0E0,0E0,0E0,0E0,0E0],"parents":[2147483647,0,0,1,1,2,2,3,3,5,5,6,6],"right_children":[2,4,6,8,-1,10,12,-1,-1,-1,-1,-1,-1],"split_conditions":[-5.215694E-1,4.7022175E1,5.076056E-1,3.254375E-1,1.6979234E-2,1.3995744E2,6.813206E-1,2.848604E-3,-1.2983756E-2,1.3206214E-2,1.0504562E-3,-4.694942E-3,-4.235852E-4],"split_indices":[2,1,4,3,0,9,4,0,0,0,0,0,0],"split_type":[0,0,0,0,0,0,0,0,0,0,0,0,0],"sum_hessian":[1.1134346E4,2.4719126E3,8.662434E3,2.4063335E3,6.557902E1,1.5492734E3,7.1131597E3,2.3080286E3,9.83051E1,1.6665788E2,1.3826156E3,1.5884436E3,5.5247163E3],"tree_param":{"num_deleted":"0","num_feature":"13","num_nodes":"13","size_leaf_vector":"1"}},{"base_weights":[3.0244645E-3,8.670695E-1,-1.8559007E-2,-2.365065E-1,1.5084448E0,-3.4181908E-2,1.1872691E0,6.156899E-3,-1.8394358E-2,-1.8680086E-2,1.7613346E-2,-1.3746739E-2,-2.2470868E-4,1.6549528E-2,4.7170306E-3],"categories":[],"categories_nodes":[],"categories_segments":[],"categories_sizes":[],"default_left":[0,0,0,0,0,0,0,0,0,0,0,0,0,0,0],"id":66,"left_children":[1,3,5,7,9,11,13,-1,-1,-1,-1,-1,-1,-1,-1],"loss_changes":[2.0842186E2,1.9314014E2,2.0545123E2,1.390668E2,1.5049023E2,1.689681E2,4.5901505E1,0E0,0E0,0E0,0E0,0E0,0E0,0E0,0E0],"parents":[2147483647,0,0,1,1,2,2,3,3,4,4,5,5,6,6],"right_children":[2,4,6,8,10,12,14,-1,-1,-1,-1,-1,-1,-1,-1],"split_conditions":[1.2988467E2,-1.3489385E1,2.8791824E2,-2.1083254E1,-6.769585E0,1.3064075E2,-2.4063222E0,6.156899E-3,-1.8394358E-2,-1.8680086E-2,1.7613346E-2,-1.3746739E-2,-2.2470868E-4,1.6549528E-2,4.7170306E-3],"split_indices":[5,7,7,7,3,5,3,0,0,0,0,0,0,0,0],"split_type":[0,0,0,0,0,0,0,0,0,0,0,0,0,0,0],"sum_hessian":[1.1174117E4,2.7136746E2,1.090275E4,9.997599E1,1.7139146E2,1.0764258E4,1.3849179E2,6.567554E1,3.4300457E1,1.1497408E1,1.5989404E2,9.221815E1,1.067204E4,8.29585E1,5.553328E1],"tree_param":{"num_deleted":"0","num_feature":"13","num_nodes":"15","size_leaf_vector":"1"}},{"base_weights":[-3.0031847E-3,-1.7622946E-2,1.1487035E0,6.2252805E-2,-2.3138656E-1,-9.4415896E-2,1.7041529E-2,9.5530605E-4,-6.255766E-3,1.9653719E-2,-2.5719535E-3,1.664009E-2,-1.7260462E-2],"categories":[],"categories_nodes":[],"categories_segments":[],"categories_sizes":[],"default_left":[0,0,0,0,0,0,0,0,0,0,0,0,0],"id":67,"left_children":[1,3,5,7,9,11,-1,-1,-1,-1,-1,-1,-1],"loss_changes":[1.8827652E2,1.8854271E2,9.6942245E1,1.8406294E2,1.7080336E2,1.2978374E2,0E0,0E0,0E0,0E0,0E0,0E0,0E0],"parents":[2147483647,0,0,1,1,2,2,3,3,4,4,5,5],"right_children":[2,4,6,8,10,12,-1,-1,-1,-1,-1,-1,-1],"split_conditions":[2.8791824E2,8.859368E-1,2.1864285E0,2.1245094E2,-9.455646E0,2.4219252E1,1.7041529E-2,9.5530605E-4,-6.255766E-3,1.9653719E-2,-2.5719535E-3,1.664009E-2,-1.7260462E-2],"split_indices":[7,1,6,8,3,0,0,0,0,0,0,0,0],"split_type":[0,0,0,0,0,0,0,0,0,0,0,0,0],"sum_hessian":[1.1179657E4,1.1040494E4,1.3916331E2,8.037776E3,3.002718E3,4.323394E1,9.5929375E1,7.6676685E3,3.7010754E2,3.3995358E1,2.9687227E3,2.0798904E1,2.2435036E1],"tree_param":{"num_deleted":"0","num_feature":"13","num_nodes":"13","size_leaf_vector":"1"}},{"base_weights":[-4.4092975E-4,5.6261975E-1,-3.2752585E-2,1.4924322E0,2.9546034E-1,2.175851E-1,-1.02439515E-1,1.8105514E-2,4.9365414E-3,2.3245136E-4,1.9646484E-2,-3.4591248E-3,3.4804572E-3,-9.981127E-3,-7.5406925E-4],"categories":[],"categories_nodes":[],"categories_segments":[],"categories_sizes":[],"default_left":[0,0,0,0,0,0,0,0,0,0,0,0,0,0,0],"id":68,"left_children":[1,3,5,7,9,11,13,-1,-1,-1,-1,-1,-1,-1,-1],"loss_changes":[2.0258405E2,1.4967511E2,1.83733E2,4.188333E1,2.1382074E2,1.6872015E2,1.9939255E2,0E0,0E0,0E0,0E0,0E0,0E0,0E0,0E0],"parents":[2147483647,0,0,1,1,2,2,3,3,4,4,5,5,6,6],"right_children":[2,4,6,8,10,12,14,-1,-1,-1,-1,-1,-1,-1,-1],"split_conditions":[1.3189645E2,1.3687755E2,-5.215694E-1,1.3192505E0,1.4486452E2,1.5252328E2,-9.807708E0,1.8105514E-2,4.9365414E-3,2.3245136E-4,1.9646484E-2,-3.4591248E-3,3.4804572E-3,-9.981127E-3,-7.5406925E-4],"split_indices":[5,9,2,4,9,5,1,0,0,0,0,0,0,0,0],"split_type":[0,0,0,0,0,0,0,0,0,0,0,0,0,0,0],"sum_hessian":[1.1133004E4,6.033123E2,1.0529691E4,1.3363329E2,4.6967905E2,2.2924297E3,8.237262E3,1.00735435E2,3.2897846E1,4.0469446E2,6.498461E1,4.3065472E2,1.8617749E3,2.402753E2,7.9969863E3],"tree_param":{"num_deleted":"0","num_feature":"13","num_nodes":"15","size_leaf_vector":"1"}},{"base_weights":[2.2958365E-4,-1.4419225E-2,1.1401662E0,6.589588E-2,-2.2989464E-1,-5.789905E-3,1.6890857E-2,2.0994793E-4,6.339236E-3,-1.1201992E-2,-1.6227551E-3,1.6620725E-2,-1.7110474E-2],"categories":[],"categories_nodes":[],"categories_segments":[],"categories_sizes":[],"default_left":[0,0,0,0,0,0,0,0,0,0,0,0,0],"id":69,"left_children":[1,3,5,7,9,11,-1,-1,-1,-1,-1,-1,-1],"loss_changes":[1.8609077E2,1.9042616E2,8.8949295E1,2.044329E2,1.7968484E2,1.3591675E2,0E0,0E0,0E0,0E0,0E0,0E0,0E0],"parents":[2147483647,0,0,1,1,2,2,3,3,4,4,5,5],"right_children":[2,4,6,8,10,12,-1,-1,-1,-1,-1,-1,-1],"split_conditions":[2.8791824E2,8.859368E-1,2.1864285E0,3.703728E-1,1.4309082E2,-2.4063222E0,1.6890857E-2,2.0994793E-4,6.339236E-3,-1.1201992E-2,-1.6227551E-3,1.6620725E-2,-1.7110474E-2],"split_indices":[7,1,6,1,8,3,0,0,0,0,0,0,0],"split_type":[0,0,0,0,0,0,0,0,0,0,0,0,0],"sum_hessian":[1.1142035E4,1.1001645E4,1.403898E2,8.014907E3,2.9867375E3,4.578852E1,9.460128E1,7.4287236E3,5.861839E2,2.0973282E2,2.777005E3,2.3160873E1,2.2627647E1],"tree_param":{"num_deleted":"0","num_feature":"13","num_nodes":"13","size_leaf_vector":"1"}},{"base_weights":[-3.3028997E-3,2.4791814E-1,-7.367279E-2,-1.1151814E-1,4.077709E-1,-2.857296E-2,-5.462715E-1,4.8550466E-4,-1.2770603E-2,6.0068504E-3,-1.5335181E-3,3.4577935E-3,-1.0811473E-3,1.952832E-2,-6.2776897E-3],"categories":[],"categories_nodes":[],"categories_segments":[],"categories_sizes":[],"default_left":[0,0,0,0,0,0,0,0,0,0,0,0,0,0,0],"id":70,"left_children":[1,3,5,7,9,11,13,-1,-1,-1,-1,-1,-1,-1,-1],"loss_changes":[1.9719035E2,1.4028436E2,1.8570525E2,1.4038382E2,1.829932E2,2.3692496E2,1.5581824E2,0E0,0E0,0E0,0E0,0E0,0E0,0E0,0E0],"parents":[2147483647,0,0,1,1,2,2,3,3,4,4,5,5,6,6],"right_children":[2,4,6,8,10,12,14,-1,-1,-1,-1,-1,-1,-1,-1],"split_conditions":[-5.3510237E-1,-1.4370213E0,2.0812938E2,1.9537003E0,-2.6280582E0,5.076056E-1,1.9202924E2,4.8550466E-4,-1.2770603E-2,6.0068504E-3,-1.5335181E-3,3.4577935E-3,-1.0811473E-3,1.952832E-2,-6.2776897E-3],"split_indices":[2,2,8,4,3,4,10,0,0,0,0,0,0,0,0],"split_type":[0,0,0,0,0,0,0,0,0,0,0,0,0,0,0],"sum_hessian":[1.1152279E4,2.4397673E3,8.712512E3,7.511267E2,1.6886406E3,7.954481E3,7.5803107E2,6.612702E2,8.9856544E1,1.2565632E3,4.320774E2,1.3933809E3,6.5611E3,2.3214077E1,7.34817E2],"tree_param":{"num_deleted":"0","num_feature":"13","num_nodes":"15","size_leaf_vector":"1"}},{"base_weights":[-2.678683E-3,2.5016192E-1,-7.360027E-2,-1.1604214E-1,4.1051748E-1,-2.7468262E-2,-5.53558E-1,-2.3794286E-3,1.6369259E-2,6.0355314E-3,-1.4550396E-3,3.3391465E-3,-1.049887E-3,1.9374788E-2,-6.3860556E-3],"categories":[],"categories_nodes":[],"categories_segments":[],"categories_sizes":[],"default_left":[0,0,0,0,0,0,0,0,0,0,0,0,0,0,0],"id":71,"left_children":[1,3,5,7,9,11,13,-1,-1,-1,-1,-1,-1,-1,-1],"loss_changes":[2.0013058E2,1.4361252E2,1.92965E2,1.5965155E2,1.8260425E2,2.2282317E2,1.6314313E2,0E0,0E0,0E0,0E0,0E0,0E0,0E0,0E0],"parents":[2147483647,0,0,1,1,2,2,3,3,4,4,5,5,6,6],"right_children":[2,4,6,8,10,12,14,-1,-1,-1,-1,-1,-1,-1,-1],"split_conditions":[-5.3510237E-1,-1.4370213E0,2.0812938E2,4.7022175E1,-2.6280582E0,5.076056E-1,1.9202924E2,-2.3794286E-3,1.6369259E-2,6.0355314E-3,-1.4550396E-3,3.3391465E-3,-1.049887E-3,1.9374788E-2,-6.3860556E-3],"split_indices":[2,2,8,1,3,4,10,0,0,0,0,0,0,0,0],"split_type":[0,0,0,0,0,0,0,0,0,0,0,0,0,0,0],"sum_hessian":[1.1158592E4,2.4437869E3,8.714805E3,7.443016E2,1.6994852E3,7.9515815E3,7.632234E2,6.9671643E2,4.7585125E1,1.2614562E3,4.380291E2,1.4038483E3,6.547733E3,2.447819E1,7.3874524E2],"tree_param":{"num_deleted":"0","num_feature":"13","num_nodes":"15","size_leaf_vector":"1"}},{"base_weights":[2.8415762E-3,5.5446327E-1,-2.8793082E-2,3.730078E-1,1.9489098E-2,5.7375677E-2,-2.6137206E-1,1.263353E-2,-5.8376323E-4,-3.8779547E-4,4.3039774E-3,-1.0923369E-2,-1.8394629E-3],"categories":[],"categories_nodes":[],"categories_segments":[],"categories_sizes":[],"default_left":[0,0,0,0,0,0,0,0,0,0,0,0,0],"id":72,"left_children":[1,3,5,7,-1,9,11,-1,-1,-1,-1,-1,-1],"loss_changes":[1.9478912E2,1.5246487E2,2.1159074E2,2.0630783E2,0E0,2.763432E2,1.8342914E2,0E0,0E0,0E0,0E0,0E0,0E0],"parents":[2147483647,0,0,1,1,2,2,3,3,5,5,6,6],"right_children":[2,4,6,8,-1,10,12,-1,-1,-1,-1,-1,-1],"split_conditions":[1.3189645E2,1.5464552E2,9.275432E-1,1.3716997E2,1.9489098E-2,4.9185704E-2,1.1825054E0,1.263353E-2,-5.8376323E-4,-3.8779547E-4,4.3039774E-3,-1.0923369E-2,-1.8394629E-3],"split_indices":[5,8,12,9,0,12,12,0,0,0,0,0,0],"split_type":[0,0,0,0,0,0,0,0,0,0,0,0,0],"sum_hessian":[1.1160553E4,6.044296E2,1.0556123E4,5.3595483E2,6.8474815E1,7.70298E3,2.8531426E3,1.7429471E2,3.6166013E2,6.1250103E3,1.5779696E3,2.4206755E2,2.6110752E3],"tree_param":{"num_deleted":"0","num_feature":"13","num_nodes":"13","size_leaf_vector":"1"}},{"base_weights":[3.1483956E-3,2.4831001E-1,-6.6831395E-2,-1.1894211E-1,4.0460652E-1,-2.5680846E-2,-5.727296E-1,6.08577E-3,-3.5353815E-3,4.5276275E-3,-1.3734656E-2,-1.0279461E-4,-1.6666297E-2,1.9194823E-2,-6.7282636E-3],"categories":[],"categories_nodes":[],"categories_segments":[],"categories_sizes":[],"default_left":[0,0,0,0,0,0,0,0,0,0,0,0,0,0,0],"id":73,"left_children":[1,3,5,7,9,11,13,-1,-1,-1,-1,-1,-1,-1,-1],"loss_changes":[1.9156694E2,1.423713E2,1.808205E2,1.266808E2,1.495676E2,2.0302808E2,1.6428392E2,0E0,0E0,0E0,0E0,0E0,0E0,0E0,0E0],"parents":[2147483647,0,0,1,1,2,2,3,3,4,4,5,5,6,6],"right_children":[2,4,6,8,10,12,14,-1,-1,-1,-1,-1,-1,-1,-1],"split_conditions":[-5.215694E-1,-1.4370213E0,2.0848186E2,-2.8391016E0,2.1331297E2,2.3072377E2,1.9202924E2,6.08577E-3,-3.5353815E-3,4.5276275E-3,-1.3734656E-2,-1.0279461E-4,-1.6666297E-2,1.9194823E-2,-6.7282636E-3],"split_indices":[2,2,8,2,8,10,10,0,0,0,0,0,0,0,0],"split_type":[0,0,0,0,0,0,0,0,0,0,0,0,0,0,0],"sum_hessian":[1.1163977E4,2.4784885E3,8.685487E3,7.3998175E2,1.7385068E3,8.0331123E3,6.523751E2,1.8004375E2,5.5993805E2,1.6933894E3,4.5117374E1,7.9594146E3,7.369807E1,2.4488302E1,6.2788684E2],"tree_param":{"num_deleted":"0","num_feature":"13","num_nodes":"15","size_leaf_vector":"1"}},{"base_weights":[-7.884423E-4,6.389776E-1,-2.7246647E-2,1.581877E0,1.8372847E-1,2.0434758E-1,-1.055329E-1,1.8592155E-2,-1.960713E-2,-2.738394E-3,1.0883917E-2,8.477821E-3,4.523603E-4,-4.395162E-3,1.2661931E-4],"categories":[],"categories_nodes":[],"categories_segments":[],"categories_sizes":[],"default_left":[0,0,0,0,0,0,0,0,0,0,0,0,0,0,0],"id":74,"left_children":[1,3,5,7,9,11,13,-1,-1,-1,-1,-1,-1,-1,-1],"loss_changes":[1.8875978E2,1.8980945E2,1.9417305E2,1.4519177E2,1.2439598E2,2.769615E2,3.1595676E2,0E0,0E0,0E0,0E0,0E0,0E0,0E0,0E0],"parents":[2147483647,0,0,1,1,2,2,3,3,4,4,5,5,6,6],"right_children":[2,4,6,8,10,12,14,-1,-1,-1,-1,-1,-1,-1,-1],"split_conditions":[1.3698853E2,4.8231102E1,-1.5293878E0,2.9771428E0,3.2581708E0,1.377775E2,1.6645355E2,1.8592155E-2,-1.960713E-2,-2.738394E-3,1.0883917E-2,8.477821E-3,4.523603E-4,-4.395162E-3,1.2661931E-4],"split_indices":[9,0,12,6,12,10,9,0,0,0,0,0,0,0,0],"split_type":[0,0,0,0,0,0,0,0,0,0,0,0,0,0,0],"sum_hessian":[1.1149332E4,4.4186142E2,1.0707471E4,1.4306807E2,2.9879337E2,2.7046611E3,8.0028096E3,1.3312157E2,9.946495E0,1.9889297E2,9.990038E1,5.3536383E2,2.1692974E3,2.0911436E3,5.911666E3],"tree_param":{"num_deleted":"0","num_feature":"13","num_nodes":"15","size_leaf_vector":"1"}},{"base_weights":[7.1807613E-4,8.3131206E-1,-1.9960651E-2,-7.329062E-1,1.0715951E0,-1.389738E0,-8.420994E-3,1.6216777E-2,-1.9416798E-2,1.7483635E-2,1.52179E-3,-1.875162E-2,1.8922064E-2,2.0158496E-2,-2.1192331E-4],"categories":[],"categories_nodes":[],"categories_segments":[],"categories_sizes":[],"default_left":[0,0,0,0,0,0,0,0,0,0,0,0,0,0,0],"id":75,"left_children":[1,3,5,7,9,11,13,-1,-1,-1,-1,-1,-1,-1,-1],"loss_changes":[1.9204361E2,1.02870575E2,1.724337E2,1.0777496E2,1.4648569E2,1.4873653E2,2.7975446E2,0E0,0E0,0E0,0E0,0E0,0E0,0E0,0E0],"parents":[2147483647,0,0,1,1,2,2,3,3,4,4,5,5,6,6],"right_children":[2,4,6,8,10,12,14,-1,-1,-1,-1,-1,-1,-1,-1],"split_conditions":[1.2988467E2,-5.873344E0,1.3064075E2,1.8603628E1,4.526148E1,3.2542858E0,1.3158275E2,1.6216777E-2,-1.9416798E-2,1.7483635E-2,1.52179E-3,-1.875162E-2,1.8922064E-2,2.0158496E-2,-2.1192331E-4],"split_indices":[5,12,5,0,0,6,10,0,0,0,0,0,0,0,0],"split_type":[0,0,0,0,0,0,0,0,0,0,0,0,0,0,0],"sum_hessian":[1.1179205E4,2.7060788E2,1.0908598E4,3.576049E1,2.348474E2,9.013374E1,1.0818464E4,1.2014913E1,2.3745577E1,1.3475479E2,1.00092606E2,7.8893456E1,1.1240286E1,6.684358E1,1.075162E4],"tree_param":{"num_deleted":"0","num_feature":"13","num_nodes":"15","size_leaf_vector":"1"}},{"base_weights":[3.9990252E-4,-1.4145592E-2,1.1314899E0,6.1602426E-1,-4.0741548E-2,-7.015105E-2,1.6755013E-2,1.5341177E-2,1.6938591E-3,3.97684E-4,-2.698355E-3,1.635645E-2,-1.699993E-2],"categories":[],"categories_nodes":[],"categories_segments":[],"categories_sizes":[],"default_left":[0,0,0,0,0,0,0,0,0,0,0,0,0],"id":76,"left_children":[1,3,5,7,9,11,-1,-1,-1,-1,-1,-1,-1],"loss_changes":[1.8380391E2,1.8488985E2,9.2841934E1,1.8292482E2,1.9523314E2,1.2834401E2,0E0,0E0,0E0,0E0,0E0,0E0,0E0],"parents":[2147483647,0,0,1,1,2,2,3,3,4,4,5,5],"right_children":[2,4,6,8,10,12,-1,-1,-1,-1,-1,-1,-1],"split_conditions":[2.8791824E2,1.3698853E2,2.1864285E0,4.8231102E1,9.275432E-1,2.4219252E1,1.6755013E-2,1.5341177E-2,1.6938591E-3,3.97684E-4,-2.698355E-3,1.635645E-2,-1.699993E-2],"split_indices":[7,9,6,0,12,0,0,0,0,0,0,0,0],"split_type":[0,0,0,0,0,0,0,0,0,0,0,0,0],"sum_hessian":[1.116998E4,1.1029137E4,1.4084407E2,4.4573117E2,1.0583405E4,4.4163803E1,9.668027E1,1.4507845E2,3.0065274E2,7.8318896E3,2.751516E3,2.1577349E1,2.2586456E1],"tree_param":{"num_deleted":"0","num_feature":"13","num_nodes":"13","size_leaf_vector":"1"}},{"base_weights":[-1.7844611E-3,-1.6395558E-2,1.1288174E0,6.275071E-1,-4.3273095E-2,-4.270686E-2,1.6654413E-2,8.23452E-3,-1.6887872E-2,3.1419008E-4,-2.4317529E-3,1.6375966E-2,-1.6873563E-2],"categories":[],"categories_nodes":[],"categories_segments":[],"categories_sizes":[],"default_left":[0,0,0,0,0,0,0,0,0,0,0,0,0],"id":77,"left_children":[1,3,5,7,9,11,-1,-1,-1,-1,-1,-1,-1],"loss_changes":[1.8391048E2,1.9024103E2,8.936708E1,2.0130006E2,1.5755217E2,1.2877266E2,0E0,0E0,0E0,0E0,0E0,0E0,0E0],"parents":[2147483647,0,0,1,1,2,2,3,3,4,4,5,5],"right_children":[2,4,6,8,10,12,-1,-1,-1,-1,-1,-1,-1],"split_conditions":[2.8791824E2,1.3698853E2,2.1864285E0,5.580151E0,8.859368E-1,2.4219252E1,1.6654413E-2,8.23452E-3,-1.6887872E-2,3.1419008E-4,-2.4317529E-3,1.6375966E-2,-1.6873563E-2],"split_indices":[7,9,6,1,1,0,0,0,0,0,0,0,0],"split_type":[0,0,0,0,0,0,0,0,0,0,0,0,0],"sum_hessian":[1.1130923E4,1.0989883E4,1.4103995E2,4.3945895E2,1.0550424E4,4.459761E1,9.644234E1,4.0577707E2,3.368187E1,7.6812275E3,2.869196E3,2.2061813E1,2.2535797E1],"tree_param":{"num_deleted":"0","num_feature":"13","num_nodes":"13","size_leaf_vector":"1"}},{"base_weights":[-1.9106345E-3,-1.6431449E-2,1.1244681E0,6.3645124E-2,-2.3111624E-1,1.6106322E-2,8.769444E-2,8.326053E-3,3.1073403E-4,1.9496413E-2,-2.5742229E-3,-1.6736131E-2,1.7816978E-2],"categories":[],"categories_nodes":[],"categories_segments":[],"categories_sizes":[],"default_left":[0,0,0,0,0,0,0,0,0,0,0,0,0],"id":78,"left_children":[1,3,5,7,9,-1,11,-1,-1,-1,-1,-1,-1],"loss_changes":[1.8229744E2,1.8918105E2,7.136037E1,2.0072375E2,1.7200287E2,0E0,1.4125099E2,0E0,0E0,0E0,0E0,0E0,0E0],"parents":[2147483647,0,0,1,1,2,2,3,3,4,4,6,6],"right_children":[2,4,6,8,10,-1,12,-1,-1,-1,-1,-1,-1],"split_conditions":[2.8791824E2,8.859368E-1,-1.4786308E0,2.882303E-1,-9.455646E0,1.6106322E-2,-1.6464916E-1,8.326053E-3,3.1073403E-4,1.9496413E-2,-2.5742229E-3,-1.6736131E-2,1.7816978E-2],"split_indices":[7,1,12,4,3,0,2,0,0,0,0,0,0],"split_type":[0,0,0,0,0,0,0,0,0,0,0,0,0],"sum_hessian":[1.1143514E4,1.1002657E4,1.4085637E2,8.0141245E3,2.9885332E3,9.5514275E1,4.5342094E1,3.2467056E2,7.6894536E3,3.4748985E1,2.9537842E3,2.2235352E1,2.3106745E1],"tree_param":{"num_deleted":"0","num_feature":"13","num_nodes":"13","size_leaf_vector":"1"}},{"base_weights":[-1.5947605E-3,8.180187E-1,-2.1784974E-2,-2.1950853E-1,1.4661394E0,-3.610716E-2,1.1031741E0,5.8919126E-3,-1.8282743E-2,-1.8541617E-2,1.7208839E-2,-1.3858435E-2,-2.4604742E-4,-1.0051165E-3,1.6390279E-2],"categories":[],"categories_nodes":[],"categories_segments":[],"categories_sizes":[],"default_left":[0,0,0,0,0,0,0,0,0,0,0,0,0,0,0],"id":79,"left_children":[1,3,5,7,9,11,13,-1,-1,-1,-1,-1,-1,-1,-1],"loss_changes":[1.8453459E2,1.8060138E2,1.7538835E2,1.363185E2,1.428754E2,1.668208E2,8.843094E1,0E0,0E0,0E0,0E0,0E0,0E0,0E0,0E0],"parents":[2147483647,0,0,1,1,2,2,3,3,4,4,5,5,