{"learner":{"attributes":{"scikit_learn":"{\"_estimator_type\": \"classifier\"}"},"feature_names":["rsi","ema_diff","macd_diff","momentum","volume_rel","moving_average","atr","volume_change","ema_200","ema_100","ema_10","ema_50","close_pct_change_5"],"feature_types":["float","float","float","float","float","float","float","float","float","float","float","float","float"],"gradient_booster":{"gbtree":{"model":{"gbtree_model_param":{"num_parallel_tree":"1","num_trees":"500"},"iteration_indptr":[0,1,2,3,4,5,6,7,8,9,10,11,12,13,14,15,16,17,18,19,20,21,22,23,24,25,26,27,28,29,30,31,32,33,34,35,36,37,38,39,40,41,42,43,44,45,46,47,48,49,50,51,52,53,54,55,56,57,58,59,60,61,62,63,64,65,66,67,68,69,70,71,72,73,74,75,76,77,78,79,80,81,82,83,84,85,86,87,88,89,90,91,92,93,94,95,96,97,98,99,100,101,102,103,104,105,106,107,108,109,110,111,112,113,114,115,116,117,118,119,120,121,122,123,124,125,126,127,128,129,130,131,132,133,134,135,136,137,138,139,140,141,142,143,144,145,146,147,148,149,150,151,152,153,154,155,156,157,158,159,160,161,162,163,164,165,166,167,168,169,170,171,172,173,174,175,176,177,178,179,180,181,182,183,184,185,186,187,188,189,190,191,192,193,194,195,196,197,198,199,200,201,202,203,204,205,206,207,208,209,210,211,212,213,214,215,216,217,218,219,220,221,222,223,224,225,226,227,228,229,230,231,232,233,234,235,236,237,238,239,240,241,242,243,244,245,246,247,248,249,250,251,252,253,254,255,256,257,258,259,260,261,262,263,264,265,266,267,268,269,270,271,272,273,274,275,276,277,278,279,280,281,282,283,284,285,286,287,288,289,290,291,292,293,294,295,296,297,298,299,300,301,302,303,304,305,306,307,308,309,310,311,312,313,314,315,316,317,318,319,320,321,322,323,324,325,326,327,328,329,330,331,332,333,334,335,336,337,338,339,340,341,342,343,344,345,346,347,348,349,350,351,352,353,354,355,356,357,358,359,360,361,362,363,364,365,366,367,368,369,370,371,372,373,374,375,376,377,378,379,380,381,382,383,384,385,386,387,388,389,390,391,392,393,394,395,396,397,398,399,400,401,402,403,404,405,406,407,408,409,410,411,412,413,414,415,416,417,418,419,420,421,422,423,424,425,426,427,428,429,430,431,432,433,434,435,436,437,438,439,440,441,442,443,444,445,446,447,448,449,450,451,452,453,454,455,456,457,458,459,460,461,462,463,464,465,466,467,468,469,470,471,472,473,474,475,476,477,478,479,480,481,482,483,484,485,486,487,488,489,490,491,492,493,494,495,496,497,498,499,500],"tree_info":[0,0,0,0,0,0,0,0,0,0,0,0,0,0,0,0,0,0,0,0,0,0,0,0,0,0,0,0,0,0,0,0,0,0,0,0,0,0,0,0,0,0,0,0,0,0,0,0,0,0,0,0,0,0,0,0,0,0,0,0,0,0,0,0,0,0,0,0,0,0,0,0,0,0,0,0,0,0,0,0,0,0,0,0,0,0,0,0,0,0,0,0,0,0,0,0,0,0,0,0,0,0,0,0,0,0,0,0,0,0,0,0,0,0,0,0,0,0,0,0,0,0,0,0,0,0,0,0,0,0,0,0,0,0,0,0,0,0,0,0,0,0,0,0,0,0,0,0,0,0,0,0,0,0,0,0,0,0,0,0,0,0,0,0,0,0,0,0,0,0,0,0,0,0,0,0,0,0,0,0,0,0,0,0,0,0,0,0,0,0,0,0,0,0,0,0,0,0,0,0,0,0,0,0,0,0,0,0,0,0,0,0,0,0,0,0,0,0,0,0,0,0,0,0,0,0,0,0,0,0,0,0,0,0,0,0,0,0,0,0,0,0,0,0,0,0,0,0,0,0,0,0,0,0,0,0,0,0,0,0,0,0,0,0,0,0,0,0,0,0,0,0,0,0,0,0,0,0,0,0,0,0,0,0,0,0,0,0,0,0,0,0,0,0,0,0,0,0,0,0,0,0,0,0,0,0,0,0,0,0,0,0,0,0,0,0,0,0,0,0,0,0,0,0,0,0,0,0,0,0,0,0,0,0,0,0,0,0,0,0,0,0,0,0,0,0,0,0,0,0,0,0,0,0,0,0,0,0,0,0,0,0,0,0,0,0,0,0,0,0,0,0,0,0,0,0,0,0,0,0,0,0,0,0,0,0,0,0,0,0,0,0,0,0,0,0,0,0,0,0,0,0,0,0,0,0,0,0,0,0,0,0,0,0,0,0,0,0,0,0,0,0,0,0,0,0,0,0,0,0,0,0,0,0,0,0,0,0,0,0,0,0,0,0,0,0,0,0,0,0,0,0,0,0,0,0,0,0,0,0,0,0,0,0,0,0,0,0,0,0,0,0,0,0,0,0,0,0,0,0,0,0,0,0,0,0,0,0,0,0,0,0,0,0,0,0,0,0,0,0],"trees":[{"base_weights":[4.856706E-3,1.9562343E-1,-1.0612306E-1,2.4315618E-1,1.06298245E-1,-2.9448602E-2,-2.1488848E-1,3.423681E-1,1.7935571E-1,1.4439653E-1,-1.03779785E-1,4.051721E-2,-1.2291975E-1,-2.9774842E-1,-1.4900981E-1,-1.0016536E-1,3.7381834E-1,3.7481245E-1,1.4945196E-1,-1.5226483E-1,1.6610645E-1,-3.201035E-1,-1.2982408E-2,1.4935313E-1,-7.3963235E-4,-1.4414625E-1,1.9665845E-1,-3.852067E-1,-2.1566814E-1,-1.7110471E-1,9.283789E-2,6.2878096E-1,-2.974539E-1,4.341997E-1,2.3839039E-1,-1.8185726E-1,4.4138572E-1,2.5232663E-2,1.8786256E-1,2.085564E-2,-4.9388772E-1,2.6455534E-1,9.721253E-2,-2.3301071E-1,-7.308672E-2,4.8645515E-2,-6.631006E-1,-1.8457597E-2,2.3090601E-1,4.736887E-2,-6.887102E-2,-8.055324E-1,-1.349557E-1,5.6755435E-2,5.9809923E-1,-2.345697E-1,-4.259851E-1,-1.9193077E-1,-9.1294664E-1,-2.3594316E-2,-2.259259E-1,-1.1159592E-1,3.4921944E-1,-2.6522E-2,4.479975E-2,-1.8592479E-2,3.1709753E-2,2.0401647E-2,3.8383134E-2,2.5845317E-2,7.7852434E-3,7.380555E-3,-5.5102177E-2,2.8200805E-2,9.270217E-3,-5.9051346E-4,6.339798E-2,1.688779E-2,7.6250806E-3,1.7023295E-2,-1.1180366E-2,-3.6536835E-2,2.2405695E-2,1.8752122E-2,2.9282146E-3,-2.372479E-3,7.431707E-3,1.8167647E-2,-1.6852291E-2,-2.5709698E-2,5.2900594E-3,-4.8035167E-2,2.3493288E-2,1.4506863E-2,-6.941783E-3,1.665138E-2,-1.4942999E-3,7.0793196E-3,-1.008835E-3,-4.9590794E-3,1.1560559E-2,-4.7003053E-2,-1.6153451E-3,-9.726297E-3,-4.530894E-3,1.584956E-2,-1.0699336E-2,1.9849099E-3,3.5567544E-2,-1.4865818E-2,3.306519E-2,-5.937087E-2,-2.071338E-2,1.5053329E-2,-1.157273E-2,5.98639E-3,-5.996676E-2,-6.5641752E-3,1.4500727E-2,-8.864625E-3,-1.6894627E-2,1.5748171E-2,-2.4903072E-2,-3.5095114E-2,2.3212448E-2],"categories":[],"categories_nodes":[],"categories_segments":[],"categories_sizes":[],"default_left":[0,0,0,0,0,0,0,0,0,0,0,0,0,0,0,0,0,0,0,0,0,0,0,0,0,0,0,0,0,0,0,0,0,0,0,0,0,0,0,0,0,0,0,0,0,0,0,0,0,0,0,0,0,0,0,0,0,0,0,0,0,0,0,0,0,0,0,0,0,0,0,0,0,0,0,0,0,0,0,0,0,0,0,0,0,0,0,0,0,0,0,0,0,0,0,0,0,0,0,0,0,0,0,0,0,0,0,0,0,0,0,0,0,0,0,0,0,0,0,0,0,0,0,0,0],"id":0,"left_children":[1,3,5,7,9,11,13,15,17,19,21,23,25,27,29,31,33,35,37,39,41,43,45,47,49,51,53,55,57,59,61,63,65,67,69,71,73,75,77,79,81,83,85,87,-1,89,91,93,95,97,99,101,103,105,107,109,111,113,115,117,119,121,123,-1,-1,-1,-1,-1,-1,-1,-1,-1,-1,-1,-1,-1,-1,-1,-1,-1,-1,-1,-1,-1,-1,-1,-1,-1,-1,-1,-1,-1,-1,-1,-1,-1,-1,-1,-1,-1,-1,-1,-1,-1,-1,-1,-1,-1,-1,-1,-1,-1,-1,-1,-1,-1,-1,-1,-1,-1,-1,-1,-1,-1,-1],"loss_changes":[2.7939908E2,2.0582642E1,6.95733E1,1.9986298E1,1.3521582E1,3.2015625E1,1.878592E1,1.7274567E1,1.1222946E1,9.2282295E0,5.095686E0,1.2573235E1,1.4244213E1,1.0877777E1,1.0295464E1,1.2118689E1,9.35379E0,9.545082E0,7.9887657E0,5.80387E0,9.008324E0,7.2874155E0,7.4013095E0,1.0537771E1,6.661653E0,1.183979E1,7.3204026E0,4.4331055E0,1.2899319E1,1.425177E1,8.51335E0,6.048807E0,4.8084908E0,6.655731E0,8.183653E0,8.648163E0,7.0653877E0,1.8283144E1,6.7302017E0,5.230831E0,7.6872444E0,1.2445084E1,5.8478208E0,4.618759E0,0E0,5.48884E0,5.8441215E0,9.42564E0,1.3806631E1,7.584038E0,7.6738157E0,2.7510986E0,5.1062202E0,6.9874196E0,2.1052618E0,9.158972E0,4.678566E0,1.497949E1,7.756073E0,1.620842E1,6.9385605E0,1.5111025E1,9.027883E0,0E0,0E0,0E0,0E0,0E0,0E0,0E0,0E0,0E0,0E0,0E0,0E0,0E0,0E0,0E0,0E0,0E0,0E0,0E0,0E0,0E0,0E0,0E0,0E0,0E0,0E0,0E0,0E0,0E0,0E0,0E0,0E0,0E0,0E0,0E0,0E0,0E0,0E0,0E0,0E0,0E0,0E0,0E0,0E0,0E0,0E0,0E0,0E0,0E0,0E0,0E0,0E0,0E0,0E0,0E0,0E0,0E0,0E0,0E0,0E0,0E0,0E0],"parents":[2147483647,0,0,1,1,2,2,3,3,4,4,5,5,6,6,7,7,8,8,9,9,10,10,11,11,12,12,13,13,14,14,15,15,16,16,17,17,18,18,19,19,20,20,21,21,22,22,23,23,24,24,25,25,26,26,27,27,28,28,29,29,30,30,31,31,32,32,33,33,34,34,35,35,36,36,37,37,38,38,39,39,40,40,41,41,42,42,43,43,45,45,46,46,47,47,48,48,49,49,50,50,51,51,52,52,53,53,54,54,55,55,56,56,57,57,58,58,59,59,60,60,61,61,62,62],"right_children":[2,4,6,8,10,12,14,16,18,20,22,24,26,28,30,32,34,36,38,40,42,44,46,48,50,52,54,56,58,60,62,64,66,68,70,72,74,76,78,80,82,84,86,88,-1,90,92,94,96,98,100,102,104,106,108,110,112,114,116,118,120,122,124,-1,-1,-1,-1,-1,-1,-1,-1,-1,-1,-1,-1,-1,-1,-1,-1,-1,-1,-1,-1,-1,-1,-1,-1,-1,-1,-1,-1,-1,-1,-1,-1,-1,-1,-1,-1,-1,-1,-1,-1,-1,-1,-1,-1,-1,-1,-1,-1,-1,-1,-1,-1,-1,-1,-1,-1,-1,-1,-1,-1,-1,-1],"split_conditions":[-2.2523633E-1,4.3042095E1,6.013711E1,9.078107E-1,5.745452E4,2.6284266E-1,1.3741803E0,-4.8263664E0,5.4859287E1,-1.7585449E0,-5.2846493E1,-3.9124554E-1,1.9258541E0,9.120267E-1,2.4660475E0,7.175616E3,-5.3916276E-1,-3.824863E1,1.0957714E2,9.3095696E-1,-5.949381E-1,-2.5302118E-1,6.298247E1,-1.2313732E0,3.2523077E0,2.7063462E-1,1.1642134E2,-3.4557125E1,8.012672E1,6.713686E1,2.4672643E2,7.4825E1,2.8226416E1,4.4753902E1,3.362407E1,8.179234E3,3.637209E1,7.820442E0,2.0646545E1,2.3943493E-2,1.7043804E0,3.0414856E2,6.2495E1,4.4032623E1,-7.308672E-2,-4.8340214E1,7.918588E-1,-6.558656E1,4.8255516E1,1.6807998E4,3.7091297E1,6.598164E2,-1.9246632E-1,1.1780161E0,6.037339E-1,-3.5900917E1,-3.375957E1,-4.0733093E1,9.0962803E-1,1.0654305E0,2.1311264E1,8.978429E1,1.0929673E0,-2.6522E-2,4.479975E-2,-1.8592479E-2,3.1709753E-2,2.0401647E-2,3.8383134E-2,2.5845317E-2,7.7852434E-3,7.380555E-3,-5.5102177E-2,2.8200805E-2,9.270217E-3,-5.9051346E-4,6.339798E-2,1.688779E-2,7.6250806E-3,1.7023295E-2,-1.1180366E-2,-3.6536835E-2,2.2405695E-2,1.8752122E-2,2.9282146E-3,-2.372479E-3,7.431707E-3,1.8167647E-2,-1.6852291E-2,-2.5709698E-2,5.2900594E-3,-4.8035167E-2,2.3493288E-2,1.4506863E-2,-6.941783E-3,1.665138E-2,-1.4942999E-3,7.0793196E-3,-1.008835E-3,-4.9590794E-3,1.1560559E-2,-4.7003053E-2,-1.6153451E-3,-9.726297E-3,-4.530894E-3,1.584956E-2,-1.0699336E-2,1.9849099E-3,3.5567544E-2,-1.4865818E-2,3.306519E-2,-5.937087E-2,-2.071338E-2,1.5053329E-2,-1.157273E-2,5.98639E-3,-5.996676E-2,-6.5641752E-3,1.4500727E-2,-8.864625E-3,-1.6894627E-2,1.5748171E-2,-2.4903072E-2,-3.5095114E-2,2.3212448E-2],"split_indices":[12,0,0,4,10,12,3,3,6,12,2,3,3,4,4,11,12,7,6,4,12,12,0,3,7,4,2,7,0,0,6,6,7,7,0,8,0,2,0,3,3,6,6,0,0,7,4,2,0,10,2,6,3,12,12,7,7,7,3,4,7,6,12,0,0,0,0,0,0,0,0,0,0,0,0,0,0,0,0,0,0,0,0,0,0,0,0,0,0,0,0,0,0,0,0,0,0,0,0,0,0,0,0,0,0,0,0,0,0,0,0,0,0,0,0,0,0,0,0,0,0,0,0,0,0],"split_type":[0,0,0,0,0,0,0,0,0,0,0,0,0,0,0,0,0,0,0,0,0,0,0,0,0,0,0,0,0,0,0,0,0,0,0,0,0,0,0,0,0,0,0,0,0,0,0,0,0,0,0,0,0,0,0,0,0,0,0,0,0,0,0,0,0,0,0,0,0,0,0,0,0,0,0,0,0,0,0,0,0,0,0,0,0,0,0,0,0,0,0,0,0,0,0,0,0,0,0,0,0,0,0,0,0,0,0,0,0,0,0,0,0,0,0,0,0,0,0,0,0,0,0,0,0],"sum_hessian":[1.3195121E4,4.852772E3,8.34235E3,3.1662095E3,1.6865625E3,4.8937554E3,3.4485942E3,1.2374956E3,1.9287139E3,1.427918E3,2.5864456E2,2.7991091E3,2.0946462E3,1.525878E3,1.9227163E3,8.196659E1,1.1555289E3,2.543963E2,1.6743175E3,9.696048E1,1.3309575E3,7.571913E1,1.8292543E2,7.6868665E2,2.0304224E3,1.9646991E3,1.2994704E2,7.369496E2,7.889284E2,1.7620317E3,1.606845E2,1.6993073E1,6.497352E1,7.9767487E2,3.5785413E2,2.6988998E1,2.274073E2,3.9583865E2,1.2784789E3,6.497352E1,3.1986961E1,5.467771E2,7.8418036E2,7.147086E1,4.248268E0,1.6793155E2,1.4993888E1,2.5164742E2,5.1703925E2,1.1902648E3,8.4015753E2,2.5739508E1,1.9389596E3,9.721037E1,3.2736656E1,1.5843542E2,5.7851416E2,7.641885E2,2.4739916E1,4.7780524E2,1.2842266E3,8.971343E1,7.097107E1,2.9987776E0,1.3994295E1,6.0725246E1,4.248268E0,7.416977E2,5.597718E1,8.0717094E1,2.7713702E2,2.0491648E1,6.4973516E0,1.5293765E2,7.446964E1,3.8534293E2,1.0495722E1,2.4240118E2,1.0360776E3,2.798859E1,3.6984924E1,2.5739508E1,6.247453E0,3.5535516E2,1.9142197E2,2.0566617E2,5.7851416E2,1.0245824E1,6.1225044E1,1.474399E1,1.5318756E2,1.19951105E1,2.9987776E0,7.0221375E1,1.8142604E2,3.7134863E2,1.4569061E2,4.965476E2,6.937172E2,7.636887E2,7.646883E1,2.1741138E1,3.9983702E0,8.259133E2,1.1130463E3,4.947983E1,4.7730545E1,5.7476573E0,2.6988998E1,1.4868939E2,9.746027E0,7.247046E0,5.7126715E2,5.622708E1,7.079614E2,5.497759E0,1.9242157E1,3.5610486E2,1.2170039E2,8.971343E2,3.8709222E2,4.2732582E1,4.698085E1,6.4973516E0,6.447372E1],"tree_param":{"num_deleted":"0","num_feature":"13","num_nodes":"125","size_leaf_vector":"1"}},{"base_weights":[-9.179146E-4,1.7511092E-1,-1.00059204E-1,1.1628585E-1,3.257986E-1,-3.594508E-2,-1.874135E-1,1.8977705E-1,1.6985208E-2,5.258641E-1,2.7019373E-1,-1.0308791E-1,1.9098736E-2,-2.6641312E-1,-1.12071075E-1,7.8369774E-2,2.3547485E-1,-8.1439964E-2,1.3587639E-1,5.486121E-1,-4.721929E-1,-1.2896666E-1,2.8748244E-1,-2.55885E-1,-6.256673E-2,-2.2369271E-2,1.3786706E-1,-1.831967E-1,-3.0371568E-1,-2.730788E-1,-7.0154816E-2,-4.051553E-1,1.0808416E-1,-3.1388795E-3,2.626711E-1,-5.897415E-2,-5.037503E-1,1.7476961E-1,-9.306767E-2,8.817766E-1,4.931648E-1,-9.0037197E-1,2.5841687E-2,1.0721967E-1,-6.896318E-1,4.5797625E-1,2.1343614E-1,-1.131873E-3,-3.1476495E-1,2.7361775E-2,-1.2747478E-1,6.446623E-2,-1.06408566E-1,2.4363887E-1,-3.0691322E-2,-2.106993E-1,2.132787E-1,-2.645638E-1,-4.61721E-1,-3.1918094E-1,3.3931935E-1,9.1700695E-2,-1.5981953E-1,-5.4945417E-2,-8.136422E-3,1.3407144E-2,2.5073273E-4,-3.3344105E-3,3.0805621E-2,1.4464202E-2,2.511443E-4,6.487479E-2,-3.213168E-3,-5.5771858E-2,-4.296824E-3,8.173673E-3,5.801142E-2,-6.617256E-2,-1.8063423E-3,4.8635058E-2,-1.8236878E-3,1.4088853E-2,3.0755296E-2,9.229766E-3,-6.4266905E-2,-1.0313499E-2,2.6249805E-2,-3.9878603E-2,9.627596E-3,-2.4699856E-2,2.4063878E-2,8.251934E-3,2.3238981E-2,3.3871655E-3,-4.536188E-2,-5.303326E-2,-1.4647777E-2,-1.3241643E-2,2.9678708E-3,-1.358558E-2,-3.7465312E-3,5.9093572E-2,2.629727E-3,-1.5771946E-2,-3.7034277E-3,3.8560446E-2,9.393703E-3,-2.76084E-2,1.6128334E-3,-1.2981436E-2,2.3094893E-3,2.5795165E-2,-2.6927939E-2,-5.331275E-2,-1.2733049E-2,-3.4179162E-2,-1.4869699E-2,1.7425386E-3,-1.8973963E-2,3.4126216E-3,4.8725996E-2,1.744215E-2,-1.4356169E-3,-9.580988E-3,1.2421824E-2],"categories":[],"categories_nodes":[],"categories_segments":[],"categories_sizes":[],"default_left":[0,0,0,0,0,0,0,0,0,0,0,0,0,0,0,0,0,0,0,0,0,0,0,0,0,0,0,0,0,0,0,0,0,0,0,0,0,0,0,0,0,0,0,0,0,0,0,0,0,0,0,0,0,0,0,0,0,0,0,0,0,0,0,0,0,0,0,0,0,0,0,0,0,0,0,0,0,0,0,0,0,0,0,0,0,0,0,0,0,0,0,0,0,0,0,0,0,0,0,0,0,0,0,0,0,0,0,0,0,0,0,0,0,0,0,0,0,0,0,0,0,0,0,0,0],"id":1,"left_children":[1,3,5,7,9,11,13,15,17,19,21,23,25,27,29,31,33,35,37,39,41,43,45,47,49,51,53,55,57,59,61,63,65,67,69,71,73,75,77,79,81,83,-1,85,87,89,91,93,95,97,99,101,103,105,107,109,111,113,115,117,119,121,123,-1,-1,-1,-1,-1,-1,-1,-1,-1,-1,-1,-1,-1,-1,-1,-1,-1,-1,-1,-1,-1,-1,-1,-1,-1,-1,-1,-1,-1,-1,-1,-1,-1,-1,-1,-1,-1,-1,-1,-1,-1,-1,-1,-1,-1,-1,-1,-1,-1,-1,-1,-1,-1,-1,-1,-1,-1,-1,-1,-1,-1,-1],"loss_changes":[2.3081607E2,4.2201843E1,4.7379036E1,2.5019402E1,1.47357025E1,1.8040052E1,2.1284744E1,1.0012947E1,1.7089193E1,6.8387146E0,7.2732086E0,1.3598282E1,1.3216299E1,5.368553E0,1.2362864E1,8.299944E0,9.064934E0,7.5514474E0,5.905347E0,4.807953E0,3.4278188E0,5.929784E0,1.2594208E1,6.9082184E0,1.0155839E1,1.4524697E1,1.2388442E1,5.969822E0,7.3323517E0,1.0798109E1,2.1160542E1,5.451906E0,8.942688E0,5.7038603E0,8.595993E0,5.534939E0,1.0185373E1,6.107397E0,6.7262993E0,3.3104248E0,6.157051E0,2.4286737E0,0E0,4.296606E0,1.4144912E0,6.9710464E0,8.472473E0,5.5203056E0,5.7751083E0,6.8398757E0,7.63686E0,1.2925363E1,6.8134365E0,1.2411507E1,8.836122E0,6.405037E0,8.410438E0,7.4139557E0,8.4719925E0,7.5411606E0,4.581173E0,1.6112892E1,1.2225254E1,0E0,0E0,0E0,0E0,0E0,0E0,0E0,0E0,0E0,0E0,0E0,0E0,0E0,0E0,0E0,0E0,0E0,0E0,0E0,0E0,0E0,0E0,0E0,0E0,0E0,0E0,0E0,0E0,0E0,0E0,0E0,0E0,0E0,0E0,0E0,0E0,0E0,0E0,0E0,0E0,0E0,0E0,0E0,0E0,0E0,0E0,0E0,0E0,0E0,0E0,0E0,0E0,0E0,0E0,0E0,0E0,0E0,0E0,0E0,0E0,0E0,0E0],"parents":[2147483647,0,0,1,1,2,2,3,3,4,4,5,5,6,6,7,7,8,8,9,9,10,10,11,11,12,12,13,13,14,14,15,15,16,16,17,17,18,18,19,19,20,20,21,21,22,22,23,23,24,24,25,25,26,26,27,27,28,28,29,29,30,30,31,31,32,32,33,33,34,34,35,35,36,36,37,37,38,38,39,39,40,40,41,41,43,43,44,44,45,45,46,46,47,47,48,48,49,49,50,50,51,51,52,52,53,53,54,54,55,55,56,56,57,57,58,58,59,59,60,60,61,61,62,62],"right_children":[2,4,6,8,10,12,14,16,18,20,22,24,26,28,30,32,34,36,38,40,42,44,46,48,50,52,54,56,58,60,62,64,66,68,70,72,74,76,78,80,82,84,-1,86,88,90,92,94,96,98,100,102,104,106,108,110,112,114,116,118,120,122,124,-1,-1,-1,-1,-1,-1,-1,-1,-1,-1,-1,-1,-1,-1,-1,-1,-1,-1,-1,-1,-1,-1,-1,-1,-1,-1,-1,-1,-1,-1,-1,-1,-1,-1,-1,-1,-1,-1,-1,-1,-1,-1,-1,-1,-1,-1,-1,-1,-1,-1,-1,-1,-1,-1,-1,-1,-1,-1,-1,-1,-1,-1],"split_conditions":[4.5389874E1,5.826352E-1,6.031149E1,3.691152E1,8.1900166E3,5.3191786E0,1.5855366E0,-3.2693737E0,-1.9530962E0,1.8677571E2,2.351307E1,-8.7410176E-1,3.5103533E0,-1.7258883E1,4.3532093E1,-5.6946087E1,-4.6391922E1,7.82038E1,5.0582134E1,6.781076E0,2.1908786E2,8.871143E1,3.637209E1,-3.178761E1,5.1597572E1,5.251688E1,3.8370656E4,-1.9006052E1,7.104602E1,6.4770176E4,7.104602E1,1.3381877E1,2.0646545E1,5.9522784E2,3.290859E0,-7.173207E1,-1.3323077E0,1.5440282E2,5.335698E1,7.1347855E1,2.7376905E1,-6.558656E1,2.5841687E-2,1.4178395E1,5.650043E2,8.500038E3,5.795262E2,9.1532555E1,-2.9101997E1,-7.4833643E-1,6.6532984E0,1.6366428E1,2.7376905E1,4.963316E1,-4.2824886E1,1.3096515E0,1.1037238E0,-8.515455E1,7.393499E1,-3.729092E1,2.6746246E1,1.44765E2,1.6923634E2,-5.4945417E-2,-8.136422E-3,1.3407144E-2,2.5073273E-4,-3.3344105E-3,3.0805621E-2,1.4464202E-2,2.511443E-4,6.487479E-2,-3.213168E-3,-5.5771858E-2,-4.296824E-3,8.173673E-3,5.801142E-2,-6.617256E-2,-1.8063423E-3,4.8635058E-2,-1.8236878E-3,1.4088853E-2,3.0755296E-2,9.229766E-3,-6.4266905E-2,-1.0313499E-2,2.6249805E-2,-3.9878603E-2,9.627596E-3,-2.4699856E-2,2.4063878E-2,8.251934E-3,2.3238981E-2,3.3871655E-3,-4.536188E-2,-5.303326E-2,-1.4647777E-2,-1.3241643E-2,2.9678708E-3,-1.358558E-2,-3.7465312E-3,5.9093572E-2,2.629727E-3,-1.5771946E-2,-3.7034277E-3,3.8560446E-2,9.393703E-3,-2.76084E-2,1.6128334E-3,-1.2981436E-2,2.3094893E-3,2.5795165E-2,-2.6927939E-2,-5.331275E-2,-1.2733049E-2,-3.4179162E-2,-1.4869699E-2,1.7425386E-3,-1.8973963E-2,3.4126216E-3,4.8725996E-2,1.744215E-2,-1.4356169E-3,-9.580988E-3,1.2421824E-2],"split_indices":[0,1,0,0,5,1,3,3,2,6,0,2,2,7,1,7,7,7,7,1,6,7,0,2,0,0,11,7,0,5,0,0,0,6,2,7,3,2,7,6,1,2,0,7,6,5,1,7,2,3,2,6,1,0,7,3,3,2,0,7,7,6,7,0,0,0,0,0,0,0,0,0,0,0,0,0,0,0,0,0,0,0,0,0,0,0,0,0,0,0,0,0,0,0,0,0,0,0,0,0,0,0,0,0,0,0,0,0,0,0,0,0,0,0,0,0,0,0,0,0,0,0,0,0,0],"split_type":[0,0,0,0,0,0,0,0,0,0,0,0,0,0,0,0,0,0,0,0,0,0,0,0,0,0,0,0,0,0,0,0,0,0,0,0,0,0,0,0,0,0,0,0,0,0,0,0,0,0,0,0,0,0,0,0,0,0,0,0,0,0,0,0,0,0,0,0,0,0,0,0,0,0,0,0,0,0,0,0,0,0,0,0,0,0,0,0,0,0,0,0,0,0,0,0,0,0,0,0,0,0,0,0,0,0,0,0,0,0,0,0,0,0,0,0,0,0,0,0,0,0,0,0,0],"sum_hessian":[1.322397E4,4.7641997E3,8.4597705E3,3.427826E3,1.336374E3,4.8797007E3,3.5800693E3,1.969392E3,1.458434E3,2.8880417E2,1.0475698E3,2.1978613E3,2.6818394E3,1.7463812E3,1.8336881E3,5.7363495E2,1.395757E3,7.980641E2,6.603698E2,2.8280862E2,5.9955435E0,4.3221252E1,1.0043486E3,4.5957672E2,1.7382847E3,1.9884004E3,6.934391E2,5.423624E2,1.2040188E3,3.7762997E2,1.4560581E3,3.247951E1,5.4115546E2,1.4289682E2,1.2528601E3,7.588357E2,3.922844E1,5.646784E2,9.569145E1,3.8224903E1,2.4458371E2,4.246671E0,1.7488719E0,3.0979544E1,1.2241708E1,3.0254486E2,7.018037E2,8.6470024E1,3.7310672E2,7.2893787E2,1.00934674E3,9.780456E2,1.0103548E3,4.2580035E2,2.676387E2,5.0761862E2,3.474381E1,9.670656E2,2.3695312E2,3.516371E2,2.599289E1,5.190636E2,9.3699457E2,7.495808E0,2.4983704E1,2.1134772E2,3.298077E2,1.3040645E2,1.2490373E1,1.1354542E3,1.1740595E2,1.9984697E0,7.568372E2,1.5242885E1,2.3985554E1,5.594316E2,5.2467775E0,3.2487845E0,9.2442665E1,3.4726967E1,3.497939E0,9.068678E1,1.5389693E2,1.2484888E0,2.9981825E0,1.7988022E1,1.2991523E1,1.0992611E1,1.2490976E0,6.7457857E0,2.9579907E2,5.898766E2,1.11927124E2,8.1221436E1,5.2485914E0,9.246176E0,3.6386053E2,7.1223595E1,6.5771423E2,2.684005E2,7.409462E2,9.245793E0,9.687998E2,1.3419954E2,8.761553E2,3.9478577E1,3.8632178E2,2.7990091E1,2.3964862E2,4.2639328E2,8.122534E1,2.4996283E1,9.747526E0,1.049828E1,9.565673E2,9.948114E1,1.3747198E2,5.1235916E1,3.0040115E2,1.899456E1,6.9983306E0,1.6493898E2,3.541246E2,8.697758E2,6.7218735E1],"tree_param":{"num_deleted":"0","num_feature":"13","num_nodes":"125","size_leaf_vector":"1"}},{"base_weights":[1.3016002E-3,1.3031311E-1,-1.2197462E-1,8.475684E-2,2.2033706E-1,-6.4383715E-2,-1.7401764E-1,1.7808862E-1,7.7640866E-3,3.0947244E-1,1.0297923E-1,-8.471384E-2,1.411752E-1,-2.544259E-1,-1.00053966E-1,4.949825E-2,2.3678525E-1,-9.7259365E-2,8.523238E-2,3.8053975E-1,1.5268551E-1,7.351564E-2,4.208438E-1,-2.6189458E-1,-6.669793E-2,6.0496014E-1,8.528653E-2,-2.816799E-1,-6.924947E-2,-2.801384E-1,-5.190601E-2,2.1456099E-1,-9.10462E-2,5.9764516E-1,2.131406E-1,6.513258E-1,-1.1475166E-1,6.1800766E-1,7.4052125E-2,5.419623E-1,3.2055715E-1,-1.0275884E-2,4.0133905E-1,6.289166E-2,6.137403E-1,8.799091E-1,1.9411767E-1,-2.1790306E-1,-7.661083E-1,-1.2643248E-1,2.4721429E-2,5.8626823E-2,1.0662079E0,-8.835452E-1,1.0486263E-1,-1.7647167E-1,-3.3680108E-1,-9.812395E-2,1.1905975E0,-3.2989383E-1,3.8946772E-1,9.751952E-2,-1.3642529E-1,2.9694801E-2,6.693353E-3,-3.1091018E-2,-2.8548292E-3,5.540538E-2,2.4000434E-2,1.10841505E-2,-4.096557E-2,5.0101977E-2,-4.8529482E-3,-4.7598328E-3,-3.33829E-2,-4.048088E-2,3.878689E-2,9.06678E-3,1.2319159E-3,2.8072221E-2,-2.2087464E-2,-2.1605708E-3,1.7450633E-2,2.3695999E-3,-3.2017015E-2,3.328713E-2,1.0219264E-2,-4.580759E-2,3.4024676E-3,5.5063684E-2,1.1504673E-2,-1.6731933E-3,5.4950118E-2,-8.489735E-3,3.4068488E-2,-3.945592E-2,-8.570722E-3,-1.0370039E-2,-5.357209E-2,3.3928312E-3,-7.518342E-3,-3.1874639E-3,1.11530125E-2,-3.177537E-2,1.8095799E-2,8.367715E-3,6.67529E-2,1.00160325E-2,-6.361249E-2,5.8440138E-2,4.433115E-3,-1.6543156E-2,-2.515162E-4,-1.5061689E-2,-2.57265E-2,-4.9362265E-2,-2.7884913E-3,1.994851E-2,7.079408E-2,-2.3605714E-2,-6.0038483E-3,-2.1580873E-2,3.3215266E-2,1.1211422E-2,-1.2991516E-3,-9.76831E-3,4.383721E-3],"categories":[],"categories_nodes":[],"categories_segments":[],"categories_sizes":[],"default_left":[0,0,0,0,0,0,0,0,0,0,0,0,0,0,0,0,0,0,0,0,0,0,0,0,0,0,0,0,0,0,0,0,0,0,0,0,0,0,0,0,0,0,0,0,0,0,0,0,0,0,0,0,0,0,0,0,0,0,0,0,0,0,0,0,0,0,0,0,0,0,0,0,0,0,0,0,0,0,0,0,0,0,0,0,0,0,0,0,0,0,0,0,0,0,0,0,0,0,0,0,0,0,0,0,0,0,0,0,0,0,0,0,0,0,0,0,0,0,0,0,0,0,0,0,0,0,0],"id":2,"left_children":[1,3,5,7,9,11,13,15,17,19,21,23,25,27,29,31,33,35,37,39,41,43,45,47,49,51,53,55,57,59,61,63,65,67,69,71,73,75,77,79,81,83,85,87,89,91,93,95,97,99,101,103,105,107,109,111,113,115,117,119,121,123,125,-1,-1,-1,-1,-1,-1,-1,-1,-1,-1,-1,-1,-1,-1,-1,-1,-1,-1,-1,-1,-1,-1,-1,-1,-1,-1,-1,-1,-1,-1,-1,-1,-1,-1,-1,-1,-1,-1,-1,-1,-1,-1,-1,-1,-1,-1,-1,-1,-1,-1,-1,-1,-1,-1,-1,-1,-1,-1,-1,-1,-1,-1,-1,-1],"loss_changes":[2.1047435E2,2.6501755E1,2.0272179E1,3.0864573E1,2.2691002E1,1.34437065E1,2.111335E1,1.4643234E1,1.9166536E1,1.3692184E1,8.764689E0,9.320726E0,7.4560575E0,8.571854E0,1.6052435E1,1.4165493E1,1.1244926E1,1.3170093E1,8.029465E0,8.041733E0,1.5668188E1,4.9012613E0,8.099194E0,5.8145294E0,1.4511455E1,7.745758E0,5.0173054E0,8.544312E0,8.110011E0,1.3144787E1,1.8494246E1,8.513497E0,5.911862E0,4.3565025E0,1.1227592E1,6.1300774E0,1.0511555E1,6.8718567E0,7.04072E0,4.625641E0,6.443802E0,8.55069E0,7.835081E0,4.330351E0,2.8301234E0,5.236868E0,9.7743E0,6.4881535E0,3.4015245E0,7.4830666E0,1.8452185E1,3.438962E0,3.8226395E0,2.4661927E0,4.298645E0,1.3554875E1,5.992157E0,8.068892E0,3.26684E-1,1.0811283E1,6.488186E0,8.288066E0,1.2368256E1,0E0,0E0,0E0,0E0,0E0,0E0,0E0,0E0,0E0,0E0,0E0,0E0,0E0,0E0,0E0,0E0,0E0,0E0,0E0,0E0,0E0,0E0,0E0,0E0,0E0,0E0,0E0,0E0,0E0,0E0,0E0,0E0,0E0,0E0,0E0,0E0,0E0,0E0,0E0,0E0,0E0,0E0,0E0,0E0,0E0,0E0,0E0,0E0,0E0,0E0,0E0,0E0,0E0,0E0,0E0,0E0,0E0,0E0,0E0,0E0,0E0,0E0,0E0,0E0],"parents":[2147483647,0,0,1,1,2,2,3,3,4,4,5,5,6,6,7,7,8,8,9,9,10,10,11,11,12,12,13,13,14,14,15,15,16,16,17,17,18,18,19,19,20,20,21,21,22,22,23,23,24,24,25,25,26,26,27,27,28,28,29,29,30,30,31,31,32,32,33,33,34,34,35,35,36,36,37,37,38,38,39,39,40,40,41,41,42,42,43,43,44,44,45,45,46,46,47,47,48,48,49,49,50,50,51,51,52,52,53,53,54,54,55,55,56,56,57,57,58,58,59,59,60,60,61,61,62,62],"right_children":[2,4,6,8,10,12,14,16,18,20,22,24,26,28,30,32,34,36,38,40,42,44,46,48,50,52,54,56,58,60,62,64,66,68,70,72,74,76,78,80,82,84,86,88,90,92,94,96,98,100,102,104,106,108,110,112,114,116,118,120,122,124,126,-1,-1,-1,-1,-1,-1,-1,-1,-1,-1,-1,-1,-1,-1,-1,-1,-1,-1,-1,-1,-1,-1,-1,-1,-1,-1,-1,-1,-1,-1,-1,-1,-1,-1,-1,-1,-1,-1,-1,-1,-1,-1,-1,-1,-1,-1,-1,-1,-1,-1,-1,-1,-1,-1,-1,-1,-1,-1,-1,-1,-1,-1,-1,-1],"split_conditions":[5.0541935E1,5.826352E-1,6.031149E1,3.663063E1,4.4741116E1,6.765023E2,1.5494018E0,-3.1513255E0,-3.1847317E0,1.2257502E0,5.0089474E1,-1.9382946E1,3.2224113E4,1.6805451E0,4.3532093E1,2.2112078E1,1.7767902E1,-5.959083E1,-1.8509211E3,9.240495E3,-1.8759789E1,1.5494018E0,5.9885937E1,8.676862E-1,3.679185E1,2.0897346E4,-1.5530484E0,-1.7258883E1,1.1983673E3,6.4770176E4,7.104602E1,-7.5215106E0,-5.376007E1,8.20544E3,3.9172263E0,-4.3327504E-1,4.963316E1,3.7988316E1,4.2576794E1,2.595177E2,-5.1247463E1,-3.1233418E-1,3.637209E1,-2.4435144E2,6.6002953E-1,-3.363039E-1,2.7497083E2,1.0379421E4,2.1251086E4,-3.9749214E1,9.120267E-1,5.297927E1,-5.6701477E1,-2.4688241E0,-1.2973851E0,7.457847E-1,7.066298E1,-1.7542812E1,-3.178761E1,1.1531512E0,5.028954E-1,2.0116406E4,1.9685036E0,2.9694801E-2,6.693353E-3,-3.1091018E-2,-2.8548292E-3,5.540538E-2,2.4000434E-2,1.10841505E-2,-4.096557E-2,5.0101977E-2,-4.8529482E-3,-4.7598328E-3,-3.33829E-2,-4.048088E-2,3.878689E-2,9.06678E-3,1.2319159E-3,2.8072221E-2,-2.2087464E-2,-2.1605708E-3,1.7450633E-2,2.3695999E-3,-3.2017015E-2,3.328713E-2,1.0219264E-2,-4.580759E-2,3.4024676E-3,5.5063684E-2,1.1504673E-2,-1.6731933E-3,5.4950118E-2,-8.489735E-3,3.4068488E-2,-3.945592E-2,-8.570722E-3,-1.0370039E-2,-5.357209E-2,3.3928312E-3,-7.518342E-3,-3.1874639E-3,1.11530125E-2,-3.177537E-2,1.8095799E-2,8.367715E-3,6.67529E-2,1.00160325E-2,-6.361249E-2,5.8440138E-2,4.433115E-3,-1.6543156E-2,-2.515162E-4,-1.5061689E-2,-2.57265E-2,-4.9362265E-2,-2.7884913E-3,1.994851E-2,7.079408E-2,-2.3605714E-2,-6.0038483E-3,-2.1580873E-2,3.3215266E-2,1.1211422E-2,-1.2991516E-3,-9.76831E-3,4.383721E-3],"split_indices":[0,1,0,0,0,1,3,3,2,4,0,2,5,4,1,0,0,7,1,11,2,3,1,3,1,9,3,7,1,5,0,3,7,9,4,3,0,0,0,1,7,3,0,2,4,3,1,5,11,7,4,0,2,3,3,4,0,2,2,4,4,9,4,0,0,0,0,0,0,0,0,0,0,0,0,0,0,0,0,0,0,0,0,0,0,0,0,0,0,0,0,0,0,0,0,0,0,0,0,0,0,0,0,0,0,0,0,0,0,0,0,0,0,0,0,0,0,0,0,0,0,0,0,0,0,0,0],"split_type":[0,0,0,0,0,0,0,0,0,0,0,0,0,0,0,0,0,0,0,0,0,0,0,0,0,0,0,0,0,0,0,0,0,0,0,0,0,0,0,0,0,0,0,0,0,0,0,0,0,0,0,0,0,0,0,0,0,0,0,0,0,0,0,0,0,0,0,0,0,0,0,0,0,0,0,0,0,0,0,0,0,0,0,0,0,0,0,0,0,0,0,0,0,0,0,0,0,0,0,0,0,0,0,0,0,0,0,0,0,0,0,0,0,0,0,0,0,0,0,0,0,0,0,0,0,0,0],"sum_hessian":[1.3232009E4,6.4655737E3,6.766435E3,4.294367E3,2.1712068E3,3.2130762E3,3.5533591E3,1.9406132E3,2.353754E3,1.2330479E3,9.3815906E2,2.9244329E3,2.8864346E2,1.7013389E3,1.8520201E3,6.087751E2,1.331838E3,9.990671E2,1.3546868E3,8.4748065E2,3.855672E2,8.597026E2,7.84565E1,2.6866464E2,2.655768E3,2.9985798E1,2.5865765E2,1.4826096E3,2.1872925E2,3.896861E2,1.4623341E3,2.797249E2,3.2905017E2,8.0406944E1,1.2514312E3,2.1984907E1,9.7708215E2,2.6728115E1,1.3279586E3,2.2742061E2,6.2006E2,2.3349744E2,1.5206978E2,8.4421674E2,1.5485823E1,2.4985664E1,5.347083E1,2.4842249E2,2.0242147E1,1.6060029E3,1.0497653E3,1.4242781E1,1.5743017E1,4.2487926E0,2.5440887E2,5.1116522E2,9.714444E2,2.1472997E2,3.9992895E0,3.6320526E2,2.6480818E1,5.2825464E2,9.3407947E2,4.7951103E1,2.317738E2,1.8740591E1,3.1030957E2,1.3482461E1,6.6924484E1,1.2419407E3,9.490405E0,1.4738912E1,7.245995E0,9.4483765E2,3.224454E1,2.2480404E0,2.4480074E1,4.1792416E2,9.100345E2,2.23425E2,3.9956012E0,4.494718E1,5.7511285E2,2.147654E2,1.873204E1,6.39026E1,8.816718E1,3.4984853E0,8.4071826E2,5.995844E0,9.489979E0,4.997783E0,1.9987883E1,3.0982533E1,2.2488298E1,1.7494127E1,2.3092836E2,7.746554E0,1.2495594E1,1.759423E2,1.4300605E3,7.264187E2,3.233466E2,3.9977632E0,1.0245018E1,3.9982033E0,1.1744814E1,1.249454E0,2.9993386E0,2.748629E0,2.5166023E2,2.6846725E2,2.4269798E2,8.1170074E2,1.5974365E2,8.749355E0,2.059806E2,1.499866E0,2.4994235E0,2.1572798E2,1.4747728E2,6.4978523E0,1.9982965E1,2.6034003E2,2.6791458E2,7.396665E2,1.9441293E2],"tree_param":{"num_deleted":"0","num_feature":"13","num_nodes":"127","size_leaf_vector":"1"}},{"base_weights":[-7.405185E-4,1.1527379E-1,-1.680437E-1,1.8764482E-1,2.1666588E-2,-1.3168536E-1,-2.3001571E-1,1.4753363E-1,2.6054955E-1,1.0021227E-1,-6.9095135E-2,-1.9550131E-1,-8.072476E-2,-2.7020276E-1,-3.339226E-2,2.2348264E-1,9.6593276E-2,2.7106836E-1,-3.482282E-1,1.4455396E-1,-3.280709E-2,-7.913583E-2,4.8595336E-1,-3.498195E-1,-1.5074213E-1,-1.6254467E-1,5.4888602E-2,-4.1646203E-1,-2.1922728E-1,1.4226246E-1,-1.4606197E-1,2.4792722E-1,-3.4181026E-1,6.157921E-1,8.4003046E-2,2.0124687E-1,3.5150078E-1,-7.4853E-2,-1.5610625E-1,9.191706E-2,2.40337E-1,-8.178226E-1,-9.849288E-3,-3.6048263E-2,-1.9255571E-1,6.6524845E-1,-7.6715964E-1,-2.2615874E-1,-5.157696E-1,-3.9052594E-2,-2.1457392E-1,-1.9734228E-1,1.6575974E-1,4.0880563E-3,4.8475346E-1,-5.3997064E-1,-2.8354138E-1,-1.34744E-1,-3.2019544E-1,4.402466E-3,8.8214445E-1,-4.488673E-1,1.7314363E-2,-1.6455838E-2,1.3092487E-2,-6.5227844E-2,-1.0572519E-2,3.3951547E-2,-1.9810569E-2,4.5859716E-3,-1.5809508E-2,1.33370655E-2,3.5225104E-3,3.2963242E-2,1.4276986E-2,1.8744583E-3,-5.3762496E-2,-4.302418E-2,4.955496E-3,2.2542525E-2,8.778831E-3,5.9902207E-3,-5.1261764E-2,-7.466675E-3,3.5019617E-3,-4.20594E-3,5.280321E-3,-1.2599814E-2,-5.9822487E-4,4.2443123E-2,-5.2489275E-3,-5.624173E-2,-9.7749485E-3,-1.5012654E-2,3.4680038E-3,-2.1106033E-2,-6.0827542E-2,-3.056404E-3,3.0451858E-2,-1.1848732E-2,1.582486E-2,-4.933615E-3,-1.5856802E-2,4.9444563E-3,5.0646063E-2,3.8569276E-3,-1.0372757E-2,-3.6918658E-3,3.2536425E-2,-4.0733736E-2,-2.234071E-2,1.9482613E-2,-1.876529E-2,-3.7221503E-3,-1.6438162E-2,-2.3013165E-2,-9.261338E-3,8.503265E-3,-1.7903954E-2,5.7201006E-2,-6.076027E-3,3.4165797E-3,-3.08141E-2,-2.2477403E-2,5.07546E-3],"categories":[],"categories_nodes":[],"categories_segments":[],"categories_sizes":[],"default_left":[0,0,0,0,0,0,0,0,0,0,0,0,0,0,0,0,0,0,0,0,0,0,0,0,0,0,0,0,0,0,0,0,0,0,0,0,0,0,0,0,0,0,0,0,0,0,0,0,0,0,0,0,0,0,0,0,0,0,0,0,0,0,0,0,0,0,0,0,0,0,0,0,0,0,0,0,0,0,0,0,0,0,0,0,0,0,0,0,0,0,0,0,0,0,0,0,0,0,0,0,0,0,0,0,0,0,0,0,0,0,0,0,0,0,0,0,0,0,0,0,0,0,0,0,0],"id":3,"left_children":[1,3,5,7,9,11,13,15,17,19,21,23,25,27,29,31,33,35,37,39,41,43,45,47,49,51,53,55,57,59,61,63,65,67,69,71,73,-1,75,77,79,81,83,85,87,89,91,93,95,97,99,101,103,105,107,109,111,113,115,117,119,121,123,-1,-1,-1,-1,-1,-1,-1,-1,-1,-1,-1,-1,-1,-1,-1,-1,-1,-1,-1,-1,-1,-1,-1,-1,-1,-1,-1,-1,-1,-1,-1,-1,-1,-1,-1,-1,-1,-1,-1,-1,-1,-1,-1,-1,-1,-1,-1,-1,-1,-1,-1,-1,-1,-1,-1,-1,-1,-1,-1,-1,-1,-1],"loss_changes":[2.5680078E2,5.2923965E1,1.2176956E1,1.28463745E1,2.4300667E1,1.10961E1,1.5809517E1,1.0983887E1,1.0100037E1,1.0782297E1,8.852451E0,1.0421047E1,2.1107384E1,1.2300285E1,6.76688E0,1.5854626E1,1.1089636E1,8.558243E0,5.7205224E0,6.888056E0,8.239587E0,7.5888624E0,6.8555093E0,6.8642044E0,8.384243E0,1.3584116E1,1.5639435E1,6.8806E0,1.0488121E1,1.3634434E1,1.0305645E1,8.879303E0,5.713706E0,2.8413773E0,5.1712255E0,7.0472946E0,1.4279228E1,0E0,4.351532E0,6.1557255E0,6.539076E0,2.6492891E0,4.9763756E0,7.6872835E0,4.5878572E0,3.658928E0,5.9784675E-1,4.3278904E0,8.967602E0,6.179642E0,8.983738E0,1.2651371E1,6.3705416E0,9.93049E0,7.065653E0,5.290962E0,1.3024212E1,7.859829E0,1.05335655E1,6.889345E0,5.657406E0,6.3618813E0,5.398166E0,0E0,0E0,0E0,0E0,0E0,0E0,0E0,0E0,0E0,0E0,0E0,0E0,0E0,0E0,0E0,0E0,0E0,0E0,0E0,0E0,0E0,0E0,0E0,0E0,0E0,0E0,0E0,0E0,0E0,0E0,0E0,0E0,0E0,0E0,0E0,0E0,0E0,0E0,0E0,0E0,0E0,0E0,0E0,0E0,0E0,0E0,0E0,0E0,0E0,0E0,0E0,0E0,0E0,0E0,0E0,0E0,0E0,0E0,0E0,0E0,0E0,0E0],"parents":[2147483647,0,0,1,1,2,2,3,3,4,4,5,5,6,6,7,7,8,8,9,9,10,10,11,11,12,12,13,13,14,14,15,15,16,16,17,17,18,18,19,19,20,20,21,21,22,22,23,23,24,24,25,25,26,26,27,27,28,28,29,29,30,30,31,31,32,32,33,33,34,34,35,35,36,36,38,38,39,39,40,40,41,41,42,42,43,43,44,44,45,45,46,46,47,47,48,48,49,49,50,50,51,51,52,52,53,53,54,54,55,55,56,56,57,57,58,58,59,59,60,60,61,61,62,62],"right_children":[2,4,6,8,10,12,14,16,18,20,22,24,26,28,30,32,34,36,38,40,42,44,46,48,50,52,54,56,58,60,62,64,66,68,70,72,74,-1,76,78,80,82,84,86,88,90,92,94,96,98,100,102,104,106,108,110,112,114,116,118,120,122,124,-1,-1,-1,-1,-1,-1,-1,-1,-1,-1,-1,-1,-1,-1,-1,-1,-1,-1,-1,-1,-1,-1,-1,-1,-1,-1,-1,-1,-1,-1,-1,-1,-1,-1,-1,-1,-1,-1,-1,-1,-1,-1,-1,-1,-1,-1,-1,-1,-1,-1,-1,-1,-1,-1,-1,-1,-1,-1,-1,-1,-1,-1],"split_conditions":[1.9628112E-1,-3.1111014E-1,6.6111626E1,-7.628434E0,5.0851574E1,-3.37182E1,1.9685036E0,8.6851776E-1,9.592121E4,4.0576402E4,4.2248955E0,9.259317E3,9.120267E-1,5.327756E1,1.6671555E4,5.4791283E1,-9.011645E0,-5.8698516E0,4.103592E-1,-3.274488E0,4.1709383E4,6.031149E1,5.69046E4,7.2252817E3,4.963316E1,3.9688908E1,1.9258541E0,2.70432E1,2.762567E4,1.0386011E4,1.4571322E0,-6.629972E0,2.3532576E2,4.582968E0,4.5304862E-1,4.3042095E1,-4.4708204E-1,-7.4853E-2,5.5714844E1,2.337919E-1,6.5995137E3,4.026693E4,-1.4305075E-1,4.2529926E4,1.8775678E0,1.2958091E-1,8.81963E4,1.0535849E0,6.131653E1,1.1112071E2,4.046275E0,5.8070778E1,9.7532125E4,3.9037996E4,1.054077E1,-9.904751E0,7.9249155E3,8.012672E1,1.014902E2,2.1096245E1,8.6257034E1,6.991305E1,4.925394E1,-1.6455838E-2,1.3092487E-2,-6.5227844E-2,-1.0572519E-2,3.3951547E-2,-1.9810569E-2,4.5859716E-3,-1.5809508E-2,1.33370655E-2,3.5225104E-3,3.2963242E-2,1.4276986E-2,1.8744583E-3,-5.3762496E-2,-4.302418E-2,4.955496E-3,2.2542525E-2,8.778831E-3,5.9902207E-3,-5.1261764E-2,-7.466675E-3,3.5019617E-3,-4.20594E-3,5.280321E-3,-1.2599814E-2,-5.9822487E-4,4.2443123E-2,-5.2489275E-3,-5.624173E-2,-9.7749485E-3,-1.5012654E-2,3.4680038E-3,-2.1106033E-2,-6.0827542E-2,-3.056404E-3,3.0451858E-2,-1.1848732E-2,1.582486E-2,-4.933615E-3,-1.5856802E-2,4.9444563E-3,5.0646063E-2,3.8569276E-3,-1.0372757E-2,-3.6918658E-3,3.2536425E-2,-4.0733736E-2,-2.234071E-2,1.9482613E-2,-1.876529E-2,-3.7221503E-3,-1.6438162E-2,-2.3013165E-2,-9.261338E-3,8.503265E-3,-1.7903954E-2,5.7201006E-2,-6.076027E-3,3.4165797E-3,-3.08141E-2,-2.2477403E-2,5.07546E-3],"split_indices":[12,12,0,2,0,1,4,4,11,11,3,9,4,1,10,0,3,1,4,1,9,0,8,10,0,2,3,2,11,8,12,3,1,4,3,0,3,0,0,4,8,9,12,10,3,12,8,4,0,2,3,0,9,10,2,1,8,0,2,2,0,0,1,0,0,0,0,0,0,0,0,0,0,0,0,0,0,0,0,0,0,0,0,0,0,0,0,0,0,0,0,0,0,0,0,0,0,0,0,0,0,0,0,0,0,0,0,0,0,0,0,0,0,0,0,0,0,0,0,0,0,0,0,0,0],"split_type":[0,0,0,0,0,0,0,0,0,0,0,0,0,0,0,0,0,0,0,0,0,0,0,0,0,0,0,0,0,0,0,0,0,0,0,0,0,0,0,0,0,0,0,0,0,0,0,0,0,0,0,0,0,0,0,0,0,0,0,0,0,0,0,0,0,0,0,0,0,0,0,0,0,0,0,0,0,0,0,0,0,0,0,0,0,0,0,0,0,0,0,0,0,0,0,0,0,0,0,0,0,0,0,0,0,0,0,0,0,0,0,0,0,0,0,0,0,0,0,0,0,0,0,0,0],"sum_hessian":[1.3228634E4,7.8118887E3,5.4167456E3,4.4051255E3,3.4067627E3,3.4158354E3,2.0009103E3,2.8436252E3,1.5615004E3,1.8262297E3,1.5805331E3,1.5153663E3,1.9004692E3,1.6610425E3,3.398677E2,1.1402273E3,1.7033981E3,1.5355236E3,2.5976875E1,1.3695925E3,4.5663715E2,1.5532919E3,2.7241245E1,3.3917212E2,1.1761942E3,1.1852008E3,7.152684E2,4.2744458E2,1.2335979E3,1.3270883E2,2.0715886E2,1.093503E3,4.6724194E1,3.9194054E1,1.664204E3,8.238559E2,7.116676E2,2.7486324E0,2.3228243E1,8.8513336E2,4.844592E2,1.1991139E1,4.44646E2,1.126615E3,4.266768E2,2.4241852E1,2.9993944E0,1.9570314E2,1.4346898E2,4.2833237E2,7.478618E2,1.0719786E3,1.13222176E2,6.40576E2,7.469244E1,2.1997945E2,2.0746513E2,6.728976E2,5.607004E2,1.12713264E2,1.9995575E1,7.198774E1,1.3517111E2,2.5228357E1,1.0682747E3,4.497973E0,4.2226223E1,3.719858E1,1.9954716E0,1.6334786E3,3.0725355E1,5.482758E2,2.7558008E2,1.2401911E2,5.876485E2,1.99793E1,3.248944E0,5.745507E0,8.793878E2,1.1257035E2,3.7188885E2,2.2485888E0,9.742551E0,1.6160928E2,2.830367E2,8.414687E2,2.8514636E2,3.2071866E2,1.0595812E2,1.9492863E1,4.748988E0,1.2497767E0,1.7496177E0,1.5645879E2,3.9244354E1,1.2797005E2,1.5498935E1,4.1509882E2,1.3233574E1,7.1812494E2,2.9736912E1,5.888155E2,4.8316315E2,1.0597386E2,7.248308E0,4.7662296E2,1.63953E2,1.7236826E1,5.7455612E1,5.3745876E1,1.6623357E2,2.4498102E1,1.8296703E2,5.144047E2,1.5849284E2,2.7396973E2,2.8673065E2,7.772287E1,3.49904E1,1.5747026E1,4.248548E0,1.7748535E1,5.42392E1,1.9989492E1,1.15181625E2],"tree_param":{"num_deleted":"0","num_feature":"13","num_nodes":"125","size_leaf_vector":"1"}},{"base_weights":[-4.656225E-3,9.643978E-2,-1.4929767E-1,1.6679822E-1,1.0112533E-2,-8.2826555E-2,-1.8031557E-1,3.0315247E-1,1.5008077E-1,8.2215965E-2,-7.079341E-2,-1.001927E-1,3.2579675E-1,-2.2386004E-1,-1.0579066E-1,4.063885E-1,1.6687459E-1,1.7953229E-1,7.892715E-2,1.376503E-1,-3.761208E-2,4.8768364E-2,-1.15461804E-1,-4.7678158E-1,-9.0216964E-2,2.0195465E-1,8.1696324E-2,-1.5015921E-1,-3.1715348E-1,1.1534093E-2,-1.7603204E-1,1.5280795E-1,5.897348E-1,-7.0463467E-1,1.9236493E-1,1.5415998E-1,3.5439944E-1,2.8358728E-1,1.8421505E-2,-2.4888793E-1,1.5438999E-1,-1.7077678E-1,5.052196E-2,-9.793736E-3,5.695749E-1,-6.888368E-2,-2.3276219E-1,-6.783209E-1,1.1267886E-1,5.2656267E-2,-1.2752157E-1,4.534324E-2,1.0744689E0,-1.0039995E0,-1.4216311E-1,-1.1432917E0,-3.0673897E-1,-6.3494585E-2,3.9598376E-1,-4.021409E-1,-9.97102E-2,1.0711675E-3,2.7782077E-2,4.1291848E-2,2.179355E-2,7.8117377E-3,-5.4798424E-2,1.2557444E-3,1.7378882E-2,9.799602E-3,3.6034163E-3,8.865455E-3,2.524732E-2,2.0621477E-2,4.6885316E-4,3.118006E-4,4.0219337E-2,-1.8559527E-2,6.2070966E-2,6.915794E-3,2.2887832E-2,1.2510048E-2,-1.4621337E-2,1.0922682E-2,-3.1494163E-3,6.169828E-3,-1.0074993E-2,3.8275268E-2,7.0412145E-3,-4.6475068E-2,-3.0756036E-3,-1.3186333E-2,1.4958416E-2,-4.49155E-2,-7.995159E-3,4.617897E-2,-1.9140396E-2,-2.6492733E-3,9.625415E-3,-6.749313E-3,2.747927E-2,-3.440293E-2,8.957108E-3,7.128518E-2,5.4366877E-3,-1.1254492E-2,-6.491175E-2,-8.974017E-3,4.1856096E-4,1.0595577E-2,-6.563628E-2,-1.933602E-2,-1.0585114E-2,-2.613283E-3,-5.5864513E-2,3.9617155E-2,6.4291665E-3,-1.4639991E-2,-4.1953385E-2,-8.23981E-3,3.7696466E-3],"categories":[],"categories_nodes":[],"categories_segments":[],"categories_sizes":[],"default_left":[0,0,0,0,0,0,0,0,0,0,0,0,0,0,0,0,0,0,0,0,0,0,0,0,0,0,0,0,0,0,0,0,0,0,0,0,0,0,0,0,0,0,0,0,0,0,0,0,0,0,0,0,0,0,0,0,0,0,0,0,0,0,0,0,0,0,0,0,0,0,0,0,0,0,0,0,0,0,0,0,0,0,0,0,0,0,0,0,0,0,0,0,0,0,0,0,0,0,0,0,0,0,0,0,0,0,0,0,0,0,0,0,0,0,0,0,0,0,0,0,0],"id":4,"left_children":[1,3,5,7,9,11,13,15,17,19,21,23,25,27,29,31,33,35,37,39,41,43,45,47,49,51,-1,53,55,57,59,61,63,65,67,69,71,73,75,77,79,81,83,85,87,89,91,93,95,97,99,101,103,105,107,109,111,113,115,117,119,-1,-1,-1,-1,-1,-1,-1,-1,-1,-1,-1,-1,-1,-1,-1,-1,-1,-1,-1,-1,-1,-1,-1,-1,-1,-1,-1,-1,-1,-1,-1,-1,-1,-1,-1,-1,-1,-1,-1,-1,-1,-1,-1,-1,-1,-1,-1,-1,-1,-1,-1,-1,-1,-1,-1,-1,-1,-1,-1,-1],"loss_changes":[1.936514E2,4.7344055E1,1.1218201E1,9.744171E0,2.0431295E1,1.23467245E1,1.2028572E1,6.517124E0,8.006905E0,1.2306277E1,8.820337E0,6.2132034E0,1.1168509E1,1.6064568E1,1.1305521E1,1.2259121E1,4.654947E0,1.195269E1,1.3892232E1,8.232323E0,6.8921638E0,1.3718666E1,6.5506096E0,5.154189E0,8.660141E0,8.967199E0,0E0,8.80813E0,8.539619E0,1.48683605E1,1.4766752E1,5.958633E0,5.2274437E0,2.1910813E0,5.142713E0,8.108017E0,9.032242E0,9.041134E0,8.301219E0,1.0111455E1,5.858486E0,1.2047155E1,6.7560186E0,1.0369787E1,3.7113953E0,5.4095626E0,5.6984997E0,3.5051956E0,5.073736E0,4.9870377E0,6.5828285E0,5.714959E0,3.235877E0,2.457674E0,7.304432E0,3.1477509E0,7.6849976E0,5.0466394E0,8.818603E0,1.0083107E1,7.3384566E0,0E0,0E0,0E0,0E0,0E0,0E0,0E0,0E0,0E0,0E0,0E0,0E0,0E0,0E0,0E0,0E0,0E0,0E0,0E0,0E0,0E0,0E0,0E0,0E0,0E0,0E0,0E0,0E0,0E0,0E0,0E0,0E0,0E0,0E0,0E0,0E0,0E0,0E0,0E0,0E0,0E0,0E0,0E0,0E0,0E0,0E0,0E0,0E0,0E0,0E0,0E0,0E0,0E0,0E0,0E0,0E0,0E0,0E0,0E0,0E0],"parents":[2147483647,0,0,1,1,2,2,3,3,4,4,5,5,6,6,7,7,8,8,9,9,10,10,11,11,12,12,13,13,14,14,15,15,16,16,17,17,18,18,19,19,20,20,21,21,22,22,23,23,24,24,25,25,27,27,28,28,29,29,30,30,31,31,32,32,33,33,34,34,35,35,36,36,37,37,38,38,39,39,40,40,41,41,42,42,43,43,44,44,45,45,46,46,47,47,48,48,49,49,50,50,51,51,52,52,53,53,54,54,55,55,56,56,57,57,58,58,59,59,60,60],"right_children":[2,4,6,8,10,12,14,16,18,20,22,24,26,28,30,32,34,36,38,40,42,44,46,48,50,52,-1,54,56,58,60,62,64,66,68,70,72,74,76,78,80,82,84,86,88,90,92,94,96,98,100,102,104,106,108,110,112,114,116,118,120,-1,-1,-1,-1,-1,-1,-1,-1,-1,-1,-1,-1,-1,-1,-1,-1,-1,-1,-1,-1,-1,-1,-1,-1,-1,-1,-1,-1,-1,-1,-1,-1,-1,-1,-1,-1,-1,-1,-1,-1,-1,-1,-1,-1,-1,-1,-1,-1,-1,-1,-1,-1,-1,-1,-1,-1,-1,-1,-1,-1],"split_conditions":[1.9628112E-1,-3.3240092E-1,5.648032E1,6.4705996E3,5.0695427E1,8.843532E4,1.1603805E0,4.1249268E1,1.2734972E0,3.0396996E4,9.077096E3,-4.271695E0,6.765023E2,-6.7283735E0,6.892679E1,-4.1185215E1,-3.2153714E0,4.047105E1,2.0646545E1,-4.140863E2,-1.4305075E-1,2.2600527E0,6.031149E1,9.596167E-1,4.50694E1,3.2902466E1,8.1696324E-2,-7.173207E1,5.6628883E1,1.9258541E0,1.150174E0,5.766525E1,9.6535546E-1,-1.8069681E2,4.4222246E3,4.4741116E1,-2.8102352E1,-1.2412105E2,5.5543488E1,2.9874537E4,5.0089474E1,-5.0219537E2,6.327477E-1,5.7782826E0,1.6051277E2,-1.0431395E3,4.046275E0,1.5481555E0,1.1780161E0,2.713473E4,4.046275E0,-3.729092E1,7.4832074E-2,7.221716E3,5.125918E4,-5.0904024E-1,1.1957956E2,4.690375E2,1.0904662E4,7.873352E1,2.316369E0,1.0711675E-3,2.7782077E-2,4.1291848E-2,2.179355E-2,7.8117377E-3,-5.4798424E-2,1.2557444E-3,1.7378882E-2,9.799602E-3,3.6034163E-3,8.865455E-3,2.524732E-2,2.0621477E-2,4.6885316E-4,3.118006E-4,4.0219337E-2,-1.8559527E-2,6.2070966E-2,6.915794E-3,2.2887832E-2,1.2510048E-2,-1.4621337E-2,1.0922682E-2,-3.1494163E-3,6.169828E-3,-1.0074993E-2,3.8275268E-2,7.0412145E-3,-4.6475068E-2,-3.0756036E-3,-1.3186333E-2,1.4958416E-2,-4.49155E-2,-7.995159E-3,4.617897E-2,-1.9140396E-2,-2.6492733E-3,9.625415E-3,-6.749313E-3,2.747927E-2,-3.440293E-2,8.957108E-3,7.128518E-2,5.4366877E-3,-1.1254492E-2,-6.491175E-2,-8.974017E-3,4.1856096E-4,1.0595577E-2,-6.563628E-2,-1.933602E-2,-1.0585114E-2,-2.613283E-3,-5.5864513E-2,3.9617155E-2,6.4291665E-3,-1.4639991E-2,-4.1953385E-2,-8.23981E-3,3.7696466E-3],"split_indices":[12,12,0,8,0,11,4,0,4,8,8,3,1,7,0,1,12,7,0,1,12,3,0,4,0,7,0,7,0,3,12,7,4,1,10,0,1,1,0,8,0,1,4,7,1,1,3,12,12,8,3,7,3,8,5,3,1,7,10,0,4,0,0,0,0,0,0,0,0,0,0,0,0,0,0,0,0,0,0,0,0,0,0,0,0,0,0,0,0,0,0,0,0,0,0,0,0,0,0,0,0,0,0,0,0,0,0,0,0,0,0,0,0,0,0,0,0,0,0,0,0],"split_type":[0,0,0,0,0,0,0,0,0,0,0,0,0,0,0,0,0,0,0,0,0,0,0,0,0,0,0,0,0,0,0,0,0,0,0,0,0,0,0,0,0,0,0,0,0,0,0,0,0,0,0,0,0,0,0,0,0,0,0,0,0,0,0,0,0,0,0,0,0,0,0,0,0,0,0,0,0,0,0,0,0,0,0,0,0,0,0,0,0,0,0,0,0,0,0,0,0,0,0,0,0,0,0,0,0,0,0,0,0,0,0,0,0,0,0,0,0,0,0,0,0],"sum_hessian":[1.3241244E4,7.794013E3,5.447231E3,4.293661E3,3.5003523E3,1.7343032E3,3.7129277E3,4.6705322E2,3.8266077E3,1.850854E3,1.6494984E3,1.6643256E3,6.9977646E1,2.34232E3,1.3706077E3,2.6461478E2,2.0243843E2,2.705315E3,1.1212927E3,1.2653395E3,5.855145E2,4.4861642E2,1.2008821E3,4.174225E1,1.6225834E3,6.498027E1,4.9973717E0,1.3100244E3,1.0322958E3,5.1358997E2,8.570177E2,1.1180887E2,1.5280591E2,4.995633E0,1.974428E2,2.3641682E3,3.4114685E2,2.5501578E2,8.66277E2,5.194746E1,1.213392E3,2.328125E2,3.5270203E2,4.0415268E2,4.446376E1,8.606992E2,3.401828E2,3.0994375E1,1.0747872E1,3.358598E2,1.2867235E3,5.5983513E1,8.996758E0,1.0998684E1,1.2990258E3,1.1497175E1,1.0207986E3,4.3042386E2,8.316609E1,2.1520087E2,6.4181683E2,8.510497E1,2.6703896E1,5.8567482E1,9.423843E1,1.7489648E0,3.2466686E0,9.559541E1,1.0184739E2,1.5651935E3,7.989747E2,1.5775517E2,1.8339168E2,1.7315292E2,8.186286E1,8.540439E2,1.2233041E1,4.870167E1,3.2457898E0,1.1537173E3,5.9674675E1,5.195658E1,1.8085593E2,1.4187778E2,2.1082423E2,2.3868175E2,1.6547092E2,2.9978676E1,1.4485086E1,6.2473216E0,8.544519E2,3.2194608E2,1.8236752E1,2.1245932E1,9.748445E0,3.7487626E0,6.9991093E0,1.9168529E2,1.4417451E2,1.2734849E3,1.3238711E1,7.998464E0,4.798505E1,6.248067E0,2.7486908E0,3.499554E0,7.4991302E0,1.0408167E3,2.5820905E2,1.2498273E0,1.0247348E1,5.526378E2,4.681608E2,4.2692426E2,3.4995773E0,3.27132E1,5.0452892E1,1.7346207E2,4.1738796E1,4.679414E2,1.7387541E2],"tree_param":{"num_deleted":"0","num_feature":"13","num_nodes":"121","size_leaf_vector":"1"}},{"base_weights":[-9.873101E-3,9.383536E-2,-1.5714563E-1,1.6506065E-1,2.4152672E-2,-1.0097189E-1,-1.9538768E-1,1.16738744E-1,2.945098E-1,1.3669232E-1,-5.679781E-3,-1.6568236E-1,-2.2026455E-2,-2.7038816E-1,-1.3336125E-1,2.1870312E-1,8.780727E-2,3.1830323E-1,-3.9084518E-1,2.737264E-1,2.8942598E-2,4.0225383E-2,-6.2042806E-2,-1.7240827E-1,5.708489E-1,-5.1812764E-2,3.086557E-1,-2.0141472E-1,-3.7583393E-1,-2.9629958E-1,-9.43428E-2,6.882435E-1,1.7287225E-1,1.3759603E-1,-4.7240518E-2,5.510779E-1,2.5605068E-1,-6.362712E-1,6.0926884E-1,5.3419564E-2,3.8911003E-1,-5.0786626E-1,6.639982E-2,6.2869065E-2,-2.6138732E-1,-7.0653915E-2,4.6647915E-1,-2.6547155E-1,-1.2684242E-1,-2.0326093E-2,7.6290756E-1,6.001365E-1,-6.459057E-2,6.2971246E-1,-6.5500587E-3,-2.357733E-1,2.4629926E-2,-4.9727663E-1,-2.247568E-1,-4.824715E-1,-1.5887316E-1,6.6441916E-2,-1.742499E-1,-1.666137E-2,3.7180223E-2,-2.751995E-3,1.22470865E-2,3.2106058E-3,9.532048E-3,3.8750358E-2,-3.1743895E-3,3.3100133E-3,3.0366292E-2,1.7953198E-2,8.619741E-3,1.959052E-2,-4.330885E-2,-1.4960567E-2,6.406657E-2,-1.8233301E-2,1.070001E-2,2.1985408E-2,-1.9927423E-3,1.1643865E-2,-3.1895652E-2,-2.5635008E-3,1.3565972E-2,2.126738E-3,1.826418E-2,1.5091012E-2,-2.0193651E-2,-9.789381E-3,-1.687998E-3,3.0578488E-2,-3.396846E-2,-8.71302E-3,-2.1594403E-2,1.5061798E-3,-9.792753E-3,5.1433977E-2,-2.8237927E-4,2.8383266E-4,6.232357E-2,-1.0269302E-2,8.278019E-4,-3.3964086E-2,3.7080612E-2,3.13204E-2,-2.2436956E-2,7.8028394E-4,-1.3828762E-2,1.80113E-2,-9.194948E-3,4.210947E-2,-2.5681496E-2,-3.177425E-2,-5.6815613E-3,-3.0779282E-2,-7.6772566E-3,-1.8573422E-2,1.255168E-3,7.941838E-3,-8.160857E-3,-1.6447034E-2,-5.446381E-3],"categories":[],"categories_nodes":[],"categories_segments":[],"categories_sizes":[],"default_left":[0,0,0,0,0,0,0,0,0,0,0,0,0,0,0,0,0,0,0,0,0,0,0,0,0,0,0,0,0,0,0,0,0,0,0,0,0,0,0,0,0,0,0,0,0,0,0,0,0,0,0,0,0,0,0,0,0,0,0,0,0,0,0,0,0,0,0,0,0,0,0,0,0,0,0,0,0,0,0,0,0,0,0,0,0,0,0,0,0,0,0,0,0,0,0,0,0,0,0,0,0,0,0,0,0,0,0,0,0,0,0,0,0,0,0,0,0,0,0,0,0,0,0,0,0],"id":5,"left_children":[1,3,5,7,9,11,13,15,17,19,21,23,25,27,29,31,33,35,37,39,41,43,45,47,49,51,53,55,57,59,61,63,65,67,69,71,73,75,77,79,81,83,85,87,89,91,93,95,97,-1,99,101,103,105,107,109,111,113,115,117,119,121,123,-1,-1,-1,-1,-1,-1,-1,-1,-1,-1,-1,-1,-1,-1,-1,-1,-1,-1,-1,-1,-1,-1,-1,-1,-1,-1,-1,-1,-1,-1,-1,-1,-1,-1,-1,-1,-1,-1,-1,-1,-1,-1,-1,-1,-1,-1,-1,-1,-1,-1,-1,-1,-1,-1,-1,-1,-1,-1,-1,-1,-1,-1],"loss_changes":[2.0201074E2,3.8515625E1,1.1720718E1,2.3972519E1,1.3175624E1,1.1315502E1,1.5085503E1,8.229908E0,1.712542E1,1.21338215E1,8.030766E0,6.1296043E0,9.858196E0,1.0618553E1,1.1295755E1,1.3166962E1,1.4664089E1,1.446759E1,9.083862E0,9.177353E0,9.312507E0,1.169987E1,6.373582E0,5.0855865E0,2.4217534E0,7.6821194E0,8.374514E0,6.926586E0,1.0535385E1,8.715618E0,1.8492918E1,3.3335857E0,9.274586E0,6.1887054E0,7.90374E0,5.7377777E0,6.8087845E0,7.179017E0,4.9576187E0,8.505953E0,5.1684074E0,3.0592113E0,1.0436618E1,9.774561E0,9.724226E0,6.3261857E0,4.150594E0,5.933937E0,8.805698E0,0E0,1.997211E0,6.8067822E0,1.0294905E1,6.50725E0,1.2239584E1,7.9391212E0,8.35767E0,7.4614487E0,1.1814429E1,6.2740326E0,7.8005114E0,1.0174769E1,9.676809E0,0E0,0E0,0E0,0E0,0E0,0E0,0E0,0E0,0E0,0E0,0E0,0E0,0E0,0E0,0E0,0E0,0E0,0E0,0E0,0E0,0E0,0E0,0E0,0E0,0E0,0E0,0E0,0E0,0E0,0E0,0E0,0E0,0E0,0E0,0E0,0E0,0E0,0E0,0E0,0E0,0E0,0E0,0E0,0E0,0E0,0E0,0E0,0E0,0E0,0E0,0E0,0E0,0E0,0E0,0E0,0E0,0E0,0E0,0E0,0E0,0E0,0E0],"parents":[2147483647,0,0,1,1,2,2,3,3,4,4,5,5,6,6,7,7,8,8,9,9,10,10,11,11,12,12,13,13,14,14,15,15,16,16,17,17,18,18,19,19,20,20,21,21,22,22,23,23,24,24,25,25,26,26,27,27,28,28,29,29,30,30,31,31,32,32,33,33,34,34,35,35,36,36,37,37,38,38,39,39,40,40,41,41,42,42,43,43,44,44,45,45,46,46,47,47,48,48,50,50,51,51,52,52,53,53,54,54,55,55,56,56,57,57,58,58,59,59,60,60,61,61,62,62],"right_children":[2,4,6,8,10,12,14,16,18,20,22,24,26,28,30,32,34,36,38,40,42,44,46,48,50,52,54,56,58,60,62,64,66,68,70,72,74,76,78,80,82,84,86,88,90,92,94,96,98,-1,100,102,104,106,108,110,112,114,116,118,120,122,124,-1,-1,-1,-1,-1,-1,-1,-1,-1,-1,-1,-1,-1,-1,-1,-1,-1,-1,-1,-1,-1,-1,-1,-1,-1,-1,-1,-1,-1,-1,-1,-1,-1,-1,-1,-1,-1,-1,-1,-1,-1,-1,-1,-1,-1,-1,-1,-1,-1,-1,-1,-1,-1,-1,-1,-1,-1,-1,-1,-1,-1,-1],"split_conditions":[1.8888043E-1,4.3348896E1,5.890191E1,5.826352E-1,-5.3916276E-1,-3.37182E1,9.5479876E-1,2.4085596E1,2.9086225E0,2.0529572E2,5.3277023E1,5.8724266E1,1.3626466E0,-6.385814E0,-7.3170514E0,-7.5215106E0,1.2079848E0,6.568357E1,4.0961655E2,-2.0406282E1,1.1051199E4,5.723114E2,4.911624E0,-7.2841704E-1,-4.6617575E2,4.0889225E1,2.7348778E-1,6.1390598E4,2.4672643E2,1.3149643E2,6.8601906E1,-6.0997562E1,-4.533934E0,-1.2313732E0,3.6071865E3,-4.3401665E1,9.120267E-1,6.5186646E3,3.188732E1,2.7376905E1,2.0041398E4,4.7037336E-1,5.1158176E1,1.439511E-1,-9.354805E2,5.31155E-1,1.0554307E3,4.602119E1,-6.371748E-2,-2.0326093E-2,1.1780161E0,3.971708E1,-1.9246632E-1,-2.2940832E1,1.6146291E0,6.4184443E3,6.652053E4,3.4813258E-1,6.151064E1,1.7310024E0,-2.3355865E2,3.7685008E4,1.20834E0,-1.666137E-2,3.7180223E-2,-2.751995E-3,1.22470865E-2,3.2106058E-3,9.532048E-3,3.8750358E-2,-3.1743895E-3,3.3100133E-3,3.0366292E-2,1.7953198E-2,8.619741E-3,1.959052E-2,-4.330885E-2,-1.4960567E-2,6.406657E-2,-1.8233301E-2,1.070001E-2,2.1985408E-2,-1.9927423E-3,1.1643865E-2,-3.1895652E-2,-2.5635008E-3,1.3565972E-2,2.126738E-3,1.826418E-2,1.5091012E-2,-2.0193651E-2,-9.789381E-3,-1.687998E-3,3.0578488E-2,-3.396846E-2,-8.71302E-3,-2.1594403E-2,1.5061798E-3,-9.792753E-3,5.1433977E-2,-2.8237927E-4,2.8383266E-4,6.232357E-2,-1.0269302E-2,8.278019E-4,-3.3964086E-2,3.7080612E-2,3.13204E-2,-2.2436956E-2,7.8028394E-4,-1.3828762E-2,1.80113E-2,-9.194948E-3,4.210947E-2,-2.5681496E-2,-3.177425E-2,-5.6815613E-3,-3.0779282E-2,-7.6772566E-3,-1.8573422E-2,1.255168E-3,7.941838E-3,-8.160857E-3,-1.6447034E-2,-5.446381E-3],"split_indices":[12,0,0,1,12,1,4,0,4,6,0,0,4,7,1,3,4,6,1,7,10,6,3,3,1,0,3,5,6,6,0,7,3,3,10,7,4,11,0,1,11,4,0,12,1,4,6,0,3,0,12,0,3,1,4,11,10,4,0,4,1,5,12,0,0,0,0,0,0,0,0,0,0,0,0,0,0,0,0,0,0,0,0,0,0,0,0,0,0,0,0,0,0,0,0,0,0,0,0,0,0,0,0,0,0,0,0,0,0,0,0,0,0,0,0,0,0,0,0,0,0,0,0,0,0],"split_type":[0,0,0,0,0,0,0,0,0,0,0,0,0,0,0,0,0,0,0,0,0,0,0,0,0,0,0,0,0,0,0,0,0,0,0,0,0,0,0,0,0,0,0,0,0,0,0,0,0,0,0,0,0,0,0,0,0,0,0,0,0,0,0,0,0,0,0,0,0,0,0,0,0,0,0,0,0,0,0,0,0,0,0,0,0,0,0,0,0,0,0,0,0,0,0,0,0,0,0,0,0,0,0,0,0,0,0,0,0,0,0,0,0,0,0,0,0,0,0,0,0,0,0,0,0],"sum_hessian":[1.322434E4,7.7600913E3,5.4642485E3,3.8368916E3,3.9231997E3,2.2147068E3,3.2495417E3,2.7953286E3,1.041563E3,8.213113E2,3.1018884E3,1.216478E3,9.982287E2,1.469413E3,1.7801287E3,6.1639233E2,2.1789363E3,1.007134E3,3.4429054E1,3.6084937E2,4.6046188E2,1.7097003E3,1.3921881E3,1.2062289E3,1.0249193E1,9.165165E2,8.171222E1,8.9009827E2,5.793147E2,3.4265042E2,1.4374783E3,5.3567966E1,5.6282434E2,1.5919902E3,5.86946E2,2.108546E2,7.9627936E2,2.7937138E1,6.491916E0,1.245341E2,2.3631526E2,2.9215054E1,4.3124683E2,1.5910437E3,1.1865663E2,1.3707216E3,2.1466593E1,3.9488766E2,8.113412E2,1.4998626E0,8.7493305E0,1.6734257E1,8.997822E2,3.99861E1,4.172612E1,7.72618E2,1.17480286E2,3.1988495E2,2.5942978E2,1.4445125E2,1.9819919E2,4.7728333E2,9.6019495E2,2.495938E0,5.107203E1,1.3527327E2,4.275511E2,6.688685E2,9.2312164E2,1.0468177E1,5.764778E2,2.214382E1,1.8871078E2,3.5537756E2,4.4090182E2,4.977003E0,2.2960135E1,2.9963279E0,3.495588E0,3.4205692E1,9.032841E1,2.1135953E2,2.4955736E1,4.244986E0,2.4970066E1,2.7441873E2,1.5682811E2,1.4918711E3,9.917254E1,2.373204E1,9.492459E1,3.111348E2,1.0595867E3,1.9467796E1,1.9987952E0,2.5640298E2,1.3848466E2,2.4795122E2,5.6339E2,6.2496853E0,2.499645E0,9.242419E0,7.4918375E0,3.2841922E2,5.7136304E2,2.7497153E0,3.7236385E1,1.6989874E1,2.4736244E1,1.0797937E2,6.646386E2,4.474402E1,7.273627E1,3.2492034E0,3.1663574E2,5.42392E1,2.0519057E2,1.0221433E2,4.2236908E1,9.147525E1,1.0672393E2,3.4057422E2,1.367091E2,2.8388544E2,6.763095E2],"tree_param":{"num_deleted":"0","num_feature":"13","num_nodes":"125","size_leaf_vector":"1"}},{"base_weights":[-7.8223145E-4,1.2411896E-1,-1.1040704E-1,1.6393407E-1,2.7223682E-2,-3.274205E-2,-1.4375071E-1,1.2599659E-1,2.3737846E-1,4.0461013E-1,1.0092898E-2,3.6709495E-2,-7.276394E-2,-1.8486717E-1,-9.25291E-2,2.0773368E-1,9.3634665E-2,4.8561665E-1,2.1818508E-1,7.523439E-1,2.3616338E-1,2.742885E-1,-8.022445E-3,3.0016214E-1,3.9182636E-3,-1.4019662E-1,3.8768902E-2,-2.1104495E-1,-2.8138723E-2,-2.532391E-1,-4.0049575E-2,1.8811578E-1,7.178202E-1,3.2855496E-2,1.4303413E-1,6.830516E-1,-4.43706E-2,1.8724282E-1,3.6533323E-1,8.8740057E-1,-4.086034E-2,3.167527E-1,-6.16714E-1,3.210349E-1,-7.2364694E-1,-6.2404286E-2,5.6403622E-2,3.6626968E-1,-5.2499187E-1,-1.1220627E-1,1.0850272E-1,6.690589E-2,-1.790757E-1,7.977132E-1,2.5734669E-2,-1.8114908E-1,-3.140323E-1,3.7154886E-1,-7.827596E-2,-3.0542183E-1,-4.8247673E-2,4.954122E-3,-1.6682248E-1,1.1335447E-2,-6.000032E-4,5.1766247E-2,-3.2673955E-2,3.0825883E-3,-1.2925555E-2,3.6768362E-2,6.4096414E-3,2.0677898E-2,4.0762577E-2,3.374173E-2,-1.0386637E-2,1.0615635E-2,-1.3957504E-3,2.5628135E-2,1.0782115E-2,2.6691694E-2,6.656101E-2,-7.4812034E-3,2.1851374E-2,-5.474965E-2,8.652472E-3,-4.6000885E-5,2.1673245E-2,-6.85387E-2,4.867475E-3,-5.013565E-4,-1.4470071E-2,-1.0957076E-2,4.3374356E-3,4.842836E-3,2.7473597E-2,-5.4566473E-2,5.4629464E-2,-3.987889E-2,-4.289392E-3,1.4638357E-2,-2.1892863E-4,6.2119653E-3,-2.8941238E-2,-1.0754908E-2,4.020123E-4,6.1518874E-2,-2.7706472E-2,4.2370316E-2,7.6301995E-4,-8.861665E-3,-5.0761342E-2,-2.0377653E-2,-8.647343E-3,2.330633E-2,-4.2460576E-2,1.6210672E-2,-6.9539137E-3,-2.4093047E-2,-1.1284206E-2,3.4760067E-3,-4.326064E-2,6.665093E-3,-2.613937E-3,-1.8825127E-2,-3.9733895E-3],"categories":[],"categories_nodes":[],"categories_segments":[],"categories_sizes":[],"default_left":[0,0,0,0,0,0,0,0,0,0,0,0,0,0,0,0,0,0,0,0,0,0,0,0,0,0,0,0,0,0,0,0,0,0,0,0,0,0,0,0,0,0,0,0,0,0,0,0,0,0,0,0,0,0,0,0,0,0,0,0,0,0,0,0,0,0,0,0,0,0,0,0,0,0,0,0,0,0,0,0,0,0,0,0,0,0,0,0,0,0,0,0,0,0,0,0,0,0,0,0,0,0,0,0,0,0,0,0,0,0,0,0,0,0,0,0,0,0,0,0,0,0,0,0,0],"id":6,"left_children":[1,3,5,7,9,11,13,15,17,19,21,23,25,27,29,31,33,35,37,39,41,43,45,47,49,51,53,55,57,59,61,63,65,67,69,71,73,75,77,79,-1,81,83,85,87,89,91,93,95,97,99,101,103,105,107,109,111,113,115,117,119,121,123,-1,-1,-1,-1,-1,-1,-1,-1,-1,-1,-1,-1,-1,-1,-1,-1,-1,-1,-1,-1,-1,-1,-1,-1,-1,-1,-1,-1,-1,-1,-1,-1,-1,-1,-1,-1,-1,-1,-1,-1,-1,-1,-1,-1,-1,-1,-1,-1,-1,-1,-1,-1,-1,-1,-1,-1,-1,-1,-1,-1,-1,-1],"loss_changes":[1.804624E2,2.3762833E1,1.8172417E1,1.2135811E1,1.1603168E1,5.8666086E0,1.0324745E1,7.60186E0,6.974388E0,4.3873587E0,8.226853E0,6.6673994E0,1.0073936E1,1.11658325E1,1.8448261E1,8.03434E0,6.197893E0,1.1104895E1,6.220398E0,6.0194254E0,3.904169E0,5.3778057E0,5.641469E0,4.852438E0,8.361621E0,6.731518E0,4.977078E0,7.126465E0,7.86177E0,5.7462463E0,9.4202795E0,6.0846615E0,1.3686113E1,7.798192E0,9.921352E0,2.412262E0,3.625557E0,6.172798E0,5.1551704E0,2.9731941E0,0E0,2.8679328E0,2.077323E0,3.8393936E0,2.9189434E0,1.0377647E1,6.182192E0,3.8797035E0,7.373838E0,5.83905E0,7.535599E0,4.9821324E0,4.7394886E0,5.651412E0,4.270541E0,5.7335052E0,6.837219E0,5.4459085E0,8.564569E0,5.928112E0,1.0688305E1,8.964599E0,7.893408E0,0E0,0E0,0E0,0E0,0E0,0E0,0E0,0E0,0E0,0E0,0E0,0E0,0E0,0E0,0E0,0E0,0E0,0E0,0E0,0E0,0E0,0E0,0E0,0E0,0E0,0E0,0E0,0E0,0E0,0E0,0E0,0E0,0E0,0E0,0E0,0E0,0E0,0E0,0E0,0E0,0E0,0E0,0E0,0E0,0E0,0E0,0E0,0E0,0E0,0E0,0E0,0E0,0E0,0E0,0E0,0E0,0E0,0E0,0E0,0E0,0E0,0E0],"parents":[2147483647,0,0,1,1,2,2,3,3,4,4,5,5,6,6,7,7,8,8,9,9,10,10,11,11,12,12,13,13,14,14,15,15,16,16,17,17,18,18,19,19,20,20,21,21,22,22,23,23,24,24,25,25,26,26,27,27,28,28,29,29,30,30,31,31,32,32,33,33,34,34,35,35,36,36,37,37,38,38,39,39,41,41,42,42,43,43,44,44,45,45,46,46,47,47,48,48,49,49,50,50,51,51,52,52,53,53,54,54,55,55,56,56,57,57,58,58,59,59,60,60,61,61,62,62],"right_children":[2,4,6,8,10,12,14,16,18,20,22,24,26,28,30,32,34,36,38,40,42,44,46,48,50,52,54,56,58,60,62,64,66,68,70,72,74,76,78,80,-1,82,84,86,88,90,92,94,96,98,100,102,104,106,108,110,112,114,116,118,120,122,124,-1,-1,-1,-1,-1,-1,-1,-1,-1,-1,-1,-1,-1,-1,-1,-1,-1,-1,-1,-1,-1,-1,-1,-1,-1,-1,-1,-1,-1,-1,-1,-1,-1,-1,-1,-1,-1,-1,-1,-1,-1,-1,-1,-1,-1,-1,-1,-1,-1,-1,-1,-1,-1,-1,-1,-1,-1,-1,-1,-1,-1,-1],"split_conditions":[-2.7692385E-2,-3.1111014E-1,2.8032053E-1,-6.8015876E0,3.4813258E-1,1.0909857E4,9.5479876E-1,7.4209434E-1,3.9421948E3,-3.5007378E1,4.2036763E3,-3.824863E1,4.2737957E4,6.3032074E2,-1.6096807E1,4.8056473E1,-5.810072E-1,-4.6211374E-1,1.3380623E0,9.71787E4,9.3830707E2,6.568357E1,-1.4305075E-1,1.7365977E2,7.631472E-1,-2.0547789E1,4.2899312E4,1.2597119E1,-4.3993572E1,1.7310024E0,4.1967207E4,5.3977234E2,9.7857056E1,-4.7321084E-1,-6.90298E0,-2.8102352E1,-2.974644E0,1.1308967E0,1.7042975E0,-1.13451615E-1,-4.086034E-2,-4.6617575E2,1.1372737E3,3.5890745E3,7.572429E1,5.0055324E4,6.771333E3,9.39217E-2,6.674287E-1,-2.0547789E1,3.6661415E0,1.2168041E0,1.1531512E0,8.985678E-1,2.337919E-1,7.012547E0,2.35695E2,3.564557E2,6.712257E2,1.0547857E2,6.1029855E4,-7.4595394E0,2.9805494E1,1.1335447E-2,-6.000032E-4,5.1766247E-2,-3.2673955E-2,3.0825883E-3,-1.2925555E-2,3.6768362E-2,6.4096414E-3,2.0677898E-2,4.0762577E-2,3.374173E-2,-1.0386637E-2,1.0615635E-2,-1.3957504E-3,2.5628135E-2,1.0782115E-2,2.6691694E-2,6.656101E-2,-7.4812034E-3,2.1851374E-2,-5.474965E-2,8.652472E-3,-4.6000885E-5,2.1673245E-2,-6.85387E-2,4.867475E-3,-5.013565E-4,-1.4470071E-2,-1.0957076E-2,4.3374356E-3,4.842836E-3,2.7473597E-2,-5.4566473E-2,5.4629464E-2,-3.987889E-2,-4.289392E-3,1.4638357E-2,-2.1892863E-4,6.2119653E-3,-2.8941238E-2,-1.0754908E-2,4.020123E-4,6.1518874E-2,-2.7706472E-2,4.2370316E-2,7.6301995E-4,-8.861665E-3,-5.0761342E-2,-2.0377653E-2,-8.647343E-3,2.330633E-2,-4.2460576E-2,1.6210672E-2,-6.9539137E-3,-2.4093047E-2,-1.1284206E-2,3.4760067E-3,-4.326064E-2,6.665093E-3,-2.613937E-3,-1.8825127E-2,-3.9733895E-3],"split_indices":[12,12,12,2,4,8,4,4,10,7,9,7,9,6,1,7,7,12,4,8,1,6,12,1,4,2,9,7,7,4,5,1,7,12,12,1,2,4,4,12,0,1,1,8,6,8,10,12,4,2,7,4,4,4,4,12,6,2,6,6,5,7,2,0,0,0,0,0,0,0,0,0,0,0,0,0,0,0,0,0,0,0,0,0,0,0,0,0,0,0,0,0,0,0,0,0,0,0,0,0,0,0,0,0,0,0,0,0,0,0,0,0,0,0,0,0,0,0,0,0,0,0,0,0,0],"split_type":[0,0,0,0,0,0,0,0,0,0,0,0,0,0,0,0,0,0,0,0,0,0,0,0,0,0,0,0,0,0,0,0,0,0,0,0,0,0,0,0,0,0,0,0,0,0,0,0,0,0,0,0,0,0,0,0,0,0,0,0,0,0,0,0,0,0,0,0,0,0,0,0,0,0,0,0,0,0,0,0,0,0,0,0,0,0,0,0,0,0,0,0,0,0,0,0,0,0,0,0,0,0,0,0,0,0,0,0,0,0,0,0,0,0,0,0,0,0,0,0,0,0,0,0,0],"sum_hessian":[1.3177874E4,6.1596895E3,7.018184E3,4.3652705E3,1.7944192E3,2.108647E3,4.909537E3,2.8802178E3,1.4850526E3,7.693536E1,1.7174839E3,7.709209E2,1.3377262E3,2.721962E3,2.187575E3,8.153796E2,2.0648381E3,1.04837166E2,1.3802155E3,2.3975363E1,5.2960003E1,1.0930017E2,1.6081837E3,8.443069E1,6.8649023E2,8.335222E2,5.0420392E2,2.3320945E3,3.8986758E2,5.375599E2,1.6500151E3,7.8649963E2,2.887995E1,9.2653314E2,1.138305E3,7.617213E1,2.8665035E1,1.1422881E3,2.3792738E2,2.2475965E1,1.4993966E0,4.8962124E1,3.9978788E0,1.0505727E2,4.242907E0,8.7208813E2,7.360955E2,7.868308E1,5.7476063E0,3.2526352E2,3.612267E2,1.3162999E2,7.018923E2,7.496624E0,4.967073E2,1.8095616E3,5.225328E2,4.273991E1,3.471277E2,4.280941E2,1.094658E2,1.2184373E3,4.3157776E2,6.5923126E2,1.27268394E2,2.3649298E1,5.2306514E0,8.439159E2,8.261728E1,2.6637165E1,1.111668E3,2.6427382E1,4.9744747E1,4.726335E0,2.39387E1,1.0230921E3,1.19195915E2,1.1872778E2,1.1919959E2,1.3736038E1,8.739928E0,9.988141E0,3.8973984E1,2.2492535E0,1.7486252E0,2.744823E1,7.760904E1,1.9982201E0,2.244687E0,7.0943726E2,1.626509E2,7.240535E1,6.636902E2,3.246682E1,4.621626E1,4.4980936E0,1.2495127E0,1.098891E1,3.142746E2,1.3661934E2,2.2460736E2,1.2163759E2,9.992411E0,5.8845654E2,1.1343571E2,5.74709E0,1.7495341E0,5.246333E0,4.9146097E2,1.8023126E3,7.24893E0,3.1310046E2,2.0943233E2,4.024047E1,2.4994416E0,4.49884E1,3.0213928E2,1.3167903E2,2.9641504E2,9.647374E1,1.2992055E1,3.7535492E2,8.430824E2,1.25948875E2,3.056289E2],"tree_param":{"num_deleted":"0","num_feature":"13","num_nodes":"125","size_leaf_vector":"1"}},{"base_weights":[1.176747E-3,1.2581216E-1,-9.469344E-2,1.9548422E-1,8.076129E-2,-3.7642978E-2,-1.6129228E-1,1.3332494E-1,2.680541E-1,1.1352873E-1,1.8829923E-2,2.2667613E-2,-9.655447E-2,-2.859284E-1,-1.1793167E-1,3.0833074E-1,7.938152E-2,2.9354647E-1,-2.3112063E-1,2.7858161E-5,1.4001995E-1,-9.1723365E-1,3.25179E-2,-7.779918E-1,2.9334672E-2,-8.283186E-1,-8.7334774E-2,6.3825916E-3,-3.182133E-1,-2.167164E-1,-7.7021286E-2,-9.600854E-1,3.319363E-1,1.9446257E-1,-1.3432583E-2,-6.2153243E-2,3.2172614E-1,5.270169E-2,-2.8434092E-1,5.82616E-1,-4.1027766E-2,1.0874035E-1,2.3417276E-1,-4.928373E-1,-1.3332832E0,-1.873969E-2,1.9753714E-1,-1.4178123E0,-1.5702438E-1,9.940549E-3,2.1041732E-1,-1.4894864E-1,-1.1493027E0,-1.5754439E-1,-2.1114774E-2,-1.8061824E-1,5.8828455E-1,-3.018952E-1,-8.9633787E-1,1.05098985E-1,-2.4197114E-1,2.6741354E-2,-1.4040579E-1,-6.546373E-2,-2.2378061E-2,4.791557E-3,2.0265719E-2,1.0526316E-2,-4.2653736E-2,-1.2366977E-2,2.3673428E-3,3.0630687E-2,-1.1340433E-2,2.6420971E-2,1.2144625E-2,-1.6722828E-2,3.058123E-2,1.1180095E-2,5.076752E-2,1.8890224E-3,-1.5215893E-2,8.7256245E-3,-9.1517E-4,-3.6726385E-2,1.2724361E-2,-6.89973E-2,-5.5225594E-3,-2.192632E-2,-7.335508E-2,5.361737E-3,-3.8609796E-3,-2.1802066E-2,1.2527819E-2,-2.2040445E-2,-7.8763336E-2,4.8083123E-2,-2.9191483E-2,2.8236625E-3,-3.58678E-3,2.3767097E-2,6.1306073E-3,-5.0275713E-2,1.1304092E-2,-1.9513941E-4,-6.972473E-2,-1.2887622E-2,-1.7456424E-3,1.30150765E-2,-1.863814E-3,-1.499519E-2,3.482632E-2,-1.0399638E-2,4.7720212E-2,-1.9286282E-2,-1.0161715E-2,-6.249083E-2,-2.227488E-2,-7.679723E-3,3.0336613E-2,-1.2881798E-2,2.0401698E-2,9.31882E-3,-4.59886E-3,-1.3490324E-2,-3.9373036E-3],"categories":[],"categories_nodes":[],"categories_segments":[],"categories_sizes":[],"default_left":[0,0,0,0,0,0,0,0,0,0,0,0,0,0,0,0,0,0,0,0,0,0,0,0,0,0,0,0,0,0,0,0,0,0,0,0,0,0,0,0,0,0,0,0,0,0,0,0,0,0,0,0,0,0,0,0,0,0,0,0,0,0,0,0,0,0,0,0,0,0,0,0,0,0,0,0,0,0,0,0,0,0,0,0,0,0,0,0,0,0,0,0,0,0,0,0,0,0,0,0,0,0,0,0,0,0,0,0,0,0,0,0,0,0,0,0,0,0,0,0,0,0,0,0,0],"id":7,"left_children":[1,3,5,7,9,11,13,15,17,19,21,23,25,27,29,31,33,35,37,39,41,43,45,47,49,51,53,55,57,59,61,63,65,67,69,71,73,-1,75,77,79,81,83,85,87,89,91,93,95,97,99,101,103,105,107,109,111,113,115,117,119,121,123,-1,-1,-1,-1,-1,-1,-1,-1,-1,-1,-1,-1,-1,-1,-1,-1,-1,-1,-1,-1,-1,-1,-1,-1,-1,-1,-1,-1,-1,-1,-1,-1,-1,-1,-1,-1,-1,-1,-1,-1,-1,-1,-1,-1,-1,-1,-1,-1,-1,-1,-1,-1,-1,-1,-1,-1,-1,-1,-1,-1,-1,-1],"loss_changes":[1.5805884E2,1.8035957E1,2.8402E1,1.0148697E1,7.089239E0,1.4315012E1,1.860794E1,1.1474806E1,1.3310326E1,6.870802E0,1.5537642E1,1.0652831E1,1.3677479E1,8.397438E0,1.0332352E1,8.901512E0,9.96213E0,9.948593E0,3.796298E0,1.0390648E1,5.430809E0,2.4289637E0,1.0101937E1,6.325572E0,6.937103E0,5.33288E0,9.359314E0,9.841174E0,7.287285E0,6.116024E0,1.1923896E1,3.972888E-1,4.849518E0,7.1856575E0,7.363045E0,8.310719E0,1.482959E1,0E0,2.4441433E0,4.2159767E0,8.432041E0,1.1639177E1,9.261631E0,3.3206708E0,3.431673E-1,6.725688E0,9.616783E0,5.351925E-1,5.091837E0,6.791143E0,4.386985E0,3.19806E0,4.766781E0,1.2000622E1,4.728326E0,7.3729086E0,6.610046E0,6.378273E0,2.8670082E0,7.259983E0,7.1834526E0,1.3058381E1,8.957163E0,0E0,0E0,0E0,0E0,0E0,0E0,0E0,0E0,0E0,0E0,0E0,0E0,0E0,0E0,0E0,0E0,0E0,0E0,0E0,0E0,0E0,0E0,0E0,0E0,0E0,0E0,0E0,0E0,0E0,0E0,0E0,0E0,0E0,0E0,0E0,0E0,0E0,0E0,0E0,0E0,0E0,0E0,0E0,0E0,0E0,0E0,0E0,0E0,0E0,0E0,0E0,0E0,0E0,0E0,0E0,0E0,0E0,0E0,0E0,0E0,0E0,0E0],"parents":[2147483647,0,0,1,1,2,2,3,3,4,4,5,5,6,6,7,7,8,8,9,9,10,10,11,11,12,12,13,13,14,14,15,15,16,16,17,17,18,18,19,19,20,20,21,21,22,22,23,23,24,24,25,25,26,26,27,27,28,28,29,29,30,30,31,31,32,32,33,33,34,34,35,35,36,36,38,38,39,39,40,40,41,41,42,42,43,43,44,44,45,45,46,46,47,47,48,48,49,49,50,50,51,51,52,52,53,53,54,54,55,55,56,56,57,57,58,58,59,59,60,60,61,61,62,62],"right_children":[2,4,6,8,10,12,14,16,18,20,22,24,26,28,30,32,34,36,38,40,42,44,46,48,50,52,54,56,58,60,62,64,66,68,70,72,74,-1,76,78,80,82,84,86,88,90,92,94,96,98,100,102,104,106,108,110,112,114,116,118,120,122,124,-1,-1,-1,-1,-1,-1,-1,-1,-1,-1,-1,-1,-1,-1,-1,-1,-1,-1,-1,-1,-1,-1,-1,-1,-1,-1,-1,-1,-1,-1,-1,-1,-1,-1,-1,-1,-1,-1,-1,-1,-1,-1,-1,-1,-1,-1,-1,-1,-1,-1,-1,-1,-1,-1,-1,-1,-1,-1,-1,-1,-1,-1],"split_conditions":[-9.210133E-2,3.7132744E1,5.9780155E1,-1.1201272E2,3.0414856E2,2.6284266E-1,2.0655087E1,2.0646545E1,3.261229E0,4.0517483E1,1.1491063E4,-1.6680656E3,2.7063462E-1,-4.1755466E1,7.602161E-1,-7.173207E1,9.596167E-1,-5.2065144E1,5.3767543E0,4.009899E3,1.4403703E2,-2.1915238E0,6.9412714E2,1.0731106E-1,6.4747957E4,-4.3401665E1,-6.4836044E1,1.071362E0,5.493211E0,3.8266513E-1,6.892679E1,-3.4277055E0,-1.0431395E3,1.055871E2,1.1719115E4,6.445731E3,8.850358E-1,5.270169E-2,6.2615454E2,3.8099727E3,-3.0078253E-1,4.977977E1,-2.7413108E0,-6.481968E2,7.8758677E3,4.3042095E1,3.7502316E-1,3.2591366E1,5.5594605E4,5.266351E1,2.8654572E2,4.1863846E1,-7.374374E2,3.617386E2,4.4395325E1,6.4423387E4,6.3834057E1,1.0164189E0,1.1111927E0,3.582674E-1,4.009498E0,1.3709071E2,1.20834E0,-6.546373E-2,-2.2378061E-2,4.791557E-3,2.0265719E-2,1.0526316E-2,-4.2653736E-2,-1.2366977E-2,2.3673428E-3,3.0630687E-2,-1.1340433E-2,2.6420971E-2,1.2144625E-2,-1.6722828E-2,3.058123E-2,1.1180095E-2,5.076752E-2,1.8890224E-3,-1.5215893E-2,8.7256245E-3,-9.1517E-4,-3.6726385E-2,1.2724361E-2,-6.89973E-2,-5.5225594E-3,-2.192632E-2,-7.335508E-2,5.361737E-3,-3.8609796E-3,-2.1802066E-2,1.2527819E-2,-2.2040445E-2,-7.8763336E-2,4.8083123E-2,-2.9191483E-2,2.8236625E-3,-3.58678E-3,2.3767097E-2,6.1306073E-3,-5.0275713E-2,1.1304092E-2,-1.9513941E-4,-6.972473E-2,-1.2887622E-2,-1.7456424E-3,1.30150765E-2,-1.863814E-3,-1.499519E-2,3.482632E-2,-1.0399638E-2,4.7720212E-2,-1.9286282E-2,-1.0161715E-2,-6.249083E-2,-2.227488E-2,-7.679723E-3,3.0336613E-2,-1.2881798E-2,2.0401698E-2,9.31882E-3,-4.59886E-3,-1.3490324E-2,-3.9373036E-3],"split_indices":[12,0,0,1,6,12,1,0,4,0,9,1,4,7,4,7,4,7,7,11,1,12,6,12,9,7,1,4,12,4,0,12,1,7,8,5,4,0,1,11,12,0,12,1,9,0,4,0,9,0,6,0,1,6,0,8,0,12,4,4,12,6,12,0,0,0,0,0,0,0,0,0,0,0,0,0,0,0,0,0,0,0,0,0,0,0,0,0,0,0,0,0,0,0,0,0,0,0,0,0,0,0,0,0,0,0,0,0,0,0,0,0,0,0,0,0,0,0,0,0,0,0,0,0,0],"split_type":[0,0,0,0,0,0,0,0,0,0,0,0,0,0,0,0,0,0,0,0,0,0,0,0,0,0,0,0,0,0,0,0,0,0,0,0,0,0,0,0,0,0,0,0,0,0,0,0,0,0,0,0,0,0,0,0,0,0,0,0,0,0,0,0,0,0,0,0,0,0,0,0,0,0,0,0,0,0,0,0,0,0,0,0,0,0,0,0,0,0,0,0,0,0,0,0,0,0,0,0,0,0,0,0,0,0,0,0,0,0,0,0,0,0,0,0,0,0,0,0,0,0,0,0,0],"sum_hessian":[1.3225989E4,5.7501855E3,7.4758037E3,2.2567449E3,3.4934407E3,4.0273914E3,3.4484124E3,1.2170907E3,1.0396543E3,2.2841047E3,1.209336E3,1.9903685E3,2.0370228E3,8.8860486E2,2.5598074E3,2.856513E2,9.3143933E2,9.895318E2,5.0122547E1,4.324192E2,1.8516854E3,1.6477802E1,1.1928583E3,1.5481441E1,1.9748871E3,2.4240265E1,2.0127826E3,8.8462074E1,8.0014276E2,7.4839343E2,1.811414E3,4.4941077E0,2.8115723E2,4.1534903E2,5.160903E2,7.255064E1,9.1698114E2,1.2453339E0,4.8877213E1,2.7598577E1,4.0482062E2,1.3915404E3,4.6014508E2,9.238511E0,7.239291E0,9.1082733E2,2.8203094E2,6.9929476E0,8.488493E0,1.7847893E3,1.9009773E2,8.247752E0,1.5992513E1,9.76292E2,1.0364906E3,6.746957E1,2.0992506E1,7.7965845E2,2.0484364E1,5.422721E1,6.941662E2,6.871324E2,1.1242816E3,1.7483637E0,2.7457438E0,6.720876E1,2.1394846E2,4.098629E2,5.486129E0,1.05811195E2,4.1027908E2,1.3697391E1,5.885324E1,2.5160281E2,6.6537836E2,4.6881607E1,1.9956046E0,1.5913123E1,1.1685454E1,3.1222244E2,9.259818E1,9.166207E2,4.7491965E2,8.7292795E0,4.514158E2,1.9969507E0,7.2415605E0,1.4982814E0,5.7410097E0,2.8850684E2,6.223205E2,2.1220636E1,2.608103E2,1.4979254E0,5.4950223E0,1.9981184E0,6.490374E0,1.1372064E3,6.475829E2,4.6222427E1,1.438753E2,1.9995797E0,6.2481728E0,2.9989588E0,1.2993554E1,5.366598E2,4.3963217E2,5.5471573E1,9.8101904E2,5.9971897E1,7.4976697E0,6.748036E0,1.4244471E1,4.199364E2,3.5972202E2,1.0488624E1,9.995739E0,3.6234703E1,1.7992508E1,6.784202E2,1.5745967E1,2.9282077E2,3.9431165E2,3.617429E2,7.625387E2],"tree_param":{"num_deleted":"0","num_feature":"13","num_nodes":"125","size_leaf_vector":"1"}},{"base_weights":[-1.1580702E-3,9.603444E-2,-7.7068225E-2,5.606113E-2,1.7661573E-1,-2.7595196E-2,-1.3117445E-1,1.1373685E-1,-1.5157987E-3,4.1838366E-1,1.4306998E-1,-1.0327679E-1,2.5304167E-2,-2.782059E-1,-1.04408294E-1,-3.2911295E-1,1.2395019E-1,-8.8185824E-2,1.6096547E-1,6.0025847E-1,2.6440588E-1,2.0871766E-1,2.908602E-2,-1.4019214E-1,4.4187903E-2,-8.77142E-2,6.6493146E-2,6.496907E-2,-3.2055396E-1,-3.0968067E-1,-7.313618E-2,-7.3848057E-1,6.818313E-2,9.2917934E-2,2.450785E-1,-6.120539E-2,-3.553344E-1,1.3513179E-1,5.1630497E-1,1.2590044E0,5.2332777E-1,2.1579969E-1,1.2231135E0,2.4512082E-1,-8.1338026E-2,-5.2797014E-1,5.909437E-2,2.6572523E-1,-1.5109368E-1,1.7646933E-1,-8.9803025E-2,-3.1634364E-1,-1.51701E-2,1.8454267E-2,1.6575915E-1,-5.6835496E-1,3.5567635E-1,-4.4454002E-1,-2.1336254E-1,-8.331118E-1,-2.706876E-1,-7.144564E-3,-1.3761674E-1,1.1672092E-2,-4.7679406E-2,-6.333207E-3,6.533569E-2,1.07004E-2,2.1989488E-3,2.0063076E-2,1.4815953E-3,-4.6860245E-3,1.0618489E-2,2.330493E-2,-2.0618793E-2,1.7650336E-3,1.114595E-2,3.6255803E-2,-5.4744873E-3,2.1879777E-2,7.828806E-2,4.2844787E-2,1.9604424E-2,2.2584092E-2,1.5627232E-3,7.1507245E-2,2.285388E-2,1.82854E-2,8.992475E-3,-7.6112817E-3,3.3784166E-2,-1.8941127E-2,-6.247182E-2,-4.5849126E-2,3.8125028E-3,-9.248486E-4,4.1784924E-2,-1.1938643E-2,-5.4139006E-3,5.09233E-2,7.0829936E-3,-1.4443733E-2,5.3047566E-3,-2.290625E-2,8.861855E-4,3.33219E-2,-1.7359214E-3,4.909413E-4,4.0283818E-2,1.5989088E-2,1.4902519E-3,1.3732644E-2,-3.6917333E-2,-1.81979E-2,2.3950985E-2,-2.681301E-2,-1.3874638E-3,-2.09448E-3,-1.7735288E-2,2.061058E-2,-4.6127293E-2,-1.4412527E-2,1.390148E-2,-3.2138475E-3,7.1666026E-3,-8.600414E-3,5.4602115E-5],"categories":[],"categories_nodes":[],"categories_segments":[],"categories_sizes":[],"default_left":[0,0,0,0,0,0,0,0,0,0,0,0,0,0,0,0,0,0,0,0,0,0,0,0,0,0,0,0,0,0,0,0,0,0,0,0,0,0,0,0,0,0,0,0,0,0,0,0,0,0,0,0,0,0,0,0,0,0,0,0,0,0,0,0,0,0,0,0,0,0,0,0,0,0,0,0,0,0,0,0,0,0,0,0,0,0,0,0,0,0,0,0,0,0,0,0,0,0,0,0,0,0,0,0,0,0,0,0,0,0,0,0,0,0,0,0,0,0,0,0,0,0,0,0,0,0,0],"id":8,"left_children":[1,3,5,7,9,11,13,15,17,19,21,23,25,27,29,31,33,35,37,39,41,43,45,47,49,51,53,55,57,59,61,63,65,67,69,71,73,75,77,79,81,83,85,87,89,91,93,95,97,99,101,103,105,107,109,111,113,115,117,119,121,123,125,-1,-1,-1,-1,-1,-1,-1,-1,-1,-1,-1,-1,-1,-1,-1,-1,-1,-1,-1,-1,-1,-1,-1,-1,-1,-1,-1,-1,-1,-1,-1,-1,-1,-1,-1,-1,-1,-1,-1,-1,-1,-1,-1,-1,-1,-1,-1,-1,-1,-1,-1,-1,-1,-1,-1,-1,-1,-1,-1,-1,-1,-1,-1,-1],"loss_changes":[9.7487854E1,1.8654701E1,1.9855598E1,1.2866978E1,1.551886E1,1.5523033E1,1.3915539E1,8.795746E0,2.7333174E1,6.38118E0,1.2627338E1,8.689505E0,1.0631574E1,7.942608E0,1.9230217E1,7.1917095E0,7.0918713E0,9.101634E0,6.12829E0,4.72707E0,5.712405E0,1.1330219E1,1.0364815E1,5.6865425E0,5.68986E0,1.0114407E1,7.97715E0,1.137922E1,6.356079E0,7.860981E0,1.1079572E1,4.7615614E0,5.763873E0,8.929091E0,1.2956657E1,1.025724E1,5.622819E0,5.520253E0,6.0127077E0,1.9359245E0,3.9049778E0,5.352204E0,2.9379272E-1,7.427002E0,6.5529118E0,2.9376793E0,9.9073515E0,5.480466E0,4.641365E0,4.587033E0,6.2584476E0,6.9663982E0,6.208364E0,7.6660423E0,1.1415926E1,2.9949474E0,3.922224E0,8.553574E0,6.341134E0,3.3859825E0,3.6479015E0,1.1082128E1,6.2829704E0,0E0,0E0,0E0,0E0,0E0,0E0,0E0,0E0,0E0,0E0,0E0,0E0,0E0,0E0,0E0,0E0,0E0,0E0,0E0,0E0,0E0,0E0,0E0,0E0,0E0,0E0,0E0,0E0,0E0,0E0,0E0,0E0,0E0,0E0,0E0,0E0,0E0,0E0,0E0,0E0,0E0,0E0,0E0,0E0,0E0,0E0,0E0,0E0,0E0,0E0,0E0,0E0,0E0,0E0,0E0,0E0,0E0,0E0,0E0,0E0,0E0,0E0,0E0,0E0],"parents":[2147483647,0,0,1,1,2,2,3,3,4,4,5,5,6,6,7,7,8,8,9,9,10,10,11,11,12,12,13,13,14,14,15,15,16,16,17,17,18,18,19,19,20,20,21,21,22,22,23,23,24,24,25,25,26,26,27,27,28,28,29,29,30,30,31,31,32,32,33,33,34,34,35,35,36,36,37,37,38,38,39,39,40,40,41,41,42,42,43,43,44,44,45,45,46,46,47,47,48,48,49,49,50,50,51,51,52,52,53,53,54,54,55,55,56,56,57,57,58,58,59,59,60,60,61,61,62,62],"right_children":[2,4,6,8,10,12,14,16,18,20,22,24,26,28,30,32,34,36,38,40,42,44,46,48,50,52,54,56,58,60,62,64,66,68,70,72,74,76,78,80,82,84,86,88,90,92,94,96,98,100,102,104,106,108,110,112,114,116,118,120,122,124,126,-1,-1,-1,-1,-1,-1,-1,-1,-1,-1,-1,-1,-1,-1,-1,-1,-1,-1,-1,-1,-1,-1,-1,-1,-1,-1,-1,-1,-1,-1,-1,-1,-1,-1,-1,-1,-1,-1,-1,-1,-1,-1,-1,-1,-1,-1,-1,-1,-1,-1,-1,-1,-1,-1,-1,-1,-1,-1,-1,-1,-1,-1,-1,-1],"split_conditions":[4.8549355E1,-4.5603495E0,6.031149E1,3.691152E1,6.45728E3,1.6615404E0,-1.7707764E1,-6.2786095E1,3.290859E0,4.2059082E1,4.4032623E1,4.7028984E4,-1.5962821E1,-4.0733093E1,-5.7996595E-1,1.9767357E2,-7.33987E0,1.3995264E0,7.8397644E2,5.675179E-1,2.49236E0,2.0083547E0,-5.1247463E1,-5.5824398E1,6.7708176E-1,2.6773233E2,9.168907E-1,2.8830198E1,1.91815E2,5.7736835E1,1.8433564E4,6.604896E3,-3.5014614E1,2.2112078E1,9.1469485E-1,-1.6096807E1,-1.5754404E2,-2.796798E2,2.9771566E1,1.23339205E1,3.2591366E1,7.602161E-1,5.6628975E3,3.637209E1,6.3032074E2,-1.0248489E0,6.558372E3,1.7075533E1,-1.5224347E2,4.8130914E4,-4.6617575E2,4.2949504E4,2.8329742E2,1.22994316E2,1.1053771E1,6.926273E0,6.2161503E1,1.7310024E0,4.3802216E2,-5.73782E0,-1.0248489E0,1.7856148E2,1.5440282E2,1.1672092E-2,-4.7679406E-2,-6.333207E-3,6.533569E-2,1.07004E-2,2.1989488E-3,2.0063076E-2,1.4815953E-3,-4.6860245E-3,1.0618489E-2,2.330493E-2,-2.0618793E-2,1.7650336E-3,1.114595E-2,3.6255803E-2,-5.4744873E-3,2.1879777E-2,7.828806E-2,4.2844787E-2,1.9604424E-2,2.2584092E-2,1.5627232E-3,7.1507245E-2,2.285388E-2,1.82854E-2,8.992475E-3,-7.6112817E-3,3.3784166E-2,-1.8941127E-2,-6.247182E-2,-4.5849126E-2,3.8125028E-3,-9.248486E-4,4.1784924E-2,-1.1938643E-2,-5.4139006E-3,5.09233E-2,7.0829936E-3,-1.4443733E-2,5.3047566E-3,-2.290625E-2,8.861855E-4,3.33219E-2,-1.7359214E-3,4.909413E-4,4.0283818E-2,1.5989088E-2,1.4902519E-3,1.3732644E-2,-3.6917333E-2,-1.81979E-2,2.3950985E-2,-2.681301E-2,-1.3874638E-3,-2.09448E-3,-1.7735288E-2,2.061058E-2,-4.6127293E-2,-1.4412527E-2,1.390148E-2,-3.2138475E-3,7.1666026E-3,-8.600414E-3,5.4602115E-5],"split_indices":[0,1,0,0,9,1,1,7,2,0,0,5,2,7,2,6,2,4,6,4,2,4,7,7,4,1,4,2,6,1,9,11,2,0,2,1,2,1,7,1,0,4,5,0,6,2,9,2,1,5,1,11,1,2,7,2,0,4,6,2,2,1,2,0,0,0,0,0,0,0,0,0,0,0,0,0,0,0,0,0,0,0,0,0,0,0,0,0,0,0,0,0,0,0,0,0,0,0,0,0,0,0,0,0,0,0,0,0,0,0,0,0,0,0,0,0,0,0,0,0,0,0,0,0,0,0,0],"split_type":[0,0,0,0,0,0,0,0,0,0,0,0,0,0,0,0,0,0,0,0,0,0,0,0,0,0,0,0,0,0,0,0,0,0,0,0,0,0,0,0,0,0,0,0,0,0,0,0,0,0,0,0,0,0,0,0,0,0,0,0,0,0,0,0,0,0,0,0,0,0,0,0,0,0,0,0,0,0,0,0,0,0,0,0,0,0,0,0,0,0,0,0,0,0,0,0,0,0,0,0,0,0,0,0,0,0,0,0,0,0,0,0,0,0,0,0,0,0,0,0,0,0,0,0,0,0,0],"sum_hessian":[1.3211497E4,5.793479E3,7.418018E3,3.87362E3,1.9198591E3,3.875705E3,3.5423127E3,1.9346625E3,1.9389575E3,2.3252853E2,1.6873307E3,1.5941083E3,2.281597E3,5.4409644E2,2.9982163E3,4.2908943E1,1.8917535E3,1.264768E3,6.741896E2,1.0527819E2,1.2725035E2,1.0701561E3,6.1717456E2,1.2749858E3,3.1912234E2,6.0911566E2,1.6724812E3,5.970802E1,4.8438843E2,3.9519897E2,2.6030173E3,2.0710453E1,2.219849E1,1.5073481E3,3.8440536E2,1.1498672E3,1.1490073E2,6.297837E2,4.440588E1,9.402294E0,9.587589E1,1.22276085E2,4.9742646E0,9.509615E2,1.19194626E2,3.0699226E1,5.8647534E2,3.2734818E1,1.2422511E3,1.6042604E2,1.586963E2,1.4590907E2,4.632066E2,1.1278529E3,5.4462823E2,1.8484121E1,4.1223896E1,2.2313997E2,2.6124844E2,2.5987324E1,3.6921164E2,1.2869843E3,1.3160331E3,3.7375975E0,1.6972857E1,1.995662E1,2.2418706E0,4.3288483E2,1.0744634E3,2.2235315E2,1.6205222E2,1.0283077E3,1.2155954E2,6.9951324E0,1.07905594E2,2.9533386E2,3.3444983E2,3.3176914E1,1.1228968E1,3.2163446E0,6.1859493E0,2.5509563E1,7.036633E1,5.30373E1,6.9238785E1,3.2334416E0,1.7408228E0,3.3235E2,6.1861145E2,1.097194E2,9.475227E0,2.6703852E1,3.995374E0,9.223982E0,5.7725134E2,2.248835E1,1.0246467E1,4.0608386E2,8.3616724E2,5.2470975E0,1.5517894E2,7.8475204E1,8.022109E1,1.0217407E2,4.3734993E1,1.1991655E1,4.5121497E2,1.1166167E3,1.1236265E1,2.5471225E2,2.8991602E2,2.9985058E0,1.5485617E1,5.7463894E0,3.547751E1,1.8265724E2,4.0482723E1,1.1862855E2,1.426199E2,1.4994292E0,2.4487894E1,3.5822067E2,1.0990977E1,9.332314E2,3.5375287E2,1.0543716E3,2.6166153E2],"tree_param":{"num_deleted":"0","num_feature":"13","num_nodes":"127","size_leaf_vector":"1"}},{"base_weights":[6.324684E-3,1.3255584E-1,-6.729745E-2,1.7169826E-1,5.9371166E-2,-1.885525E-2,-1.3747332E-1,1.2317841E-1,2.8607434E-1,-1.4803919E-1,9.2135765E-2,3.4649525E-2,-7.398331E-2,-2.1221136E-1,-9.929912E-2,1.0902979E-1,3.0918452E-1,5.072884E-1,2.245295E-1,-4.3625575E-1,5.7404265E-3,1.6961397E-1,1.8848239E-2,2.0852901E-2,2.3289567E-1,-1.3810803E-1,-2.0677114E-2,1.2459153E-1,-2.4071561E-1,-2.9806778E-1,-7.876155E-2,-1.1183646E-1,1.2390376E-1,3.259628E-1,-4.308956E-2,9.983805E-2,5.847065E-1,1.8042152E-1,3.730292E-1,-2.4632259E-1,-1.0538015E0,2.5705093E-1,-3.7367666E-1,-3.545671E-1,1.8951087E-1,-1.3412417E-1,6.2464472E-2,5.5102434E-2,-3.7540335E-2,2.6995665E-1,-1.1359798E0,-1.7253156E-1,1.2537105E-1,-3.4082722E-2,3.9750645E-1,-9.957541E-2,3.6238444E-1,-1.8479678E-1,-2.9842487E-1,-7.294728E-2,-4.210101E-1,-3.140068E-2,-1.3597187E-1,9.749177E-4,-3.030253E-2,2.2165092E-2,5.786735E-3,8.913375E-3,2.2916583E-2,-2.5339504E-3,5.851921E-2,3.3696197E-2,5.873381E-3,-1.5497686E-2,9.850389E-3,-1.7758777E-2,2.0444876E-2,-4.282918E-2,-1.5160304E-3,-8.0556236E-2,-3.415703E-2,1.7538605E-2,-2.9955838E-2,2.040264E-2,-2.6923424E-2,-3.266555E-2,3.8055622E-3,-3.1781816E-3,1.1695735E-2,-4.5564267E-4,-1.8374745E-2,-1.4672786E-2,5.4684714E-3,-1.3732431E-4,6.47619E-3,1.2957066E-2,-2.9239366E-3,2.2563417E-2,4.2818702E-4,-7.037803E-2,-1.1928509E-2,-1.4834336E-2,-6.816277E-3,-2.6793142E-3,2.210488E-2,-4.589863E-5,-1.017629E-2,7.3023923E-3,4.4070058E-2,-1.00473175E-2,4.0096726E-2,1.2062385E-2,6.0802866E-2,-8.541413E-3,-4.6594772E-2,-1.7449386E-2,-7.625857E-3,8.2646013E-4,-6.734183E-2,3.938724E-2,-2.235567E-2,3.6208455E-3,-5.1642847E-3,-1.5482885E-2,-4.065133E-3],"categories":[],"categories_nodes":[],"categories_segments":[],"categories_sizes":[],"default_left":[0,0,0,0,0,0,0,0,0,0,0,0,0,0,0,0,0,0,0,0,0,0,0,0,0,0,0,0,0,0,0,0,0,0,0,0,0,0,0,0,0,0,0,0,0,0,0,0,0,0,0,0,0,0,0,0,0,0,0,0,0,0,0,0,0,0,0,0,0,0,0,0,0,0,0,0,0,0,0,0,0,0,0,0,0,0,0,0,0,0,0,0,0,0,0,0,0,0,0,0,0,0,0,0,0,0,0,0,0,0,0,0,0,0,0,0,0,0,0,0,0,0,0,0,0],"id":9,"left_children":[1,3,5,7,9,11,13,15,17,19,21,23,25,27,29,31,33,35,37,39,41,43,45,47,49,51,53,55,57,59,61,63,65,67,-1,69,71,73,75,77,79,81,83,85,87,89,91,93,95,97,99,101,103,105,107,109,111,113,115,117,119,121,123,-1,-1,-1,-1,-1,-1,-1,-1,-1,-1,-1,-1,-1,-1,-1,-1,-1,-1,-1,-1,-1,-1,-1,-1,-1,-1,-1,-1,-1,-1,-1,-1,-1,-1,-1,-1,-1,-1,-1,-1,-1,-1,-1,-1,-1,-1,-1,-1,-1,-1,-1,-1,-1,-1,-1,-1,-1,-1,-1,-1,-1,-1],"loss_changes":[1.2303956E2,1.3960991E1,2.8424969E1,1.7596031E1,1.1573544E1,1.4598502E1,9.721924E0,5.8416786E0,1.275956E1,1.0304729E1,8.341555E0,6.8654127E0,8.329314E0,1.1105511E1,9.211582E0,6.834673E0,3.370759E0,6.4086533E0,4.789856E0,9.227522E0,1.4642613E1,7.516611E0,5.0548573E0,4.7009845E0,8.593045E0,1.0055832E1,7.4820747E0,4.8696556E0,3.3783684E0,5.822855E0,5.555043E0,8.548857E0,5.025448E0,2.9636898E0,0E0,5.52832E0,7.0939407E0,4.726982E0,4.5563107E0,8.300131E0,2.7665806E0,7.62153E0,8.102802E0,3.4552553E0,7.755125E0,4.9015965E0,9.868954E0,6.3777494E0,5.414672E0,7.5714874E0,7.603569E-1,4.3598843E0,7.3024836E0,7.259004E0,4.916061E0,4.4983954E0,4.2791386E0,5.5075016E0,3.7977104E0,8.675205E0,4.66173E0,8.394384E0,8.795498E0,0E0,0E0,0E0,0E0,0E0,0E0,0E0,0E0,0E0,0E0,0E0,0E0,0E0,0E0,0E0,0E0,0E0,0E0,0E0,0E0,0E0,0E0,0E0,0E0,0E0,0E0,0E0,0E0,0E0,0E0,0E0,0E0,0E0,0E0,0E0,0E0,0E0,0E0,0E0,0E0,0E0,0E0,0E0,0E0,0E0,0E0,0E0,0E0,0E0,0E0,0E0,0E0,0E0,0E0,0E0,0E0,0E0,0E0,0E0,0E0,0E0,0E0],"parents":[2147483647,0,0,1,1,2,2,3,3,4,4,5,5,6,6,7,7,8,8,9,9,10,10,11,11,12,12,13,13,14,14,15,15,16,16,17,17,18,18,19,19,20,20,21,21,22,22,23,23,24,24,25,25,26,26,27,27,28,28,29,29,30,30,31,31,32,32,33,33,35,35,36,36,37,37,38,38,39,39,40,40,41,41,42,42,43,43,44,44,45,45,46,46,47,47,48,48,49,49,50,50,51,51,52,52,53,53,54,54,55,55,56,56,57,57,58,58,59,59,60,60,61,61,62,62],"right_children":[2,4,6,8,10,12,14,16,18,20,22,24,26,28,30,32,34,36,38,40,42,44,46,48,50,52,54,56,58,60,62,64,66,68,-1,70,72,74,76,78,80,82,84,86,88,90,92,94,96,98,100,102,104,106,108,110,112,114,116,118,120,122,124,-1,-1,-1,-1,-1,-1,-1,-1,-1,-1,-1,-1,-1,-1,-1,-1,-1,-1,-1,-1,-1,-1,-1,-1,-1,-1,-1,-1,-1,-1,-1,-1,-1,-1,-1,-1,-1,-1,-1,-1,-1,-1,-1,-1,-1,-1,-1,-1,-1,-1,-1,-1,-1,-1,-1,-1,-1,-1,-1,-1,-1,-1],"split_conditions":[-2.2523633E-1,4.3042095E1,6.031149E1,-4.5603495E0,-4.6581963E1,1.9628112E-1,5.7736835E1,8.3782574E2,6.568357E1,-8.776277E-1,-5.3916276E-1,1.6588587E-1,-6.731545E1,-4.5085285E1,-7.9452715E0,-1.6930124E2,2.928982E2,-3.375957E1,4.8742072E2,2.2567347E1,5.7292145E4,-2.7413108E0,4.602119E1,5.14809E1,8.5458534E1,8.179607E2,8.182522E4,-5.286113E1,6.6111626E1,4.1721702E-1,2.738319E4,6.707075E4,3.808475E3,5.7292145E4,-4.308956E-2,6.935584E1,9.743808E3,-1.5754404E2,-3.458082E2,-3.6317444E1,4.8742072E2,-5.1146175E1,4.4211952E1,-2.1234152E0,-1.316799E2,9.572763E0,-4.8583463E-1,-1.6096807E1,2.089E1,5.266351E1,-7.374374E2,1.1104429E2,6.240907E0,4.3797355E4,6.511164E2,3.4614806E0,5.144657E2,9.570787E4,7.486014E1,-8.590256E0,6.0975716E1,6.954188E1,3.7091297E1,9.749177E-4,-3.030253E-2,2.2165092E-2,5.786735E-3,8.913375E-3,2.2916583E-2,-2.5339504E-3,5.851921E-2,3.3696197E-2,5.873381E-3,-1.5497686E-2,9.850389E-3,-1.7758777E-2,2.0444876E-2,-4.282918E-2,-1.5160304E-3,-8.0556236E-2,-3.415703E-2,1.7538605E-2,-2.9955838E-2,2.040264E-2,-2.6923424E-2,-3.266555E-2,3.8055622E-3,-3.1781816E-3,1.1695735E-2,-4.5564267E-4,-1.8374745E-2,-1.4672786E-2,5.4684714E-3,-1.3732431E-4,6.47619E-3,1.2957066E-2,-2.9239366E-3,2.2563417E-2,4.2818702E-4,-7.037803E-2,-1.1928509E-2,-1.4834336E-2,-6.816277E-3,-2.6793142E-3,2.210488E-2,-4.589863E-5,-1.017629E-2,7.3023923E-3,4.4070058E-2,-1.00473175E-2,4.0096726E-2,1.2062385E-2,6.0802866E-2,-8.541413E-3,-4.6594772E-2,-1.7449386E-2,-7.625857E-3,8.2646013E-4,-6.734183E-2,3.938724E-2,-2.235567E-2,3.6208455E-3,-5.1642847E-3,-1.5482885E-2,-4.065133E-3],"split_indices":[12,0,0,1,2,12,1,6,6,12,12,12,1,7,2,2,7,7,6,7,8,12,0,0,2,6,5,7,0,12,8,8,8,8,0,1,11,2,2,7,6,2,0,7,1,7,12,1,6,0,1,6,7,10,1,12,6,5,0,2,6,0,2,0,0,0,0,0,0,0,0,0,0,0,0,0,0,0,0,0,0,0,0,0,0,0,0,0,0,0,0,0,0,0,0,0,0,0,0,0,0,0,0,0,0,0,0,0,0,0,0,0,0,0,0,0,0,0,0,0,0,0,0,0,0],"split_type":[0,0,0,0,0,0,0,0,0,0,0,0,0,0,0,0,0,0,0,0,0,0,0,0,0,0,0,0,0,0,0,0,0,0,0,0,0,0,0,0,0,0,0,0,0,0,0,0,0,0,0,0,0,0,0,0,0,0,0,0,0,0,0,0,0,0,0,0,0,0,0,0,0,0,0,0,0,0,0,0,0,0,0,0,0,0,0,0,0,0,0,0,0,0,0,0,0,0,0,0,0,0,0,0,0,0,0,0,0,0,0,0,0,0,0,0,0,0,0,0,0,0,0,0,0],"sum_hessian":[1.3237486E4,4.876142E3,8.361345E3,3.1760847E3,1.7000574E3,4.947422E3,3.4139226E3,2.2315205E3,9.4456396E2,2.3144136E2,1.468616E3,2.510864E3,2.4365579E3,1.1526624E3,2.26126E3,2.075252E3,1.5626859E2,2.0401581E2,7.4054816E2,7.988415E1,1.515572E2,7.132583E2,7.553577E2,2.348527E3,1.6233682E2,1.1053209E3,1.331237E3,8.967709E1,1.0629852E3,2.1049687E2,2.0507632E3,1.305262E2,1.9447258E3,1.5477257E2,1.4960208E0,3.294043E1,1.7107538E2,5.726672E2,1.67881E2,6.2163834E1,1.7720314E1,9.1363945E1,6.0193264E1,2.546871E1,6.8778955E2,1.6712743E2,5.882303E2,1.4803248E3,8.682023E2,1.5883919E2,3.4976277E0,9.779031E2,1.2741787E2,1.2907773E3,4.0459633E1,4.6460304E1,4.321679E1,5.4200165E2,5.2098364E2,7.491425E1,1.3558261E2,1.1228088E3,9.2795447E2,1.0388093E2,2.6645264E1,4.7170345E1,1.8975555E3,7.4260506E1,8.051206E1,2.9715183E1,3.225246E0,1.4327519E2,2.7800182E1,1.8157286E1,5.545099E2,7.4630265E0,1.6041797E2,1.5475618E1,4.6688213E1,5.741224E0,1.197909E1,8.2881546E1,8.482402E0,1.02228E1,4.9970467E1,1.4732468E1,1.0736243E1,1.0260017E2,5.851894E2,1.095064E2,5.7621014E1,6.788147E1,5.203488E2,8.33441E2,6.4688385E2,5.6484344E1,8.1171796E2,9.335699E1,6.548221E1,2.2486527E0,1.248975E0,2.1916467E2,7.587384E2,8.194691E1,4.547096E1,1.0803317E3,2.104457E2,2.7480865E1,1.2978768E1,4.246266E1,3.9976444E0,3.896958E1,4.24721E0,5.332599E2,8.741723E0,3.8587186E2,1.3511182E2,7.0919945E1,3.9943092E0,2.2492552E0,1.3333336E2,4.593705E2,6.634383E2,2.2103981E2,7.069146E2],"tree_param":{"num_deleted":"0","num_feature":"13","num_nodes":"125","size_leaf_vector":"1"}},{"base_weights":[-1.0574622E-3,7.7405274E-2,-1.1360096E-1,1.2853359E-1,1.5024014E-2,-9.094146E-1,-1.110391E-1,9.839284E-2,1.844062E-1,1.0192327E-1,-1.4389689E-2,-2.4256287E-3,-1.100392E0,-6.4163834E-2,-1.4695317E-1,1.05238706E-1,-5.4306847E-1,1.9492106E-1,-2.5427133E-1,-2.8788038E-2,1.7343903E-1,-9.7861373E-1,-1.1523473E-2,-2.7576977E-2,3.3486247E-2,-6.1492896E-1,-7.1404845E-2,6.017578E-1,-6.76339E-2,-5.004925E-1,-1.4239597E-1,5.7117045E-1,1.0116944E-1,-9.119313E-1,3.095414E-2,1.8179598E-1,4.9876523E-1,5.5740774E-2,-3.47354E-1,-1.1535862E-3,-6.956769E-1,5.848963E-1,1.2994882E-1,-1.4816788E-1,-7.0246354E-2,-1.5434774E-2,5.457679E-1,-9.6528214E-1,2.3690574E-2,-6.388756E-2,1.0365857E0,3.5297032E-2,-8.8828065E-2,-2.4104653E-1,-1.0210632E0,-1.3559426E-1,-3.7425226E-1,4.5083206E-2,1.6363427E-2,1.1961045E-3,6.5903747E-3,-1.1352099E-2,-5.9745368E-2,-2.0629516E-2,3.3539306E-2,9.704485E-3,-6.8407315E-3,3.436905E-2,5.7927454E-3,-4.3135296E-4,-4.0822815E-2,9.76712E-3,-5.917985E-3,4.3937277E-2,-6.1481275E-2,1.1092682E-2,4.23814E-2,4.0673427E-4,1.1621534E-2,-3.321583E-2,1.8785236E-2,3.9163028E-4,-4.8171505E-3,5.4303695E-2,3.4008303E-3,-5.6126166E-2,-1.0213789E-2,-3.3169597E-2,6.6907205E-2,9.243889E-3,-2.8262879E-3,-6.9038826E-3,-1.8226972E-3,-3.0576417E-2,2.8389404E-2,-5.855907E-2,9.237942E-3,-7.2225644E-3,6.9451854E-3,-1.5998555E-2,-7.356583E-2],"categories":[],"categories_nodes":[],"categories_segments":[],"categories_sizes":[],"default_left":[0,0,0,0,0,0,0,0,0,0,0,0,0,0,0,0,0,0,0,0,0,0,0,0,0,0,0,0,0,0,0,0,0,0,0,0,0,0,0,0,0,0,0,0,0,0,0,0,0,0,0,0,0,0,0,0,0,0,0,0,0,0,0,0,0,0,0,0,0,0,0,0,0,0,0,0,0,0,0,0,0,0,0,0,0,0,0,0,0,0,0,0,0,0,0,0,0,0,0,0,0],"id":10,"left_children":[1,3,5,7,9,11,13,15,17,19,21,23,25,27,29,31,33,35,37,39,41,43,45,-1,-1,47,-1,49,51,53,55,57,59,61,63,65,67,-1,69,71,73,75,77,79,-1,81,83,85,-1,-1,87,89,91,93,95,97,99,-1,-1,-1,-1,-1,-1,-1,-1,-1,-1,-1,-1,-1,-1,-1,-1,-1,-1,-1,-1,-1,-1,-1,-1,-1,-1,-1,-1,-1,-1,-1,-1,-1,-1,-1,-1,-1,-1,-1,-1,-1,-1,-1,-1],"loss_changes":[1.1634522E2,2.475824E1,1.0933388E1,7.166397E0,8.942205E0,2.9814806E0,9.074722E0,1.2236225E1,6.9400597E0,8.274978E0,7.2135596E0,1.8452917E0,1.3855362E0,5.453925E0,4.84993E0,5.1466827E0,6.2635307E0,5.7295036E0,4.898815E0,5.7807646E0,1.0159E1,2.5306015E0,5.6920333E0,0E0,0E0,3.3145943E0,0E0,1.1331705E1,5.089038E0,4.9501705E0,4.7071037E0,1.6032872E0,6.440012E0,3.2096596E0,3.8206718E0,5.512451E0,4.2435265E0,0E0,5.381301E0,6.9838305E0,1.1572765E1,4.999922E0,6.4718924E0,1.2614264E0,0E0,4.8770113E0,4.62421E0,4.8821068E-1,0E0,0E0,6.2685547E0,5.4877787E0,4.982379E0,8.433788E0,2.4769182E0,7.149845E0,4.6157074E0,0E0,0E0,0E0,0E0,0E0,0E0,0E0,0E0,0E0,0E0,0E0,0E0,0E0,0E0,0E0,0E0,0E0,0E0,0E0,0E0,0E0,0E0,0E0,0E0,0E0,0E0,0E0,0E0,0E0,0E0,0E0,0E0,0E0,0E0,0E0,0E0,0E0,0E0,0E0,0E0,0E0,0E0,0E0,0E0],"parents":[2147483647,0,0,1,1,2,2,3,3,4,4,5,5,6,6,7,7,8,8,9,9,10,10,11,11,12,12,13,13,14,14,15,15,16,16,17,17,18,18,19,19,20,20,21,21,22,22,25,25,27,27,28,28,29,29,30,30,31,31,32,32,33,33,34,34,35,35,36,36,38,38,39,39,40,40,41,41,42,42,43,43,45,45,46,46,47,47,50,50,51,51,52,52,53,53,54,54,55,55,56,56],"right_children":[2,4,6,8,10,12,14,16,18,20,22,24,26,28,30,32,34,36,38,40,42,44,46,-1,-1,48,-1,50,52,54,56,58,60,62,64,66,68,-1,70,72,74,76,78,80,-1,82,84,86,-1,-1,88,90,92,94,96,98,100,-1,-1,-1,-1,-1,-1,-1,-1,-1,-1,-1,-1,-1,-1,-1,-1,-1,-1,-1,-1,-1,-1,-1,-1,-1,-1,-1,-1,-1,-1,-1,-1,-1,-1,-1,-1,-1,-1,-1,-1,-1,-1,-1,-1],"split_conditions":[1.9628112E-1,-3.3240092E-1,-7.173207E1,-7.628434E0,-3.9124554E-1,3.6301888E-3,-8.8848E0,1.2786021E0,8.7836086E4,-2.9101997E1,-1.5176643E3,-8.268418E0,9.527857E1,-1.5754404E2,-3.4075708E0,3.808475E3,8.723003E2,1.0617408E2,-1.7585449E0,9.8929945E4,-2.254646E1,-1.6152405E1,4.911624E0,-2.7576977E-2,3.3486247E-2,9.583489E3,-7.1404845E-2,-3.729092E1,3.571939E-1,2.4614141E1,4.801122E0,-2.7181892E0,1.1053067E4,-1.5948861E0,-3.178761E1,6.2713234E4,3.1079323E0,5.5740774E-2,8.610257E2,-7.317645E1,-1.8302472E0,1.46485E2,-6.514423E0,5.4647664E4,-7.0246354E-2,2.77445E2,3.712198E2,2.5843306E0,2.3690574E-2,-6.388756E-2,5.9522784E2,1.06517295E4,2.238715E1,1.056115E1,-1.0474207E2,2.0340672E2,5.7831508E4,4.5083206E-2,1.6363427E-2,1.1961045E-3,6.5903747E-3,-1.1352099E-2,-5.9745368E-2,-2.0629516E-2,3.3539306E-2,9.704485E-3,-6.8407315E-3,3.436905E-2,5.7927454E-3,-4.3135296E-4,-4.0822815E-2,9.76712E-3,-5.917985E-3,4.3937277E-2,-6.1481275E-2,1.1092682E-2,4.23814E-2,4.0673427E-4,1.1621534E-2,-3.321583E-2,1.8785236E-2,3.9163028E-4,-4.8171505E-3,5.4303695E-2,3.4008303E-3,-5.6126166E-2,-1.0213789E-2,-3.3169597E-2,6.6907205E-2,9.243889E-3,-2.8262879E-3,-6.9038826E-3,-1.8226972E-3,-3.0576417E-2,2.8389404E-2,-5.855907E-2,9.237942E-3,-7.2225644E-3,6.9451854E-3,-1.5998555E-2,-7.356583E-2],"split_indices":[12,12,7,2,3,3,7,3,9,2,1,2,6,2,3,8,1,2,12,5,2,7,3,0,0,8,0,7,12,7,12,3,5,12,2,5,3,0,6,2,3,6,2,5,0,6,1,3,0,0,6,9,2,7,1,2,5,0,0,0,0,0,0,0,0,0,0,0,0,0,0,0,0,0,0,0,0,0,0,0,0,0,0,0,0,0,0,0,0,0,0,0,0,0,0,0,0,0,0,0,0],"split_type":[0,0,0,0,0,0,0,0,0,0,0,0,0,0,0,0,0,0,0,0,0,0,0,0,0,0,0,0,0,0,0,0,0,0,0,0,0,0,0,0,0,0,0,0,0,0,0,0,0,0,0,0,0,0,0,0,0,0,0,0,0,0,0,0,0,0,0,0,0,0,0,0,0,0,0,0,0,0,0,0,0,0,0,0,0,0,0,0,0,0,0,0,0,0,0,0,0,0,0,0,0],"sum_hessian":[1.3173432E4,7.762151E3,5.411281E3,4.265249E3,3.4969019E3,1.6228075E1,5.3950522E3,2.7724167E3,1.4928323E3,8.8368756E2,2.6132144E3,2.9988158E0,1.3229259E1,2.341586E3,3.0534666E3,2.7439683E3,2.844853E1,1.4584302E3,3.4402077E1,3.127193E2,5.7096826E2,6.7359676E0,2.6064783E3,1.7492254E0,1.2495904E0,6.490574E0,6.7386847E0,1.1244783E1,2.3303413E3,3.7473984E1,3.0159924E3,2.2550676E1,2.7214175E3,1.6960905E1,1.1487624E1,1.3995715E3,5.885859E1,1.4912802E0,3.2910797E1,3.0123837E2,1.1480945E1,5.3391033E1,5.175772E2,2.742064E0,3.9939039E0,2.589278E3,1.7200315E1,4.9962063E0,1.4943678E0,1.748502E0,9.496282E0,3.977885E2,1.9325527E3,2.598595E1,1.1488033E1,2.931577E3,8.441551E1,8.430411E0,1.4120265E1,7.733529E2,1.9480647E3,5.4858317E0,1.1475073E1,6.9942365E0,4.4933877E0,1.3479513E3,5.16203E1,3.8901264E1,1.9957321E1,1.9702507E1,1.320829E1,1.1230031E2,1.8893805E2,2.7440314E0,8.736914E0,2.3190624E1,3.0200407E1,2.3697655E2,2.8060068E2,1.2461748E0,1.4958892E0,2.0116703E3,5.7760767E2,7.474188E0,9.726128E0,3.7469501E0,1.2492561E0,1.2499651E0,8.246317E0,1.5092155E2,2.4686696E2,9.951423E2,9.3741046E2,1.798978E1,7.9961715E0,1.0241722E1,1.2463105E0,2.8404016E3,9.117531E1,8.1666435E1,2.7490768E0],"tree_param":{"num_deleted":"0","num_feature":"13","num_nodes":"101","size_leaf_vector":"1"}},{"base_weights":[-2.9828434E-3,8.911623E-2,-8.814336E-2,1.2208026E-1,1.515952E-2,-9.688803E-1,-8.560058E-2,9.4046235E-2,1.7497547E-1,4.4477156E-1,6.9089253E-3,3.8559182E-4,-1.0494981E0,-5.2384254E-2,-1.2502432E-1,9.925062E-2,-3.6855015E-1,2.1396212E-1,7.603606E-2,6.275587E-1,-2.9576305E-1,5.1521206E-1,5.030863E-4,-1.1519605E0,2.826866E-3,-5.8386646E-2,4.089306E-1,-7.207443E-2,-1.6883785E-1,1.4301769E-2,1.2349831E-1,-1.0770447E0,-2.523925E-2,2.060031E-1,9.4546837E-1,-7.240261E-2,2.0681994E-1,-2.4554862E-1,8.1186247E-1,-9.7784525E-1,5.3670377E-1,1.1500578E0,1.2591282E-1,1.4575324E-2,-3.1726623E-1,-7.913528E-1,-7.138114E-2,-6.3072317E-3,-1.0368887E-1,-3.5333414E-2,4.5376527E-1,5.330278E-1,-7.966668E-2,-1.5630442E-1,-4.1361707E-1,3.3160623E-3,-1.6927205E-2,5.665707E-3,1.9391123E-2,-1.4755547E-2,-6.749534E-2,-2.1139253E-2,3.1466093E-2,1.0099877E-2,5.3647757E-2,3.6084645E-3,5.749604E-2,-4.738915E-2,-2.3900298E-3,1.3847837E-2,-1.9661924E-2,3.715336E-2,-3.7023433E-2,1.624797E-2,6.457662E-2,-6.868519E-2,-9.51534E-3,-2.2858472E-3,5.371315E-2,5.2363076E-3,7.4158005E-2,-2.123156E-2,2.3815693E-2,2.7348215E-4,2.1308044E-2,-2.370487E-2,1.2288986E-2,-4.923133E-2,1.3517319E-2,-1.9481691E-3,1.2510178E-2,-7.3447498E-3,1.8641513E-4,5.7967257E-2,1.8035121E-2,-2.1652412E-2,4.0039707E-2,-2.2293692E-2,-3.3156667E-3,-1.9804692E-2,-7.2034732E-3,-2.7898723E-2,-2.7988998E-3],"categories":[],"categories_nodes":[],"categories_segments":[],"categories_sizes":[],"default_left":[0,0,0,0,0,0,0,0,0,0,0,0,0,0,0,0,0,0,0,0,0,0,0,0,0,0,0,0,0,0,0,0,0,0,0,0,0,0,0,0,0,0,0,0,0,0,0,0,0,0,0,0,0,0,0,0,0,0,0,0,0,0,0,0,0,0,0,0,0,0,0,0,0,0,0,0,0,0,0,0,0,0,0,0,0,0,0,0,0,0,0,0,0,0,0,0,0,0,0,0,0,0,0],"id":11,"left_children":[1,3,5,7,9,11,13,15,17,19,21,-1,23,25,27,29,31,33,35,37,39,41,43,45,-1,47,49,51,53,55,57,59,61,63,65,67,69,71,73,75,77,79,81,83,85,87,-1,89,91,-1,93,95,97,99,101,-1,-1,-1,-1,-1,-1,-1,-1,-1,-1,-1,-1,-1,-1,-1,-1,-1,-1,-1,-1,-1,-1,-1,-1,-1,-1,-1,-1,-1,-1,-1,-1,-1,-1,-1,-1,-1,-1,-1,-1,-1,-1,-1,-1,-1,-1,-1,-1],"loss_changes":[1.0376505E2,1.5493629E1,1.5311291E1,6.502693E0,6.946853E0,1.5584297E0,8.970406E0,6.9596443E0,5.8535194E0,5.184473E0,6.267107E0,0E0,2.1273746E0,1.0330669E1,7.2583923E0,5.85713E0,7.80585E0,6.157345E0,8.395507E0,5.0171213E0,5.061969E0,5.775369E0,8.50917E0,5.304508E-1,0E0,8.670492E0,2.7182255E0,6.569633E0,5.1943703E0,1.1636336E1,5.9123154E0,1.8392086E0,6.177276E0,3.5357132E0,1.9639797E0,4.3251805E0,9.778252E0,3.479155E0,5.4082203E0,1.218276E0,1.3779203E0,2.9724293E0,3.2833743E0,6.8266773E0,7.242114E0,2.211372E0,0E0,1.4340679E1,9.122435E0,0E0,2.6477327E0,4.9346933E0,6.836316E0,4.7318115E0,4.2481565E0,0E0,0E0,0E0,0E0,0E0,0E0,0E0,0E0,0E0,0E0,0E0,0E0,0E0,0E0,0E0,0E0,0E0,0E0,0E0,0E0,0E0,0E0,0E0,0E0,0E0,0E0,0E0,0E0,0E0,0E0,0E0,0E0,0E0,0E0,0E0,0E0,0E0,0E0,0E0,0E0,0E0,0E0,0E0,0E0,0E0,0E0,0E0,0E0],"parents":[2147483647,0,0,1,1,2,2,3,3,4,4,5,5,6,6,7,7,8,8,9,9,10,10,12,12,13,13,14,14,15,15,16,16,17,17,18,18,19,19,20,20,21,21,22,22,23,23,25,25,26,26,27,27,28,28,29,29,30,30,31,31,32,32,33,33,34,34,35,35,36,36,37,37,38,38,39,39,40,40,41,41,42,42,43,43,44,44,45,45,47,47,48,48,50,50,51,51,52,52,53,53,54,54],"right_children":[2,4,6,8,10,12,14,16,18,20,22,-1,24,26,28,30,32,34,36,38,40,42,44,46,-1,48,50,52,54,56,58,60,62,64,66,68,70,72,74,76,78,80,82,84,86,88,-1,90,92,-1,94,96,98,100,102,-1,-1,-1,-1,-1,-1,-1,-1,-1,-1,-1,-1,-1,-1,-1,-1,-1,-1,-1,-1,-1,-1,-1,-1,-1,-1,-1,-1,-1,-1,-1,-1,-1,-1,-1,-1,-1,-1,-1,-1,-1,-1,-1,-1,-1,-1,-1,-1],"split_conditions":[-7.5567625E-3,-3.1111014E-1,-7.173207E1,-7.071186E0,-5.959083E1,-2.904724E2,6.808808E-1,1.2786021E0,3.0414856E2,3.5364072E2,-1.4781944E2,3.8559182E-4,3.5769174E0,4.2248955E0,-7.4595394E0,-3.375957E1,1.5494018E0,5.237333E2,5.02745E2,-5.563032E-1,5.650043E2,5.561182E4,9.044479E2,9.772857E1,2.826866E-3,1.9107934E4,3.7247512E3,-1.0869085E2,4.801122E0,2.993973E2,9.510624E4,-2.0406282E1,5.7782826E0,7.273431E1,-3.2573948E1,9.744499E3,-3.9529318E-1,-1.01303215E2,2.607154E4,-1.2412105E2,-1.3543445E-1,-4.533934E0,-2.0513315E0,2.5175421E0,1.6436587E3,9.677898E3,-7.138114E-2,1.3532129E2,4.3255356E2,-3.5333414E-2,5.025291E3,5.414257E2,-1.8876386E0,-4.8189163E0,6.397886E2,3.3160623E-3,-1.6927205E-2,5.665707E-3,1.9391123E-2,-1.4755547E-2,-6.749534E-2,-2.1139253E-2,3.1466093E-2,1.0099877E-2,5.3647757E-2,3.6084645E-3,5.749604E-2,-4.738915E-2,-2.3900298E-3,1.3847837E-2,-1.9661924E-2,3.715336E-2,-3.7023433E-2,1.624797E-2,6.457662E-2,-6.868519E-2,-9.51534E-3,-2.2858472E-3,5.371315E-2,5.2363076E-3,7.4158005E-2,-2.123156E-2,2.3815693E-2,2.7348215E-4,2.1308044E-2,-2.370487E-2,1.2288986E-2,-4.923133E-2,1.3517319E-2,-1.9481691E-3,1.2510178E-2,-7.3447498E-3,1.8641513E-4,5.7967257E-2,1.8035121E-2,-2.1652412E-2,4.0039707E-2,-2.2293692E-2,-3.3156667E-3,-1.9804692E-2,-7.2034732E-3,-2.7898723E-2,-2.7988998E-3],"split_indices":[12,12,7,2,7,1,12,3,6,6,2,0,3,3,7,7,3,1,6,3,6,11,1,6,0,10,9,2,12,1,9,7,7,2,7,9,12,1,9,1,12,3,3,3,1,9,0,1,6,0,5,6,3,7,6,0,0,0,0,0,0,0,0,0,0,0,0,0,0,0,0,0,0,0,0,0,0,0,0,0,0,0,0,0,0,0,0,0,0,0,0,0,0,0,0,0,0,0,0,0,0,0,0],"split_type":[0,0,0,0,0,0,0,0,0,0,0,0,0,0,0,0,0,0,0,0,0,0,0,0,0,0,0,0,0,0,0,0,0,0,0,0,0,0,0,0,0,0,0,0,0,0,0,0,0,0,0,0,0,0,0,0,0,0,0,0,0,0,0,0,0,0,0,0,0,0,0,0,0,0,0,0,0,0,0,0,0,0,0,0,0,0,0,0,0,0,0,0,0,0,0,0,0,0,0,0,0,0,0],"sum_hessian":[1.3227929E4,6.3550483E3,6.87288E3,4.3953154E3,1.959733E3,1.8691616E1,6.8541885E3,2.8745864E3,1.5207289E3,3.5930088E1,1.9238029E3,1.4942933E0,1.719732E1,3.7212188E3,3.1329695E3,2.8433826E3,3.120371E1,1.0900405E3,4.3068842E2,2.8939478E1,6.990611E0,2.2954262E1,1.9008486E3,1.5701245E1,1.4960761E0,3.6742844E3,4.6934456E1,1.4197754E3,1.7131942E3,6.317417E2,2.211641E3,9.487345E0,2.1716366E1,1.079576E3,1.0464518E1,2.0193744E2,2.2875099E2,4.98615E0,2.3953327E1,3.7463782E0,3.2442331E0,7.982579E0,1.49716835E1,1.8211539E3,7.969466E1,8.4795065E0,7.221739E0,1.709818E3,1.9644664E3,1.2430341E0,4.569142E1,1.6735676E1,1.4030397E3,1.6313049E3,8.1889175E1,5.512795E2,8.046217E1,2.1309656E3,8.067553E1,2.9927208E0,6.4946237E0,1.3730986E1,7.9853806E0,1.0758383E3,3.7376852E0,2.2418137E0,8.222704E0,4.4944067E0,1.9744302E2,2.05294E2,2.345699E1,1.496154E0,3.4899957E0,1.2719492E1,1.1233836E1,1.9978517E0,1.7485263E0,1.9962943E0,1.2479389E0,2.2466397E0,5.7359395E0,5.740487E0,9.231196E0,1.7827273E3,3.8426743E1,6.2456085E1,1.7238575E1,7.235023E0,1.2444838E0,1.5174774E3,1.9234055E2,1.4006995E3,5.63767E2,3.9891322E0,4.170229E1,3.49799E0,1.3237686E1,4.8220913E1,1.3548187E3,7.7671394E1,1.5536335E3,5.794151E1,2.3947662E1],"tree_param":{"num_deleted":"0","num_feature":"13","num_nodes":"103","size_leaf_vector":"1"}},{"base_weights":[1.0504447E-2,1.06129214E-1,-6.361578E-2,1.2890156E-1,3.445116E-2,-1.0347114E-2,-9.09486E-2,1.626272E-1,6.918341E-2,5.117389E-2,-3.0721566E-1,-3.8636774E-2,8.231615E-2,-1.00202665E-1,6.99E-2,1.4517115E-1,3.050109E-1,-5.121672E-1,7.608799E-2,9.873033E-2,-5.1636823E-2,-1.3033721E-1,-5.961934E-1,-1.3679868E-1,-1.2381732E-2,-3.711203E-1,1.0971757E-1,-7.917949E-2,-1.8623927E-1,5.97956E-1,3.4668088E-2,-1.1796129E-1,1.540401E-1,4.1400856E-1,1.01552315E-1,-1.1625435E-1,-8.467677E-1,6.392056E-2,3.4247217E-1,1.600766E-2,2.9356274E-1,4.590586E-1,-9.0066954E-2,-2.7257174E-1,4.176224E-1,-7.469361E-1,9.8373875E-2,4.7074836E-2,-2.1188927E-1,1.2728098E-1,-4.224373E-2,-9.19025E-2,-1.0810409E0,5.0604486E-1,8.807088E-2,-1.1196828E-1,-2.8693844E-2,-5.7490295E-1,-1.6688582E-1,-2.3936392E-1,7.9816115E-1,-1.815938E-3,5.8412147E-1,1.5559229E-3,-2.8402392E-2,1.595428E-2,6.9352253E-3,2.6287323E-2,4.5311516E-3,-3.3938956E-2,9.730097E-3,-2.5480127E-2,4.69406E-2,-5.4748304E-2,1.6858635E-2,-1.2221651E-2,3.7806605E-3,3.7183445E-2,9.636234E-3,2.1656854E-2,-5.8706803E-4,1.5614073E-2,-3.5725728E-2,3.5110142E-2,-8.934336E-3,-6.0301763E-3,2.9106433E-2,-2.744965E-3,-4.0143784E-2,5.1662523E-2,-1.756967E-2,4.157495E-3,-4.4094987E-2,-2.8095985E-2,4.5138966E-2,1.4915473E-2,-1.0135733E-2,2.9606074E-3,-1.4825398E-2,1.1563475E-3,1.6897546E-2,-2.7078684E-5,-9.434962E-3,-1.5663344E-2,4.1049447E-2,1.07445335E-2,-6.518222E-2,3.0278621E-2,-1.3037379E-2,1.5026316E-2,2.6052853E-3,3.7865132E-2,-5.7397382E-3,1.4475449E-2,-2.4771967E-3,-3.6434047E-2,5.5187196E-3,3.188719E-2,-8.858971E-3,2.8267954E-2,-5.581489E-2,-1.1042745E-2,5.5153668E-2,1.1458156E-2,-3.3184611E-3,3.5982046E-2,-2.1102281E-2],"categories":[],"categories_nodes":[],"categories_segments":[],"categories_sizes":[],"default_left":[0,0,0,0,0,0,0,0,0,0,0,0,0,0,0,0,0,0,0,0,0,0,0,0,0,0,0,0,0,0,0,0,0,0,0,0,0,0,0,0,0,0,0,0,0,0,0,0,0,0,0,0,0,0,0,0,0,0,0,0,0,0,0,0,0,0,0,0,0,0,0,0,0,0,0,0,0,0,0,0,0,0,0,0,0,0,0,0,0,0,0,0,0,0,0,0,0,0,0,0,0,0,0,0,0,0,0,0,0,0,0,0,0,0,0,0,0,0,0,0,0,0,0,0,0,0,0],"id":12,"left_children":[1,3,5,7,9,11,13,15,17,19,21,23,25,27,29,31,33,35,37,39,41,43,45,47,49,51,53,55,57,59,61,63,65,67,69,71,73,75,77,79,81,83,85,87,89,91,93,95,97,99,101,103,105,107,109,111,113,115,117,119,121,123,125,-1,-1,-1,-1,-1,-1,-1,-1,-1,-1,-1,-1,-1,-1,-1,-1,-1,-1,-1,-1,-1,-1,-1,-1,-1,-1,-1,-1,-1,-1,-1,-1,-1,-1,-1,-1,-1,-1,-1,-1,-1,-1,-1,-1,-1,-1,-1,-1,-1,-1,-1,-1,-1,-1,-1,-1,-1,-1,-1,-1,-1,-1,-1,-1],"loss_changes":[9.376358E1,9.424393E0,1.0849863E1,8.8170395E0,7.981035E0,6.631086E0,7.3381767E0,6.9164886E0,6.3962693E0,6.507415E0,3.2545333E0,4.9922132E0,7.3922243E0,8.409843E0,4.97518E0,5.8446426E0,6.720562E0,2.3813E0,5.0540752E0,1.4656028E1,8.309111E0,3.3654087E0,2.6358013E0,5.6543636E0,6.3859534E0,6.629535E0,4.7489076E0,6.195757E0,6.7782307E0,2.996334E0,5.0687404E0,5.5179625E0,6.0699997E0,7.1157227E0,7.952304E0,4.5177164E0,3.303555E0,5.4226956E0,3.9526987E0,7.408278E0,5.337866E0,4.7224813E0,8.129299E0,3.8491356E0,4.6203575E0,2.3391619E0,3.2946324E0,7.5507727E0,6.680434E0,5.9108844E0,7.702381E0,5.4015E0,3.0176716E0,2.3501735E0,4.041772E0,5.664156E0,9.805811E0,4.6053524E0,7.33486E0,3.4527576E0,4.511525E0,3.5647209E0,2.4504852E0,0E0,0E0,0E0,0E0,0E0,0E0,0E0,0E0,0E0,0E0,0E0,0E0,0E0,0E0,0E0,0E0,0E0,0E0,0E0,0E0,0E0,0E0,0E0,0E0,0E0,0E0,0E0,0E0,0E0,0E0,0E0,0E0,0E0,0E0,0E0,0E0,0E0,0E0,0E0,0E0,0E0,0E0,0E0,0E0,0E0,0E0,0E0,0E0,0E0,0E0,0E0,0E0,0E0,0E0,0E0,0E0,0E0,0E0,0E0,0E0,0E0,0E0,0E0,0E0],"parents":[2147483647,0,0,1,1,2,2,3,3,4,4,5,5,6,6,7,7,8,8,9,9,10,10,11,11,12,12,13,13,14,14,15,15,16,16,17,17,18,18,19,19,20,20,21,21,22,22,23,23,24,24,25,25,26,26,27,27,28,28,29,29,30,30,31,31,32,32,33,33,34,34,35,35,36,36,37,37,38,38,39,39,40,40,41,41,42,42,43,43,44,44,45,45,46,46,47,47,48,48,49,49,50,50,51,51,52,52,53,53,54,54,55,55,56,56,57,57,58,58,59,59,60,60,61,61,62,62],"right_children":[2,4,6,8,10,12,14,16,18,20,22,24,26,28,30,32,34,36,38,40,42,44,46,48,50,52,54,56,58,60,62,64,66,68,70,72,74,76,78,80,82,84,86,88,90,92,94,96,98,100,102,104,106,108,110,112,114,116,118,120,122,124,126,-1,-1,-1,-1,-1,-1,-1,-1,-1,-1,-1,-1,-1,-1,-1,-1,-1,-1,-1,-1,-1,-1,-1,-1,-1,-1,-1,-1,-1,-1,-1,-1,-1,-1,-1,-1,-1,-1,-1,-1,-1,-1,-1,-1,-1,-1,-1,-1,-1,-1,-1,-1,-1,-1,-1,-1,-1,-1,-1,-1,-1,-1,-1,-1],"split_conditions":[-8.4323145E-2,-3.1111014E-1,2.8032053E-1,1.1308967E0,8.336311E4,4.2737957E4,2.316369E0,4.047105E1,-6.2786095E1,1.4178395E1,7.048686E2,5.3577006E-1,-1.1128347E3,3.840417E1,5.0005996E-1,3.4813258E-1,-7.24769E-2,1.4413252E0,9.526236E2,-1.4305075E-1,5.0440405E3,-1.2055539E-1,1.4558502E2,-3.218625E1,6.327477E-1,8.2054484E4,4.307318E4,2.6240904E1,5.965961E-1,4.7462856E1,1.1372737E3,1.2926925E1,-7.704558E2,8.582427E1,-8.018632E2,1.3626466E0,-2.2940832E1,1.1531512E0,5.0511855E4,3.582674E-1,1.5377618E0,1.4758082E1,6.4585304E1,