{"learner":{"attributes":{"scikit_learn":"{\"_estimator_type\": \"classifier\"}"},"feature_names":["rsi","ema_diff","macd_diff","momentum","volume_rel","moving_average","atr","volume_change","ema_200","ema_100","ema_10","ema_50","close_pct_change_5"],"feature_types":["float","float","float","float","float","float","float","float","float","float","float","float","float"],"gradient_booster":{"gbtree":{"model":{"gbtree_model_param":{"num_parallel_tree":"1","num_trees":"500"},"iteration_indptr":[0,1,2,3,4,5,6,7,8,9,10,11,12,13,14,15,16,17,18,19,20,21,22,23,24,25,26,27,28,29,30,31,32,33,34,35,36,37,38,39,40,41,42,43,44,45,46,47,48,49,50,51,52,53,54,55,56,57,58,59,60,61,62,63,64,65,66,67,68,69,70,71,72,73,74,75,76,77,78,79,80,81,82,83,84,85,86,87,88,89,90,91,92,93,94,95,96,97,98,99,100,101,102,103,104,105,106,107,108,109,110,111,112,113,114,115,116,117,118,119,120,121,122,123,124,125,126,127,128,129,130,131,132,133,134,135,136,137,138,139,140,141,142,143,144,145,146,147,148,149,150,151,152,153,154,155,156,157,158,159,160,161,162,163,164,165,166,167,168,169,170,171,172,173,174,175,176,177,178,179,180,181,182,183,184,185,186,187,188,189,190,191,192,193,194,195,196,197,198,199,200,201,202,203,204,205,206,207,208,209,210,211,212,213,214,215,216,217,218,219,220,221,222,223,224,225,226,227,228,229,230,231,232,233,234,235,236,237,238,239,240,241,242,243,244,245,246,247,248,249,250,251,252,253,254,255,256,257,258,259,260,261,262,263,264,265,266,267,268,269,270,271,272,273,274,275,276,277,278,279,280,281,282,283,284,285,286,287,288,289,290,291,292,293,294,295,296,297,298,299,300,301,302,303,304,305,306,307,308,309,310,311,312,313,314,315,316,317,318,319,320,321,322,323,324,325,326,327,328,329,330,331,332,333,334,335,336,337,338,339,340,341,342,343,344,345,346,347,348,349,350,351,352,353,354,355,356,357,358,359,360,361,362,363,364,365,366,367,368,369,370,371,372,373,374,375,376,377,378,379,380,381,382,383,384,385,386,387,388,389,390,391,392,393,394,395,396,397,398,399,400,401,402,403,404,405,406,407,408,409,410,411,412,413,414,415,416,417,418,419,420,421,422,423,424,425,426,427,428,429,430,431,432,433,434,435,436,437,438,439,440,441,442,443,444,445,446,447,448,449,450,451,452,453,454,455,456,457,458,459,460,461,462,463,464,465,466,467,468,469,470,471,472,473,474,475,476,477,478,479,480,481,482,483,484,485,486,487,488,489,490,491,492,493,494,495,496,497,498,499,500],"tree_info":[0,0,0,0,0,0,0,0,0,0,0,0,0,0,0,0,0,0,0,0,0,0,0,0,0,0,0,0,0,0,0,0,0,0,0,0,0,0,0,0,0,0,0,0,0,0,0,0,0,0,0,0,0,0,0,0,0,0,0,0,0,0,0,0,0,0,0,0,0,0,0,0,0,0,0,0,0,0,0,0,0,0,0,0,0,0,0,0,0,0,0,0,0,0,0,0,0,0,0,0,0,0,0,0,0,0,0,0,0,0,0,0,0,0,0,0,0,0,0,0,0,0,0,0,0,0,0,0,0,0,0,0,0,0,0,0,0,0,0,0,0,0,0,0,0,0,0,0,0,0,0,0,0,0,0,0,0,0,0,0,0,0,0,0,0,0,0,0,0,0,0,0,0,0,0,0,0,0,0,0,0,0,0,0,0,0,0,0,0,0,0,0,0,0,0,0,0,0,0,0,0,0,0,0,0,0,0,0,0,0,0,0,0,0,0,0,0,0,0,0,0,0,0,0,0,0,0,0,0,0,0,0,0,0,0,0,0,0,0,0,0,0,0,0,0,0,0,0,0,0,0,0,0,0,0,0,0,0,0,0,0,0,0,0,0,0,0,0,0,0,0,0,0,0,0,0,0,0,0,0,0,0,0,0,0,0,0,0,0,0,0,0,0,0,0,0,0,0,0,0,0,0,0,0,0,0,0,0,0,0,0,0,0,0,0,0,0,0,0,0,0,0,0,0,0,0,0,0,0,0,0,0,0,0,0,0,0,0,0,0,0,0,0,0,0,0,0,0,0,0,0,0,0,0,0,0,0,0,0,0,0,0,0,0,0,0,0,0,0,0,0,0,0,0,0,0,0,0,0,0,0,0,0,0,0,0,0,0,0,0,0,0,0,0,0,0,0,0,0,0,0,0,0,0,0,0,0,0,0,0,0,0,0,0,0,0,0,0,0,0,0,0,0,0,0,0,0,0,0,0,0,0,0,0,0,0,0,0,0,0,0,0,0,0,0,0,0,0,0,0,0,0,0,0,0,0,0,0,0,0,0,0,0,0,0,0,0,0,0,0,0,0,0,0,0,0,0,0,0,0,0,0,0,0,0,0,0,0,0,0,0,0,0,0,0,0,0,0,0,0],"trees":[{"base_weights":[2.5532213E-3,2.9640025E-1,-1.4213799E-1,7.0846416E-2,6.732505E-1,7.875091E-1,-1.9202259E-1,1.1385762E-3,-1.9931294E-2,9.276622E-3,4.4610517E-4,2.8865319E-3,1.9478997E-2,-1.3510922E-3,-1.0314152E-2],"categories":[],"categories_nodes":[],"categories_segments":[],"categories_sizes":[],"default_left":[0,0,0,0,0,0,0,0,0,0,0,0,0,0,0],"id":0,"left_children":[1,3,5,7,9,11,13,-1,-1,-1,-1,-1,-1,-1,-1],"loss_changes":[4.7587012E2,3.13843E2,3.4794678E2,2.0540762E2,2.2107648E2,2.2064E2,3.3993002E2,0E0,0E0,0E0,0E0,0E0,0E0,0E0,0E0],"parents":[2147483647,0,0,1,1,2,2,3,3,4,4,5,5,6,6],"right_children":[2,4,6,8,10,12,14,-1,-1,-1,-1,-1,-1,-1,-1],"split_conditions":[-3.2271606E-1,3.8983677E1,-5.35354E1,3.8851143E1,9.8913984E4,6.6790265E-1,1.0062529E5,1.1385762E-3,-1.9931294E-2,9.276622E-3,4.4610517E-4,2.8865319E-3,1.9478997E-2,-1.3510922E-3,-1.0314152E-2],"split_indices":[12,0,7,0,8,4,8,0,0,0,0,0,0,0,0],"split_type":[0,0,0,0,0,0,0,0,0,0,0,0,0,0,0],"sum_hessian":[1.1190454E4,3.6918303E3,7.498624E3,2.310268E3,1.3815623E3,3.8112924E2,7.117495E3,2.2640327E3,4.623535E1,9.831885E2,3.9837378E2,2.6741528E2,1.13713974E2,6.6666377E3,4.5085715E2],"tree_param":{"num_deleted":"0","num_feature":"13","num_nodes":"15","size_leaf_vector":"1"}},{"base_weights":[-2.0923114E-3,1.8768351E-1,-1.6992447E-1,-2.1858561E-1,3.149521E-1,-1.0388301E-1,-1.1640967E0,-4.4542173E-4,-1.01915505E-2,7.937025E-3,1.653342E-3,-9.287455E-3,-2.5101687E-4,3.7418848E-3,-1.447105E-2],"categories":[],"categories_nodes":[],"categories_segments":[],"categories_sizes":[],"default_left":[0,0,0,0,0,0,0,0,0,0,0,0,0,0,0],"id":1,"left_children":[1,3,5,7,9,11,13,-1,-1,-1,-1,-1,-1,-1,-1],"loss_changes":[3.5627637E2,2.715093E2,3.8962573E2,1.7451947E2,2.8623737E2,3.61772E2,1.6147574E2,0E0,0E0,0E0,0E0,0E0,0E0,0E0,0E0],"parents":[2147483647,0,0,1,1,2,2,3,3,4,4,5,5,6,6],"right_children":[2,4,6,8,10,12,14,-1,-1,-1,-1,-1,-1,-1,-1],"split_conditions":[-2.173879E1,-9.8039764E2,1.0220643E5,-6.823011E1,9.5990555E4,3.2111072E2,-4.6519443E-1,-4.4542173E-4,-1.01915505E-2,7.937025E-3,1.653342E-3,-9.287455E-3,-2.5101687E-4,3.7418848E-3,-1.447105E-2],"split_indices":[2,1,9,2,5,6,3,0,0,0,0,0,0,0,0],"split_type":[0,0,0,0,0,0,0,0,0,0,0,0,0,0,0],"sum_hessian":[1.11839E4,5.24876E3,5.935141E3,1.2518534E3,3.9969062E3,5.5664727E3,3.6866837E2,1.0291683E3,2.2268509E2,9.5066E2,3.046246E3,4.843547E2,5.0821177E3,5.7236824E1,3.1143155E2],"tree_param":{"num_deleted":"0","num_feature":"13","num_nodes":"15","size_leaf_vector":"1"}},{"base_weights":[-2.8951632E-4,1.9192411E-1,-1.720715E-1,2.2045228E-1,-1.7680101E0,-9.322704E-2,-1.2901502E0,-7.7337646E-3,2.5445132E-3,-1.9932643E-2,-1.0937612E-2,-1.8475106E-3,5.4827216E-3,9.391691E-3,-1.5819725E-2],"categories":[],"categories_nodes":[],"categories_segments":[],"categories_sizes":[],"default_left":[0,0,0,0,0,0,0,0,0,0,0,0,0,0,0],"id":2,"left_children":[1,3,5,7,9,11,13,-1,-1,-1,-1,-1,-1,-1,-1],"loss_changes":[3.6999503E2,2.9607608E2,5.215134E2,1.7635075E2,9.35965E0,3.2469806E2,2.5501672E2,0E0,0E0,0E0,0E0,0E0,0E0,0E0,0E0],"parents":[2147483647,0,0,1,1,2,2,3,3,4,4,5,5,6,6],"right_children":[2,4,6,8,10,12,14,-1,-1,-1,-1,-1,-1,-1,-1],"split_conditions":[-2.12353E1,1.042154E5,1.0276729E5,8.4203914E4,1.0354192E5,7.402183E1,-4.6519443E-1,-7.7337646E-3,2.5445132E-3,-1.9932643E-2,-1.0937612E-2,-1.8475106E-3,5.4827216E-3,9.391691E-3,-1.5819725E-2],"split_indices":[2,11,11,5,9,7,3,0,0,0,0,0,0,0,0],"split_type":[0,0,0,0,0,0,0,0,0,0,0,0,0,0,0],"sum_hessian":[1.1203575E4,5.2872954E3,5.9162803E3,5.212314E3,7.498125E1,5.5275713E3,3.8870883E2,1.716965E2,5.040617E3,5.4738014E1,2.0243237E1,4.8380312E3,6.8954E2,4.4736305E1,3.439725E2],"tree_param":{"num_deleted":"0","num_feature":"13","num_nodes":"15","size_leaf_vector":"1"}},{"base_weights":[-1.4404376E-3,2.885004E-1,-1.4266962E-1,1.3930821E0,2.1364024E-1,-7.6692306E-2,-7.617525E-1,1.5674135E-2,-1.8760284E-2,-2.0057047E-2,2.7181148E-3,-4.7050658E-4,-1.6436437E-2,2.8403755E-3,-1.2925035E-2],"categories":[],"categories_nodes":[],"categories_segments":[],"categories_sizes":[],"default_left":[0,0,0,0,0,0,0,0,0,0,0,0,0,0,0],"id":3,"left_children":[1,3,5,7,9,11,13,-1,-1,-1,-1,-1,-1,-1,-1],"loss_changes":[4.5903653E2,3.0332773E2,3.0784695E2,1.356589E2,4.446577E2,3.163854E2,4.0327725E2,0E0,0E0,0E0,0E0,0E0,0E0,0E0,0E0],"parents":[2147483647,0,0,1,1,2,2,3,3,4,4,5,5,6,6],"right_children":[2,4,6,8,10,12,14,-1,-1,-1,-1,-1,-1,-1,-1],"split_conditions":[-3.2271606E-1,8.7403984E4,1.0011738E5,2.4011197E0,8.445667E4,1.0496521E5,-5.0391327E1,1.5674135E-2,-1.8760284E-2,-2.0057047E-2,2.7181148E-3,-4.7050658E-4,-1.6436437E-2,2.8403755E-3,-1.2925035E-2],"split_indices":[12,9,8,4,10,10,2,0,0,0,0,0,0,0,0],"split_type":[0,0,0,0,0,0,0,0,0,0,0,0,0,0,0],"sum_hessian":[1.1208196E4,3.6708887E3,7.537307E3,2.3187665E2,3.439012E3,6.812414E3,7.248934E2,2.2063159E2,1.1245048E1,8.6982506E1,3.3520295E3,6.6869487E3,1.2546538E2,2.4419574E2,4.806976E2],"tree_param":{"num_deleted":"0","num_feature":"13","num_nodes":"15","size_leaf_vector":"1"}},{"base_weights":[-1.4040191E-4,2.8860977E-1,-1.4122322E-1,7.580881E-2,6.4266956E-1,-7.126233E-2,-7.981869E-1,2.915044E-4,1.9194247E-2,4.299126E-3,1.4724175E-2,-4.2001743E-4,-1.6507246E-2,8.316753E-3,-9.890567E-3],"categories":[],"categories_nodes":[],"categories_segments":[],"categories_sizes":[],"default_left":[0,0,0,0,0,0,0,0,0,0,0,0,0,0,0],"id":4,"left_children":[1,3,5,7,9,11,13,-1,-1,-1,-1,-1,-1,-1,-1],"loss_changes":[4.5650742E2,2.7707645E2,3.4593875E2,1.9765936E2,2.4309808E2,3.1440726E2,2.2617853E2,0E0,0E0,0E0,0E0,0E0,0E0,0E0,0E0],"parents":[2147483647,0,0,1,1,2,2,3,3,4,4,5,5,6,6],"right_children":[2,4,6,8,10,12,14,-1,-1,-1,-1,-1,-1,-1,-1],"split_conditions":[-3.2271606E-1,3.8983677E1,1.0011738E5,8.563169E2,1.00766266E5,1.0496521E5,3.575925E1,2.915044E-4,1.9194247E-2,4.299126E-3,1.4724175E-2,-4.2001743E-4,-1.6507246E-2,8.316753E-3,-9.890567E-3],"split_indices":[12,0,8,1,11,10,0,0,0,0,0,0,0,0,0],"split_type":[0,0,0,0,0,0,0,0,0,0,0,0,0,0,0],"sum_hessian":[1.12040205E4,3.6771194E3,7.526901E3,2.2974778E3,1.3796416E3,6.8034966E3,7.2340436E2,2.241759E3,5.571879E1,1.0992893E3,2.8035233E2,6.6807573E3,1.227389E2,7.54835E1,6.479209E2],"tree_param":{"num_deleted":"0","num_feature":"13","num_nodes":"15","size_leaf_vector":"1"}},{"base_weights":[9.913273E-4,2.8399053E-1,-1.3730319E-1,6.751216E-2,6.460472E-1,7.731711E-1,-1.8511398E-1,2.1611417E-4,1.9213524E-2,4.4004517E-3,1.4454431E-2,2.672948E-3,1.9289067E-2,-2.0248545E-3,1.9289747E-2],"categories":[],"categories_nodes":[],"categories_segments":[],"categories_sizes":[],"default_left":[0,0,0,0,0,0,0,0,0,0,0,0,0,0,0],"id":5,"left_children":[1,3,5,7,9,11,13,-1,-1,-1,-1,-1,-1,-1,-1],"loss_changes":[4.3923886E2,2.8870605E2,3.2831763E2,1.962401E2,2.2635669E2,2.1950748E2,2.6347354E2,0E0,0E0,0E0,0E0,0E0,0E0,0E0,0E0],"parents":[2147483647,0,0,1,1,2,2,3,3,4,4,5,5,6,6],"right_children":[2,4,6,8,10,12,14,-1,-1,-1,-1,-1,-1,-1,-1],"split_conditions":[-3.2271606E-1,3.8983677E1,-5.35354E1,-1.9610852E-1,1.00766266E5,6.6790265E-1,3.499527E2,2.1611417E-4,1.9213524E-2,4.4004517E-3,1.4454431E-2,2.672948E-3,1.9289067E-2,-2.0248545E-3,1.9289747E-2],"split_indices":[12,0,7,3,11,4,7,0,0,0,0,0,0,0,0],"split_type":[0,0,0,0,0,0,0,0,0,0,0,0,0,0,0],"sum_hessian":[1.1221046E4,3.6830918E3,7.5379546E3,2.3056814E3,1.3774103E3,3.75327E2,7.1626274E3,2.2509597E3,5.4721687E1,1.0964172E3,2.809931E2,2.6191544E2,1.13411575E2,7.1051484E3,5.7478783E1],"tree_param":{"num_deleted":"0","num_feature":"13","num_nodes":"15","size_leaf_vector":"1"}},{"base_weights":[3.5794862E-3,2.879492E-1,-1.3503994E-1,1.3820014E0,2.1425936E-1,-1.3637475E0,-1.01006635E-1,1.7269922E-2,-6.5208683E-3,-1.9873763E-2,2.7293598E-3,1.8078424E-2,-1.5641445E-2,-3.0413395E-4,-7.4013863E-3],"categories":[],"categories_nodes":[],"categories_segments":[],"categories_sizes":[],"default_left":[0,0,0,0,0,0,0,0,0,0,0,0,0,0,0],"id":6,"left_children":[1,3,5,7,9,11,13,-1,-1,-1,-1,-1,-1,-1,-1],"loss_changes":[4.4064075E2,2.9504053E2,3.141193E2,1.6321939E2,4.440726E2,1.3151013E2,3.2995514E2,0E0,0E0,0E0,0E0,0E0,0E0,0E0,0E0],"parents":[2147483647,0,0,1,1,2,2,3,3,4,4,5,5,6,6],"right_children":[2,4,6,8,10,12,14,-1,-1,-1,-1,-1,-1,-1,-1],"split_conditions":[-3.2271606E-1,8.7403984E4,2.2554214E2,1.4753839E2,8.445667E4,-3.9607483E1,1.0011738E5,1.7269922E-2,-6.5208683E-3,-1.9873763E-2,2.7293598E-3,1.8078424E-2,-1.5641445E-2,-3.0413395E-4,-7.4013863E-3],"split_indices":[12,9,6,7,10,7,8,0,0,0,0,0,0,0,0],"split_type":[0,0,0,0,0,0,0,0,0,0,0,0,0,0,0],"sum_hessian":[1.1176352E4,3.6622927E3,7.5140586E3,2.29987E2,3.4323057E3,2.0146536E2,7.312593E3,1.9676561E2,3.322139E1,8.824776E1,3.3440579E3,1.1496372E1,1.89969E2,6.586185E3,7.2640796E2],"tree_param":{"num_deleted":"0","num_feature":"13","num_nodes":"15","size_leaf_vector":"1"}},{"base_weights":[1.1857311E-3,2.8435087E-1,-1.3704515E-1,6.765617E-2,6.4534724E-1,7.950925E-1,-1.8574366E-1,2.1152053E-4,1.8954651E-2,9.116116E-3,-3.9147177E-5,3.1701769E-3,1.9106979E-2,-1.3346806E-3,-9.671851E-3],"categories":[],"categories_nodes":[],"categories_segments":[],"categories_sizes":[],"default_left":[0,0,0,0,0,0,0,0,0,0,0,0,0,0,0],"id":7,"left_children":[1,3,5,7,9,11,13,-1,-1,-1,-1,-1,-1,-1,-1],"loss_changes":[4.3797232E2,2.8707898E2,3.4145624E2,1.9501492E2,2.3799701E2,1.9859796E2,2.9180157E2,0E0,0E0,0E0,0E0,0E0,0E0,0E0,0E0],"parents":[2147483647,0,0,1,1,2,2,3,3,4,4,5,5,6,6],"right_children":[2,4,6,8,10,12,14,-1,-1,-1,-1,-1,-1,-1,-1],"split_conditions":[-3.2271606E-1,3.8983677E1,-5.35354E1,8.563169E2,9.9053305E4,6.6790265E-1,1.0062529E5,2.1152053E-4,1.8954651E-2,9.116116E-3,-3.9147177E-5,3.1701769E-3,1.9106979E-2,-1.3346806E-3,-9.671851E-3],"split_indices":[12,0,7,1,8,4,8,0,0,0,0,0,0,0,0],"split_type":[0,0,0,0,0,0,0,0,0,0,0,0,0,0,0],"sum_hessian":[1.1187274E4,3.669424E3,7.5178506E3,2.2937476E3,1.3756766E3,3.7250027E2,7.1453506E3,2.2378232E3,5.592435E1,9.7529926E2,4.0037735E2,2.6165594E2,1.10844315E2,6.698421E3,4.4692926E2],"tree_param":{"num_deleted":"0","num_feature":"13","num_nodes":"15","size_leaf_vector":"1"}},{"base_weights":[-4.5130146E-3,1.31935645E-2,-1.4162579E0,5.8326524E-1,-3.192347E-2,-7.229217E-1,-1.8766996E-2,6.8328604E-3,-1.9784495E-2,-9.1641373E-4,4.050034E-3,1.4700312E-2,-1.8361814E-2],"categories":[],"categories_nodes":[],"categories_segments":[],"categories_sizes":[],"default_left":[0,0,0,0,0,0,0,0,0,0,0,0,0],"id":8,"left_children":[1,3,5,7,9,11,-1,-1,-1,-1,-1,-1,-1],"loss_changes":[2.7990298E2,2.844539E2,4.2922577E1,2.0917535E2,2.6745355E2,1.4180289E2,0E0,0E0,0E0,0E0,0E0,0E0,0E0],"parents":[2147483647,0,0,1,1,2,2,3,3,4,4,5,5],"right_children":[2,4,6,8,10,12,-1,-1,-1,-1,-1,-1,-1],"split_conditions":[1.042154E5,-4.7964115E1,5.7156573E2,1.620415E3,7.635091E1,5.431622E1,-1.8766996E-2,6.8328604E-3,-1.9784495E-2,-9.1641373E-4,4.050034E-3,1.4700312E-2,-1.8361814E-2],"split_indices":[11,7,6,6,7,0,0,0,0,0,0,0,0],"split_type":[0,0,0,0,0,0,0,0,0,0,0,0,0],"sum_hessian":[1.1195641E4,1.1057938E4,1.3770174E2,8.1009814E2,1.024784E4,5.597871E1,8.172303E1,7.803626E2,2.9735582E1,9.016308E3,1.2315327E3,1.8741102E1,3.7237606E1],"tree_param":{"num_deleted":"0","num_feature":"13","num_nodes":"13","size_leaf_vector":"1"}},{"base_weights":[-1.6779443E-3,2.729421E-1,-1.3540195E-1,5.8539074E-2,6.308652E-1,6.661716E-1,-1.8720923E-1,9.994949E-4,-1.9800002E-2,4.297314E-3,1.4125332E-2,8.069259E-3,-1.9391662E-2,-1.3384927E-3,-9.564987E-3],"categories":[],"categories_nodes":[],"categories_segments":[],"categories_sizes":[],"default_left":[0,0,0,0,0,0,0,0,0,0,0,0,0,0,0],"id":9,"left_children":[1,3,5,7,9,11,13,-1,-1,-1,-1,-1,-1,-1,-1],"loss_changes":[4.1135605E2,2.8146442E2,3.1296027E2,1.9394858E2,2.1542694E2,1.6935397E2,2.9036493E2,0E0,0E0,0E0,0E0,0E0,0E0,0E0,0E0],"parents":[2147483647,0,0,1,1,2,2,3,3,4,4,5,5,6,6],"right_children":[2,4,6,8,10,12,14,-1,-1,-1,-1,-1,-1,-1,-1],"split_conditions":[-3.2271606E-1,3.8983677E1,-5.1910435E1,3.8851143E1,1.00766266E5,8.386775E2,1.0062529E5,9.994949E-4,-1.9800002E-2,4.297314E-3,1.4125332E-2,8.069259E-3,-1.9391662E-2,-1.3384927E-3,-9.564987E-3],"split_indices":[12,0,7,0,11,2,8,0,0,0,0,0,0,0,0],"split_type":[0,0,0,0,0,0,0,0,0,0,0,0,0,0,0],"sum_hessian":[1.1199497E4,3.6672568E3,7.5322407E3,2.2941682E3,1.3730884E3,4.565495E2,7.0756914E3,2.249425E3,4.474333E1,1.0933137E3,2.7977472E2,4.338034E2,2.2746113E1,6.6178345E3,4.5785657E2],"tree_param":{"num_deleted":"0","num_feature":"13","num_nodes":"15","size_leaf_vector":"1"}},{"base_weights":[2.5464894E-4,2.692534E-1,-1.3089657E-1,1.3521566E0,1.9665298E-1,7.465639E-1,-1.763972E-1,1.6754752E-2,-6.5080994E-3,-1.9713162E-2,2.5485656E-3,9.2001045E-3,-1.917753E-2,-1.2664725E-3,-9.2624165E-3],"categories":[],"categories_nodes":[],"categories_segments":[],"categories_sizes":[],"default_left":[0,0,0,0,0,0,0,0,0,0,0,0,0,0,0],"id":10,"left_children":[1,3,5,7,9,11,13,-1,-1,-1,-1,-1,-1,-1,-1],"loss_changes":[3.9472693E2,2.8803934E2,3.0042575E2,1.5018951E2,4.3430554E2,1.7320389E2,2.666662E2,0E0,0E0,0E0,0E0,0E0,0E0,0E0,0E0],"parents":[2147483647,0,0,1,1,2,2,3,3,4,4,5,5,6,6],"right_children":[2,4,6,8,10,12,14,-1,-1,-1,-1,-1,-1,-1,-1],"split_conditions":[-3.2271606E-1,8.7403984E4,-5.35354E1,1.4753839E2,8.445667E4,8.386775E2,1.0062529E5,1.6754752E-2,-6.5080994E-3,-1.9713162E-2,2.5485656E-3,9.2001045E-3,-1.917753E-2,-1.2664725E-3,-9.2624165E-3],"split_indices":[12,9,7,7,10,2,8,0,0,0,0,0,0,0,0],"split_type":[0,0,0,0,0,0,0,0,0,0,0,0,0,0,0],"sum_hessian":[1.1186561E4,3.666108E3,7.5204526E3,2.2923462E2,3.4368733E3,3.699877E2,7.150465E3,1.9751523E2,3.1719389E1,8.8998146E1,3.3478752E3,3.479884E2,2.1999285E1,6.7066665E3,4.4379852E2],"tree_param":{"num_deleted":"0","num_feature":"13","num_nodes":"15","size_leaf_vector":"1"}},{"base_weights":[5.080089E-4,2.6926357E-1,-1.3063689E-1,1.3409703E0,1.9728935E-1,-1.3338176E0,-9.713091E-2,1.679792E-2,-6.864842E-3,-1.9524375E-2,2.5583482E-3,-1.5282092E-2,1.8257799E-2,-4.768707E-4,-9.115711E-3],"categories":[],"categories_nodes":[],"categories_segments":[],"categories_sizes":[],"default_left":[0,0,0,0,0,0,0,0,0,0,0,0,0,0,0],"id":11,"left_children":[1,3,5,7,9,11,13,-1,-1,-1,-1,-1,-1,-1,-1],"loss_changes":[3.9405057E2,2.825459E2,3.0277234E2,1.5953748E2,4.330517E2,1.277738E2,2.9436847E2,0E0,0E0,0E0,0E0,0E0,0E0,0E0,0E0],"parents":[2147483647,0,0,1,1,2,2,3,3,4,4,5,5,6,6],"right_children":[2,4,6,8,10,12,14,-1,-1,-1,-1,-1,-1,-1,-1],"split_conditions":[-3.2271606E-1,8.7403984E4,2.2554214E2,1.4753839E2,8.445667E4,7.402183E1,1.0487044E5,1.679792E-2,-6.864842E-3,-1.9524375E-2,2.5583482E-3,-1.5282092E-2,1.8257799E-2,-4.768707E-4,-9.115711E-3],"split_indices":[12,9,6,7,10,7,10,0,0,0,0,0,0,0,0],"split_type":[0,0,0,0,0,0,0,0,0,0,0,0,0,0,0],"sum_hessian":[1.1178036E4,3.6654229E3,7.5126133E3,2.2956308E2,3.4358599E3,2.0249039E2,7.3101226E3,1.9683939E2,3.27237E1,9.023352E1,3.3456262E3,1.9124078E2,1.1249596E1,6.8927305E3,4.1739212E2],"tree_param":{"num_deleted":"0","num_feature":"13","num_nodes":"15","size_leaf_vector":"1"}},{"base_weights":[-5.1323553E-3,2.67826E-1,-1.3715662E-1,1.3207973E0,1.977996E-1,-1.32947E0,-1.04348265E-1,1.666929E-2,-7.490902E-3,-1.933183E-2,2.5480888E-3,-1.5381086E-2,1.8186152E-2,-3.588441E-4,-7.262688E-3],"categories":[],"categories_nodes":[],"categories_segments":[],"categories_sizes":[],"default_left":[0,0,0,0,0,0,0,0,0,0,0,0,0,0,0],"id":12,"left_children":[1,3,5,7,9,11,13,-1,-1,-1,-1,-1,-1,-1,-1],"loss_changes":[4.029536E2,2.6852142E2,2.9466864E2,1.63975E2,4.1586304E2,1.3530038E2,3.1231927E2,0E0,0E0,0E0,0E0,0E0,0E0,0E0,0E0],"parents":[2147483647,0,0,1,1,2,2,3,3,4,4,5,5,6,6],"right_children":[2,4,6,8,10,12,14,-1,-1,-1,-1,-1,-1,-1,-1],"split_conditions":[-3.2271606E-1,8.7403984E4,2.2554214E2,1.4753839E2,8.445667E4,7.402183E1,1.0011738E5,1.666929E-2,-7.490902E-3,-1.933183E-2,2.5480888E-3,-1.5381086E-2,1.8186152E-2,-3.588441E-4,-7.262688E-3],"split_indices":[12,9,6,7,10,7,8,0,0,0,0,0,0,0,0],"split_type":[0,0,0,0,0,0,0,0,0,0,0,0,0,0,0],"sum_hessian":[1.11796045E4,3.6442139E3,7.5353906E3,2.2612727E2,3.4180867E3,2.0073691E2,7.334654E3,1.9389786E2,3.222942E1,8.820257E1,3.329884E3,1.8873965E2,1.1997255E1,6.6082456E3,7.2640814E2],"tree_param":{"num_deleted":"0","num_feature":"13","num_nodes":"15","size_leaf_vector":"1"}},{"base_weights":[-5.781035E-4,2.6359332E-1,-1.29823E-1,5.6342006E-2,6.120881E-1,7.1878874E-1,-1.7456365E-1,9.774651E-4,-1.9684333E-2,4.04846E-3,1.4096309E-2,8.965473E-3,-1.8996803E-2,-1.2219849E-3,-9.553148E-3],"categories":[],"categories_nodes":[],"categories_segments":[],"categories_sizes":[],"default_left":[0,0,0,0,0,0,0,0,0,0,0,0,0,0,0],"id":13,"left_children":[1,3,5,7,9,11,13,-1,-1,-1,-1,-1,-1,-1,-1],"loss_changes":[3.8192783E2,2.653874E2,2.8531036E2,1.93476E2,2.2592706E2,1.768886E2,2.9162964E2,0E0,0E0,0E0,0E0,0E0,0E0,0E0,0E0],"parents":[2147483647,0,0,1,1,2,2,3,3,4,4,5,5,6,6],"right_children":[2,4,6,8,10,12,14,-1,-1,-1,-1,-1,-1,-1,-1],"split_conditions":[-3.2271606E-1,3.8983677E1,-5.35354E1,3.8851143E1,1.00766266E5,8.386775E2,1.0062529E5,9.774651E-4,-1.9684333E-2,4.04846E-3,1.4096309E-2,8.965473E-3,-1.8996803E-2,-1.2219849E-3,-9.553148E-3],"split_indices":[12,0,7,0,11,2,8,0,0,0,0,0,0,0,0],"split_type":[0,0,0,0,0,0,0,0,0,0,0,0,0,0,0],"sum_hessian":[1.1184183E4,3.6738796E3,7.510303E3,2.3045286E3,1.3693512E3,3.7537448E2,7.1349287E3,2.2592803E3,4.5248158E1,1.0881122E3,2.8123907E2,3.521274E2,2.3247063E1,6.68755E3,4.473788E2],"tree_param":{"num_deleted":"0","num_feature":"13","num_nodes":"15","size_leaf_vector":"1"}},{"base_weights":[-2.4861938E-3,1.2074534E-1,-2.7316108E-1,-3.2692692E-1,2.374395E-1,-1.5612499E0,-1.1024117E-1,-1.7672646E-3,-2.0099146E-2,-5.649796E-3,3.1415022E-3,-2.008998E-2,-1.0827794E-2,1.2710333E-2,-1.995266E-3],"categories":[],"categories_nodes":[],"categories_segments":[],"categories_sizes":[],"default_left":[0,0,0,0,0,0,0,0,0,0,0,0,0,0,0],"id":14,"left_children":[1,3,5,7,9,11,13,-1,-1,-1,-1,-1,-1,-1,-1],"loss_changes":[3.738927E2,4.02463E2,7.3573944E2,4.0235046E2,3.7630096E2,8.2161194E1,3.8430753E2,0E0,0E0,0E0,0E0,0E0,0E0,0E0,0E0],"parents":[2147483647,0,0,1,1,2,2,3,3,4,4,5,5,6,6],"right_children":[2,4,6,8,10,12,14,-1,-1,-1,-1,-1,-1,-1,-1],"split_conditions":[3.5704342E-1,-9.65657E2,4.1424356E2,4.586946E1,2.50965E2,4.900441E-1,8.469232E4,-1.7672646E-3,-2.0099146E-2,-5.649796E-3,3.1415022E-3,-2.008998E-2,-1.0827794E-2,1.2710333E-2,-1.995266E-3],"split_indices":[12,1,6,0,6,12,10,0,0,0,0,0,0,0,0],"split_type":[0,0,0,0,0,0,0,0,0,0,0,0,0,0,0],"sum_hessian":[1.1207278E4,7.701521E3,3.5057568E3,1.5920725E3,6.1094487E3,3.9266425E2,3.1130925E3,1.4626421E3,1.2943044E2,5.325401E2,5.5769087E3,2.011919E2,1.9147235E2,1.8820865E2,2.924884E3],"tree_param":{"num_deleted":"0","num_feature":"13","num_nodes":"15","size_leaf_vector":"1"}},{"base_weights":[-2.9488825E-3,1.1794303E-1,-2.6731002E-1,-3.2814717E-1,2.3448059E-1,-1.5671599E0,-1.0143005E-1,-1.752662E-3,-1.9891704E-2,-5.4847877E-3,3.093424E-3,-1.8431315E-2,-8.610448E-3,1.2706673E-2,-1.881121E-3],"categories":[],"categories_nodes":[],"categories_segments":[],"categories_sizes":[],"default_left":[0,0,0,0,0,0,0,0,0,0,0,0,0,0,0],"id":15,"left_children":[1,3,5,7,9,11,13,-1,-1,-1,-1,-1,-1,-1,-1],"loss_changes":[3.5751108E2,3.991347E2,7.567306E2,4.0351505E2,3.5694098E2,7.581445E1,3.7061935E2,0E0,0E0,0E0,0E0,0E0,0E0,0E0,0E0],"parents":[2147483647,0,0,1,1,2,2,3,3,4,4,5,5,6,6],"right_children":[2,4,6,8,10,12,14,-1,-1,-1,-1,-1,-1,-1,-1],"split_conditions":[3.5704342E-1,-9.65657E2,4.1424356E2,4.586946E1,2.50965E2,5.5912834E-1,8.469232E4,-1.752662E-3,-1.9891704E-2,-5.4847877E-3,3.093424E-3,-1.8431315E-2,-8.610448E-3,1.2706673E-2,-1.881121E-3],"split_indices":[12,1,6,0,6,12,10,0,0,0,0,0,0,0,0],"split_type":[0,0,0,0,0,0,0,0,0,0,0,0,0,0,0],"sum_hessian":[1.1184524E4,7.6752153E3,3.5093096E3,1.5893976E3,6.0858174E3,3.9620047E2,3.1131091E3,1.456451E3,1.3294658E2,5.305556E2,5.5552617E3,2.8370825E2,1.12492226E2,1.8417223E2,2.9289368E3],"tree_param":{"num_deleted":"0","num_feature":"13","num_nodes":"15","size_leaf_vector":"1"}},{"base_weights":[-4.9919756E-5,1.80548E-1,-1.6162767E-1,2.0841889E-1,-1.7202402E0,-7.420866E-2,-1.237014E0,-2.172014E-3,3.3332473E-3,-1.932334E-2,-1.607321E-3,-2.2145563E-3,3.7867343E-3,-4.275743E-3,-1.4608871E-2],"categories":[],"categories_nodes":[],"categories_segments":[],"categories_sizes":[],"default_left":[0,0,0,0,0,0,0,0,0,0,0,0,0,0,0],"id":16,"left_children":[1,3,5,7,9,11,13,-1,-1,-1,-1,-1,-1,-1,-1],"loss_changes":[3.2635132E2,2.8013312E2,5.548215E2,2.7681842E2,2.4967773E1,3.6419034E2,7.97793E1,0E0,0E0,0E0,0E0,0E0,0E0,0E0,0E0],"parents":[2147483647,0,0,1,1,2,2,3,3,4,4,5,5,6,6],"right_children":[2,4,6,8,10,12,14,-1,-1,-1,-1,-1,-1,-1,-1],"split_conditions":[-2.12353E1,1.042154E5,1.001706E5,-1.0521647E3,1.01442E5,1.0110986E3,4.0920215E2,-2.172014E-3,3.3332473E-3,-1.932334E-2,-1.607321E-3,-2.2145563E-3,3.7867343E-3,-4.275743E-3,-1.4608871E-2],"split_indices":[2,11,8,1,8,6,6,0,0,0,0,0,0,0,0],"split_type":[0,0,0,0,0,0,0,0,0,0,0,0,0,0,0],"sum_hessian":[1.1181845E4,5.28009E3,5.901755E3,5.204665E3,7.542467E1,5.459053E3,4.4270166E2,1.1806902E3,4.0239749E3,6.618448E1,9.240185E0,4.1200117E3,1.3390414E3,9.654428E1,3.4615738E2],"tree_param":{"num_deleted":"0","num_feature":"13","num_nodes":"15","size_leaf_vector":"1"}},{"base_weights":[1.0003977E-2,2.6928204E-1,-1.16700545E-1,1.3307664E0,1.9689575E-1,-1.2568846E0,-8.515639E-2,1.633654E-2,3.1399913E-3,-1.03019625E-2,2.6693335E-3,-1.6350148E-2,-2.586533E-3,-1.9208375E-4,-6.9356496E-3],"categories":[],"categories_nodes":[],"categories_segments":[],"categories_sizes":[],"default_left":[0,0,0,0,0,0,0,0,0,0,0,0,0,0,0],"id":17,"left_children":[1,3,5,7,9,11,13,-1,-1,-1,-1,-1,-1,-1,-1],"loss_changes":[3.674086E2,2.8182578E2,2.7009366E2,7.161252E1,2.957503E2,7.5890564E1,2.9334708E2,0E0,0E0,0E0,0E0,0E0,0E0,0E0,0E0],"parents":[2147483647,0,0,1,1,2,2,3,3,4,4,5,5,6,6],"right_children":[2,4,6,8,10,12,14,-1,-1,-1,-1,-1,-1,-1,-1],"split_conditions":[-3.2271606E-1,8.7403984E4,2.2554214E2,8.901042E4,8.490423E4,1.8304813E2,1.0011738E5,1.633654E-2,3.1399913E-3,-1.03019625E-2,2.6693335E-3,-1.6350148E-2,-2.586533E-3,-1.9208375E-4,-6.9356496E-3],"split_indices":[12,9,6,8,5,1,8,0,0,0,0,0,0,0,0],"split_type":[0,0,0,0,0,0,0,0,0,0,0,0,0,0,0],"sum_hessian":[1.1181895E4,3.6702537E3,7.511641E3,2.3319917E2,3.4370544E3,2.011755E2,7.310466E3,1.7920775E2,5.3991413E1,1.8484111E2,3.2522134E3,1.4544353E2,5.5731976E1,6.596477E3,7.139889E2],"tree_param":{"num_deleted":"0","num_feature":"13","num_nodes":"15","size_leaf_vector":"1"}},{"base_weights":[-3.3839402E-5,2.6168483E-1,-1.2763733E-1,1.2788676E0,1.916992E-1,-1.3076788E0,-9.437483E-2,1.6012378E-2,-6.2434124E-3,-1.9015972E-2,2.4680381E-3,-1.4919004E-2,1.8050665E-2,-4.533519E-4,-9.014384E-3],"categories":[],"categories_nodes":[],"categories_segments":[],"categories_sizes":[],"default_left":[0,0,0,0,0,0,0,0,0,0,0,0,0,0,0],"id":18,"left_children":[1,3,5,7,9,11,13,-1,-1,-1,-1,-1,-1,-1,-1],"loss_changes":[3.745505E2,2.6143713E2,2.9580792E2,1.4607596E2,3.97328E2,1.2117285E2,2.9021777E2,0E0,0E0,0E0,0E0,0E0,0E0,0E0,0E0],"parents":[2147483647,0,0,1,1,2,2,3,3,4,4,5,5,6,6],"right_children":[2,4,6,8,10,12,14,-1,-1,-1,-1,-1,-1,-1,-1],"split_conditions":[-3.2271606E-1,8.7403984E4,2.2554214E2,1.4753839E2,8.445667E4,7.402183E1,1.0487044E5,1.6012378E-2,-6.2434124E-3,-1.9015972E-2,2.4680381E-3,-1.4919004E-2,1.8050665E-2,-4.533519E-4,-9.014384E-3],"split_indices":[12,9,6,7,10,7,10,0,0,0,0,0,0,0,0],"split_type":[0,0,0,0,0,0,0,0,0,0,0,0,0,0,0],"sum_hessian":[1.1213357E4,3.6749243E3,7.538433E3,2.3545848E2,3.4394658E3,2.0561438E2,7.332819E3,2.0148851E2,3.3969963E1,8.735982E1,3.352106E3,1.9461708E2,1.099731E1,6.913773E3,4.1904562E2],"tree_param":{"num_deleted":"0","num_feature":"13","num_nodes":"15","size_leaf_vector":"1"}},{"base_weights":[1.0325453E-3,2.5007904E-1,-1.2055304E-1,1.8292708E-2,2.0526007E-1,7.440058E-1,-1.6619307E-1,-3.6158415E-3,3.2199253E-3,2.5192467E-3,1.8642846E-2,-1.1504058E-3,-9.206255E-3],"categories":[],"categories_nodes":[],"categories_segments":[],"categories_sizes":[],"default_left":[0,0,0,0,0,0,0,0,0,0,0,0,0],"id":19,"left_children":[1,3,5,-1,7,9,11,-1,-1,-1,-1,-1,-1],"loss_changes":[3.3903897E2,2.595943E2,2.9699298E2,0E0,2.3652562E2,2.0759946E2,2.7571036E2,0E0,0E0,0E0,0E0,0E0,0E0],"parents":[2147483647,0,0,1,1,2,2,4,4,5,5,6,6],"right_children":[2,4,6,-1,8,10,12,-1,-1,-1,-1,-1,-1],"split_conditions":[-3.2271606E-1,8.824537E4,-5.35354E1,1.8292708E-2,-1.979549E3,6.6790265E-1,1.0062529E5,-3.6158415E-3,3.2199253E-3,2.5192467E-3,1.8642846E-2,-1.1504058E-3,-9.206255E-3],"split_indices":[12,8,7,0,1,4,8,0,0,0,0,0,0],"split_type":[0,0,0,0,0,0,0,0,0,0,0,0,0],"sum_hessian":[1.1194629E4,3.672043E3,7.5225854E3,1.0024119E2,3.5718018E3,3.7643716E2,7.1461484E3,6.095884E2,2.9622134E3,2.624022E2,1.1403496E2,6.6934663E3,4.52682E2],"tree_param":{"num_deleted":"0","num_feature":"13","num_nodes":"13","size_leaf_vector":"1"}},{"base_weights":[1.2150322E-3,2.52558E-1,-1.21727295E-1,5.1580127E-2,5.885601E-1,-1.2439018E0,-9.03755E-2,4.711127E-5,1.877461E-2,3.833025E-3,1.3890306E-2,-1.605458E-2,-3.146417E-3,-4.2431243E-4,-8.81438E-3],"categories":[],"categories_nodes":[],"categories_segments":[],"categories_sizes":[],"default_left":[0,0,0,0,0,0,0,0,0,0,0,0,0,0,0],"id":20,"left_children":[1,3,5,7,9,11,13,-1,-1,-1,-1,-1,-1,-1,-1],"loss_changes":[3.4598242E2,2.4832568E2,2.6441644E2,1.9702158E2,2.2561353E2,6.8127686E1,2.7741888E2,0E0,0E0,0E0,0E0,0E0,0E0,0E0,0E0],"parents":[2147483647,0,0,1,1,2,2,3,3,4,4,5,5,6,6],"right_children":[2,4,6,8,10,12,14,-1,-1,-1,-1,-1,-1,-1,-1],"split_conditions":[-3.2271606E-1,3.8983677E1,2.2554214E2,-1.9610852E-1,1.00766266E5,-5.204146E-2,1.0487044E5,4.711127E-5,1.877461E-2,3.833025E-3,1.3890306E-2,-1.605458E-2,-3.146417E-3,-4.2431243E-4,-8.81438E-3],"split_indices":[12,0,6,3,11,3,10,0,0,0,0,0,0,0,0],"split_type":[0,0,0,0,0,0,0,0,0,0,0,0,0,0,0],"sum_hessian":[1.1194599E4,3.6767686E3,7.5178296E3,2.3013699E3,1.3753984E3,2.0327661E2,7.314553E3,2.2447515E3,5.661851E1,1.0958724E3,2.795261E2,1.458152E2,5.7461395E1,6.8975635E3,4.169898E2],"tree_param":{"num_deleted":"0","num_feature":"13","num_nodes":"15","size_leaf_vector":"1"}},{"base_weights":[2.3585022E-3,2.5124618E-1,-1.18694E-1,1.8122107E-2,2.0790128E-1,6.4561266E-1,-1.6767913E-1,-2.752218E-3,3.4287786E-3,7.822489E-3,-1.8775335E-2,-1.2695864E-2,-1.3455272E-3],"categories":[],"categories_nodes":[],"categories_segments":[],"categories_sizes":[],"default_left":[0,0,0,0,0,0,0,0,0,0,0,0,0],"id":21,"left_children":[1,3,5,-1,7,9,11,-1,-1,-1,-1,-1,-1],"loss_changes":[3.3556354E2,2.4621042E2,2.8065305E2,0E0,2.314068E2,1.5713515E2,2.569041E2,0E0,0E0,0E0,0E0,0E0,0E0],"parents":[2147483647,0,0,1,1,2,2,4,4,5,5,6,6],"right_children":[2,4,6,-1,8,10,12,-1,-1,-1,-1,-1,-1],"split_conditions":[-3.2271606E-1,8.824537E4,-5.1910435E1,1.8122107E-2,9.143319E4,8.386775E2,2.2554214E2,-2.752218E-3,3.4287786E-3,7.822489E-3,-1.8775335E-2,-1.2695864E-2,-1.3455272E-3],"split_indices":[12,8,7,0,10,2,6,0,0,0,0,0,0],"split_type":[0,0,0,0,0,0,0,0,0,0,0,0,0],"sum_hessian":[1.1135764E4,3.6435132E3,7.492251E3,9.733711E1,3.546176E3,4.5052994E2,7.041721E3,7.74164E2,2.772012E3,4.280402E2,2.2489748E1,2.04426E2,6.837295E3],"tree_param":{"num_deleted":"0","num_feature":"13","num_nodes":"13","size_leaf_vector":"1"}},{"base_weights":[-5.288144E-3,1.10862E-1,-2.592159E-1,-3.3248377E-1,2.2729768E-1,1.2455568E0,-3.453158E-1,7.7790924E-4,-7.866132E-3,5.979281E-3,7.906524E-4,1.6530113E-2,-7.9432304E-4,-1.1360849E-2,-2.0181753E-3],"categories":[],"categories_nodes":[],"categories_segments":[],"categories_sizes":[],"default_left":[0,0,0,0,0,0,0,0,0,0,0,0,0,0,0],"id":22,"left_children":[1,3,5,7,9,11,13,-1,-1,-1,-1,-1,-1,-1,-1],"loss_changes":[3.3015115E2,3.9656384E2,4.5560922E2,2.97799E2,3.3418805E2,1.0290051E2,3.7694574E2,0E0,0E0,0E0,0E0,0E0,0E0,0E0,0E0],"parents":[2147483647,0,0,1,1,2,2,3,3,4,4,5,5,6,6],"right_children":[2,4,6,8,10,12,14,-1,-1,-1,-1,-1,-1,-1,-1],"split_conditions":[3.5704342E-1,-9.65657E2,8.469232E4,-1.0058651E0,9.670903E4,5.12586E2,4.900441E-1,7.7790924E-4,-7.866132E-3,5.979281E-3,7.906524E-4,1.6530113E-2,-7.9432304E-4,-1.1360849E-2,-2.0181753E-3],"split_indices":[12,1,10,12,8,2,12,0,0,0,0,0,0,0,0],"split_type":[0,0,0,0,0,0,0,0,0,0,0,0,0,0,0],"sum_hessian":[1.1191963E4,7.679716E3,3.512247E3,1.5970104E3,6.082705E3,1.8935815E2,3.322889E3,8.3945197E2,7.575584E2,1.7368839E3,4.3458213E3,1.4463354E2,4.4724606E1,5.0931488E2,2.813574E3],"tree_param":{"num_deleted":"0","num_feature":"13","num_nodes":"15","size_leaf_vector":"1"}},{"base_weights":[2.987996E-3,1.8209623E-1,-1.5921143E-1,2.094724E-1,-1.733304E0,-7.2376326E-2,-1.2680068E0,-4.666277E-3,2.5684675E-3,-1.9087637E-2,-2.3000794E-3,-2.2016955E-3,3.7915977E-3,-3.8185078E-3,-1.591991E-2],"categories":[],"categories_nodes":[],"categories_segments":[],"categories_sizes":[],"default_left":[0,0,0,0,0,0,0,0,0,0,0,0,0,0,0],"id":23,"left_children":[1,3,5,7,9,11,13,-1,-1,-1,-1,-1,-1,-1,-1],"loss_changes":[3.2531976E2,2.7941214E2,5.6570776E2,1.6819872E2,1.9369125E1,3.6383252E2,1.2190643E2,0E0,0E0,0E0,0E0,0E0,0E0,0E0,0E0],"parents":[2147483647,0,0,1,1,2,2,3,3,4,4,5,5,6,6],"right_children":[2,4,6,8,10,12,14,-1,-1,-1,-1,-1,-1,-1,-1],"split_conditions":[-2.0559343E1,1.042154E5,1.001706E5,1.8610992E1,1.01442E5,1.0110986E3,-4.6519443E-1,-4.666277E-3,2.5684675E-3,-1.9087637E-2,-2.3000794E-3,-2.2016955E-3,3.7915977E-3,-3.8185078E-3,-1.591991E-2],"split_indices":[2,11,8,0,8,6,3,0,0,0,0,0,0,0,0],"split_type":[0,0,0,0,0,0,0,0,0,0,0,0,0,0,0],"sum_hessian":[1.1196135E4,5.320674E3,5.875461E3,5.246577E3,7.409693E1,5.4497314E3,4.2572946E2,3.4297537E2,4.9036016E3,6.611096E1,7.9859724E0,4.106226E3,1.3435051E3,1.14561516E2,3.1116794E2],"tree_param":{"num_deleted":"0","num_feature":"13","num_nodes":"15","size_leaf_vector":"1"}},{"base_weights":[3.7174632E-3,2.0847563E-2,-1.3374276E0,1.13492414E-1,-2.3622854E-1,-6.251432E-1,-1.8085346E-2,1.0674513E-2,7.4299914E-4,-6.077029E-3,9.195909E-4,1.6181877E-2,-1.7408468E-2],"categories":[],"categories_nodes":[],"categories_segments":[],"categories_sizes":[],"default_left":[0,0,0,0,0,0,0,0,0,0,0,0,0],"id":24,"left_children":[1,3,5,7,9,11,-1,-1,-1,-1,-1,-1,-1],"loss_changes":[2.5723956E2,2.6333524E2,4.6255173E1,3.037926E2,3.5714825E2,1.4734654E2,0E0,0E0,0E0,0E0,0E0,0E0,0E0],"parents":[2147483647,0,0,1,1,2,2,3,3,4,4,5,5],"right_children":[2,4,6,8,10,12,-1,-1,-1,-1,-1,-1,-1],"split_conditions":[1.042154E5,7.3168564E-1,5.7156573E2,8.710371E4,8.776007E2,5.431622E1,-1.8085346E-2,1.0674513E-2,7.4299914E-4,-6.077029E-3,9.195909E-4,1.6181877E-2,-1.7408468E-2],"split_indices":[11,3,6,9,6,0,0,0,0,0,0,0,0],"split_type":[0,0,0,0,0,0,0,0,0,0,0,0,0],"sum_hessian":[1.1194799E4,1.1054586E4,1.4021292E2,8.126517E3,2.928068E3,5.6744995E1,8.346792E1,3.196594E2,7.806858E3,1.3730576E3,1.5550106E3,1.8698263E1,3.8046734E1],"tree_param":{"num_deleted":"0","num_feature":"13","num_nodes":"13","size_leaf_vector":"1"}},{"base_weights":[-1.3742264E-3,2.4571925E-1,-1.2179275E-1,4.3958504E-2,5.838416E-1,-1.2517941E0,-8.997337E-2,-3.0950494E-5,1.8528493E-2,3.8269507E-3,1.3596601E-2,-1.5918162E-2,-3.5506813E-3,-4.130963E-4,-8.99095E-3],"categories":[],"categories_nodes":[],"categories_segments":[],"categories_sizes":[],"default_left":[0,0,0,0,0,0,0,0,0,0,0,0,0,0,0],"id":25,"left_children":[1,3,5,7,9,11,13,-1,-1,-1,-1,-1,-1,-1,-1],"loss_changes":[3.3313086E2,2.5023521E2,2.7054498E2,1.9564932E2,2.1340686E2,6.2270416E1,2.882815E2,0E0,0E0,0E0,0E0,0E0,0E0,0E0,0E0],"parents":[2147483647,0,0,1,1,2,2,3,3,4,4,5,5,6,6],"right_children":[2,4,6,8,10,12,14,-1,-1,-1,-1,-1,-1,-1,-1],"split_conditions":[-3.2271606E-1,3.8983677E1,2.2554214E2,-1.9610852E-1,1.00766266E5,-5.204146E-2,1.0487044E5,-3.0950494E-5,1.8528493E-2,3.8269507E-3,1.3596601E-2,-1.5918162E-2,-3.5506813E-3,-4.130963E-4,-8.99095E-3],"split_indices":[12,0,6,3,11,3,10,0,0,0,0,0,0,0,0],"split_type":[0,0,0,0,0,0,0,0,0,0,0,0,0,0,0],"sum_hessian":[1.1193928E4,3.6674475E3,7.5264805E3,2.2975864E3,1.3698611E3,2.0508151E2,7.321399E3,2.2403088E3,5.727747E1,1.0890073E3,2.8085376E2,1.4813593E2,5.694558E1,6.907034E3,4.1436493E2],"tree_param":{"num_deleted":"0","num_feature":"13","num_nodes":"15","size_leaf_vector":"1"}},{"base_weights":[-1.2854934E-3,1.1891199E-1,-2.4929263E-1,-3.3282605E-1,2.3954488E-1,-1.2500755E0,-9.6689895E-2,-1.7983447E-3,-1.9569958E-2,1.5130974E-3,9.5136035E-3,1.892794E-2,-1.4041396E-2,-1.4187102E-3,1.9435853E-2],"categories":[],"categories_nodes":[],"categories_segments":[],"categories_sizes":[],"default_left":[0,0,0,0,0,0,0,0,0,0,0,0,0,0,0],"id":26,"left_children":[1,3,5,7,9,11,13,-1,-1,-1,-1,-1,-1,-1,-1],"loss_changes":[3.3343558E2,4.1064313E2,5.5752765E2,3.9431378E2,3.7335413E2,2.3654077E2,2.924339E2,0E0,0E0,0E0,0E0,0E0,0E0,0E0,0E0],"parents":[2147483647,0,0,1,1,2,2,3,3,4,4,5,5,6,6],"right_children":[2,4,6,8,10,12,14,-1,-1,-1,-1,-1,-1,-1,-1],"split_conditions":[3.31535E-1,-9.65657E2,4.2195E2,4.586946E1,1.695715E-1,3.4225178E-1,1.829748E2,-1.7983447E-3,-1.9569958E-2,1.5130974E-3,9.5136035E-3,1.892794E-2,-1.4041396E-2,-1.4187102E-3,1.9435853E-2],"split_indices":[12,1,6,0,12,12,7,0,0,0,0,0,0,0,0],"split_type":[0,0,0,0,0,0,0,0,0,0,0,0,0,0,0],"sum_hessian":[1.1183429E4,7.5330376E3,3.6503914E3,1.5872924E3,5.9457456E3,4.8202634E2,3.168365E3,1.4516613E3,1.356311E2,5.291086E3,6.546593E2,2.1997484E1,4.6002884E2,3.100633E3,6.773187E1],"tree_param":{"num_deleted":"0","num_feature":"13","num_nodes":"15","size_leaf_vector":"1"}},{"base_weights":[3.4667535E-3,1.6911584E-1,-1.4733587E-1,1.9660811E-1,-1.6884791E0,-6.3987136E-2,-1.233772E0,-2.3441846E-3,3.236329E-3,-1.8777357E-2,-2.107123E-3,-2.0514205E-3,3.6734194E-3,-3.1939065E-3,-1.4965708E-2],"categories":[],"categories_nodes":[],"categories_segments":[],"categories_sizes":[],"default_left":[0,0,0,0,0,0,0,0,0,0,0,0,0,0,0],"id":27,"left_children":[1,3,5,7,9,11,13,-1,-1,-1,-1,-1,-1,-1,-1],"loss_changes":[2.799413E2,2.7306085E2,5.311171E2,2.8825046E2,2.141594E1,3.3184653E2,9.994623E1,0E0,0E0,0E0,0E0,0E0,0E0,0E0,0E0],"parents":[2147483647,0,0,1,1,2,2,3,3,4,4,5,5,6,6],"right_children":[2,4,6,8,10,12,14,-1,-1,-1,-1,-1,-1,-1,-1],"split_conditions":[-2.0559343E1,1.042154E5,1.001706E5,-1.0521647E3,1.01442E5,1.0110986E3,4.0920215E2,-2.3441846E-3,3.236329E-3,-1.8777357E-2,-2.107123E-3,-2.0514205E-3,3.6734194E-3,-3.1939065E-3,-1.4965708E-2],"split_indices":[2,11,8,1,8,6,6,0,0,0,0,0,0,0,0],"split_type":[0,0,0,0,0,0,0,0,0,0,0,0,0,0,0],"sum_hessian":[1.1204479E4,5.33935E3,5.865129E3,5.2623613E3,7.698839E1,5.448214E3,4.1691476E2,1.197637E3,4.0647246E3,6.800799E1,8.980401E0,4.105266E3,1.3429476E3,9.3568436E1,3.2334634E2],"tree_param":{"num_deleted":"0","num_feature":"13","num_nodes":"15","size_leaf_vector":"1"}},{"base_weights":[-3.5386786E-3,2.428181E-1,-1.231237E-1,1.2436804E0,1.7601565E-1,-7.912141E-2,-8.683805E-1,1.3922367E-2,-1.822847E-2,-1.8737046E-2,2.300644E-3,-2.9051624E-4,-6.7210826E-3,1.4598846E-3,-1.4201392E-2],"categories":[],"categories_nodes":[],"categories_segments":[],"categories_sizes":[],"default_left":[0,0,0,0,0,0,0,0,0,0,0,0,0,0,0],"id":28,"left_children":[1,3,5,7,9,11,13,-1,-1,-1,-1,-1,-1,-1,-1],"loss_changes":[3.2974628E2,2.4433281E2,2.4703043E2,1.06718475E2,3.8042032E2,2.1126335E2,2.3527191E2,0E0,0E0,0E0,0E0,0E0,0E0,0E0,0E0],"parents":[2147483647,0,0,1,1,2,2,3,3,4,4,5,5,6,6],"right_children":[2,4,6,8,10,12,14,-1,-1,-1,-1,-1,-1,-1,-1],"split_conditions":[-3.2271606E-1,8.7403984E4,1.0487044E5,2.4011197E0,8.445667E4,1.0011962E5,5.4852013E1,1.3922367E-2,-1.822847E-2,-1.8737046E-2,2.300644E-3,-2.9051624E-4,-6.7210826E-3,1.4598846E-3,-1.4201392E-2],"split_indices":[12,9,10,4,10,8,0,0,0,0,0,0,0,0,0],"split_type":[0,0,0,0,0,0,0,0,0,0,0,0,0,0,0],"sum_hessian":[1.1190781E4,3.656665E3,7.5341167E3,2.2769075E2,3.428974E3,7.1151235E3,4.1899295E2,2.1769081E2,9.999934E0,8.7230194E1,3.3417441E3,6.562092E3,5.5303156E2,1.478735E2,2.7111945E2],"tree_param":{"num_deleted":"0","num_feature":"13","num_nodes":"15","size_leaf_vector":"1"}},{"base_weights":[4.709215E-3,1.1951634E-1,-2.4617393E-1,5.728847E-2,6.012261E-1,1.2287433E0,-3.294224E-1,2.4476172E-3,-1.6045676E-3,7.641739E-3,-1.30725205E-2,1.4280078E-2,-1.8795872E-2,-1.0888115E-2,-1.905485E-3],"categories":[],"categories_nodes":[],"categories_segments":[],"categories_sizes":[],"default_left":[0,0,0,0,0,0,0,0,0,0,0,0,0,0,0],"id":29,"left_children":[1,3,5,7,9,11,13,-1,-1,-1,-1,-1,-1,-1,-1],"loss_changes":[3.2203525E2,2.2989258E2,4.313908E2,2.7738055E2,2.738584E2,1.1897034E2,3.50271E2,0E0,0E0,0E0,0E0,0E0,0E0,0E0,0E0],"parents":[2147483647,0,0,1,1,2,2,3,3,4,4,5,5,6,6],"right_children":[2,4,6,8,10,12,14,-1,-1,-1,-1,-1,-1,-1,-1],"split_conditions":[3.5704342E-1,1.695715E-1,8.469232E4,-3.2271606E-1,7.8498085E1,7.549689E1,4.900441E-1,2.4476172E-3,-1.6045676E-3,7.641739E-3,-1.30725205E-2,1.4280078E-2,-1.8795872E-2,-1.0888115E-2,-1.905485E-3],"split_indices":[12,12,10,12,7,0,12,0,0,0,0,0,0,0,0],"split_type":[0,0,0,0,0,0,0,0,0,0,0,0,0,0,0],"sum_hessian":[1.1178525E4,7.6694272E3,3.509098E3,6.7930156E3,8.764114E2,1.8674622E2,3.3223518E3,3.6501782E3,3.1428374E3,8.080213E2,6.839008E1,1.760038E2,1.074242E1,5.125871E2,2.8097646E3],"tree_param":{"num_deleted":"0","num_feature":"13","num_nodes":"15","size_leaf_vector":"1"}},{"base_weights":[9.084173E-3,1.2263747E-1,-2.4013524E-1,-3.1486246E-1,2.3543023E-1,-1.4785632E0,-8.2987696E-2,7.5655896E-4,-7.529662E-3,-5.3070923E-3,3.07263E-3,-1.7735915E-2,-7.3853633E-3,1.2065583E-2,-1.6656718E-3],"categories":[],"categories_nodes":[],"categories_segments":[],"categories_sizes":[],"default_left":[0,0,0,0,0,0,0,0,0,0,0,0,0,0,0],"id":30,"left_children":[1,3,5,7,9,11,13,-1,-1,-1,-1,-1,-1,-1,-1],"loss_changes":[3.16285E2,3.7895306E2,6.807125E2,2.6937485E2,3.3613007E2,8.468329E1,3.3490884E2,0E0,0E0,0E0,0E0,0E0,0E0,0E0,0E0],"parents":[2147483647,0,0,1,1,2,2,3,3,4,4,5,5,6,6],"right_children":[2,4,6,8,10,12,14,-1,-1,-1,-1,-1,-1,-1,-1],"split_conditions":[3.5704342E-1,-9.8039764E2,4.1424356E2,-1.0058651E0,2.50965E2,5.5912834E-1,8.469232E4,7.5655896E-4,-7.529662E-3,-5.3070923E-3,3.07263E-3,-1.7735915E-2,-7.3853633E-3,1.2065583E-2,-1.6656718E-3],"split_indices":[12,1,6,12,6,12,10,0,0,0,0,0,0,0,0],"split_type":[0,0,0,0,0,0,0,0,0,0,0,0,0,0,0],"sum_hessian":[1.1174232E4,7.676879E3,3.4973535E3,1.5731523E3,6.1037266E3,3.9286954E2,3.104484E3,8.321844E2,7.4096796E2,5.2267676E2,5.58105E3,2.798889E2,1.12980644E2,1.8814609E2,2.916338E3],"tree_param":{"num_deleted":"0","num_feature":"13","num_nodes":"15","size_leaf_vector":"1"}},{"base_weights":[1.8413776E-3,2.3305167E-1,-1.1125895E-1,1.7681185E-2,1.8959661E-1,7.540347E-1,-1.5659584E-1,-2.7931994E-3,3.1898087E-3,9.182968E-3,-1.9246068E-2,-1.0761205E-3,-8.9483075E-3],"categories":[],"categories_nodes":[],"categories_segments":[],"categories_sizes":[],"default_left":[0,0,0,0,0,0,0,0,0,0,0,0,0],"id":31,"left_children":[1,3,5,-1,7,9,11,-1,-1,-1,-1,-1,-1],"loss_changes":[2.929984E2,2.4517813E2,2.952845E2,0E0,2.1730768E2,1.6666435E2,2.5846893E2,0E0,0E0,0E0,0E0,0E0,0E0],"parents":[2147483647,0,0,1,1,2,2,4,4,5,5,6,6],"right_children":[2,4,6,-1,8,10,12,-1,-1,-1,-1,-1,-1],"split_conditions":[-3.2271606E-1,8.824537E4,-5.35354E1,1.7681185E-2,9.143319E4,1.4638392E3,1.0062529E5,-2.7931994E-3,3.1898087E-3,9.182968E-3,-1.9246068E-2,-1.0761205E-3,-8.9483075E-3],"split_indices":[12,8,7,0,10,6,8,0,0,0,0,0,0],"split_type":[0,0,0,0,0,0,0,0,0,0,0,0,0],"sum_hessian":[1.1202555E4,3.679505E3,7.52305E3,1.00200356E2,3.5793044E3,3.7376627E2,7.149283E3,7.7378424E2,2.8055203E3,3.5278937E2,2.0976902E1,6.705502E3,4.437815E2],"tree_param":{"num_deleted":"0","num_feature":"13","num_nodes":"13","size_leaf_vector":"1"}},{"base_weights":[3.9747837E-3,1.1569246E-1,-2.4119508E-1,-5.606248E-1,1.6609207E-1,-1.4713675E0,-8.596151E-2,-1.0014642E-2,8.824219E-3,1.025916E-3,6.300851E-3,-1.756453E-2,-7.618766E-3,1.1986035E-2,-1.6778932E-3],"categories":[],"categories_nodes":[],"categories_segments":[],"categories_sizes":[],"default_left":[0,0,0,0,0,0,0,0,0,0,0,0,0,0,0],"id":32,"left_children":[1,3,5,7,9,11,13,-1,-1,-1,-1,-1,-1,-1,-1],"loss_changes":[3.0707648E2,2.626175E2,6.7006726E2,3.4082242E2,2.1114433E2,7.818805E1,3.2787567E2,0E0,0E0,0E0,0E0,0E0,0E0,0E0,0E0],"parents":[2147483647,0,0,1,1,2,2,3,3,4,4,5,5,6,6],"right_children":[2,4,6,8,10,12,14,-1,-1,-1,-1,-1,-1,-1,-1],"split_conditions":[3.5704342E-1,2.50965E2,4.1424356E2,3.1356705E1,1.695715E-1,5.5912834E-1,8.469232E4,-1.0014642E-2,8.824219E-3,1.025916E-3,6.300851E-3,-1.756453E-2,-7.618766E-3,1.1986035E-2,-1.6778932E-3],"split_indices":[12,6,6,7,12,12,10,0,0,0,0,0,0,0,0],"split_type":[0,0,0,0,0,0,0,0,0,0,0,0,0,0,0],"sum_hessian":[1.1209323E4,7.7007944E3,3.5085283E3,5.333671E2,7.1674272E3,3.921776E2,3.1163506E3,4.0879074E2,1.2457638E2,6.305676E3,8.617518E2,2.787111E2,1.1346652E2,1.8580849E2,2.930542E3],"tree_param":{"num_deleted":"0","num_feature":"13","num_nodes":"15","size_leaf_vector":"1"}},{"base_weights":[-6.1891573E-3,1.0420363E-1,-2.4693029E-1,-3.162167E-1,2.1464795E-1,-1.4483384E0,-9.496693E-2,8.275484E-4,-7.576219E-3,-5.100497E-3,2.8414305E-3,-2.9778162E-3,-1.6427362E-2,8.264896E-4,-5.767102E-3],"categories":[],"categories_nodes":[],"categories_segments":[],"categories_sizes":[],"default_left":[0,0,0,0,0,0,0,0,0,0,0,0,0,0,0],"id":33,"left_children":[1,3,5,7,9,11,13,-1,-1,-1,-1,-1,-1,-1,-1],"loss_changes":[2.9680695E2,3.556091E2,6.408941E2,2.8067834E2,3.055783E2,8.767529E1,2.6683804E2,0E0,0E0,0E0,0E0,0E0,0E0,0E0,0E0],"parents":[2147483647,0,0,1,1,2,2,3,3,4,4,5,5,6,6],"right_children":[2,4,6,8,10,12,14,-1,-1,-1,-1,-1,-1,-1,-1],"split_conditions":[3.5704342E-1,-9.65657E2,4.1424356E2,-1.0058651E0,2.50965E2,9.634186E4,1.0243926E0,8.275484E-4,-7.576219E-3,-5.100497E-3,2.8414305E-3,-2.9778162E-3,-1.6427362E-2,8.264896E-4,-5.767102E-3],"split_indices":[12,1,6,12,6,9,4,0,0,0,0,0,0,0,0],"split_type":[0,0,0,0,0,0,0,0,0,0,0,0,0,0,0],"sum_hessian":[1.11662295E4,7.656074E3,3.5101553E3,1.5924287E3,6.0636455E3,3.9318E2,3.1169753E3,8.368448E2,7.555839E2,5.30039E2,5.5336064E3,5.7195602E1,3.359844E2,2.2779407E3,8.390348E2],"tree_param":{"num_deleted":"0","num_feature":"13","num_nodes":"15","size_leaf_vector":"1"}},{"base_weights":[-2.1052212E-4,2.3336267E-1,-1.1413909E-1,1.2401187E0,1.6560331E-1,-6.961471E-2,-8.7599105E-1,1.4004118E-2,-1.808409E-2,-1.8574446E-2,2.190058E-3,-1.2003219E-2,-3.635941E-4,-1.6581323E-2,-3.9356267E-3],"categories":[],"categories_nodes":[],"categories_segments":[],"categories_sizes":[],"default_left":[0,0,0,0,0,0,0,0,0,0,0,0,0,0,0],"id":34,"left_children":[1,3,5,7,9,11,13,-1,-1,-1,-1,-1,-1,-1,-1],"loss_changes":[2.9809647E2,2.5033076E2,2.553476E2,1.1562906E2,3.7228586E2,2.6748932E2,1.5618677E2,0E0,0E0,0E0,0E0,0E0,0E0,0E0,0E0],"parents":[2147483647,0,0,1,1,2,2,3,3,4,4,5,5,6,6],"right_children":[2,4,6,8,10,12,14,-1,-1,-1,-1,-1,-1,-1,-1],"split_conditions":[-3.2271606E-1,8.7403984E4,1.0487044E5,2.4011197E0,8.445667E4,2.2554214E2,4.936829E-3,1.4004118E-2,-1.808409E-2,-1.8574446E-2,2.190058E-3,-1.2003219E-2,-3.635941E-4,-1.6581323E-2,-3.9356267E-3],"split_indices":[12,9,10,4,10,6,12,0,0,0,0,0,0,0,0],"split_type":[0,0,0,0,0,0,0,0,0,0,0,0,0,0,0],"sum_hessian":[1.1200144E4,3.671627E3,7.5285166E3,2.3044318E2,3.4411838E3,7.113858E3,4.1465878E2,2.1944527E2,1.0997915E1,8.76321E1,3.3535518E3,2.022457E2,6.9116123E3,1.5726099E2,2.573978E2],"tree_param":{"num_deleted":"0","num_feature":"13","num_nodes":"15","size_leaf_vector":"1"}},{"base_weights":[-5.2260603E-3,1.6392122E-1,-1.5923956E-1,1.899952E-1,-1.6399933E0,-7.7724874E-2,-1.2160434E0,-2.2001723E-3,3.1062025E-3,-1.8568665E-2,-2.1312985E-4,-2.1519985E-3,3.4267968E-3,-3.148374E-3,-1.4802742E-2],"categories":[],"categories_nodes":[],"categories_segments":[],"categories_sizes":[],"default_left":[0,0,0,0,0,0,0,0,0,0,0,0,0,0,0],"id":35,"left_children":[1,3,5,7,9,11,13,-1,-1,-1,-1,-1,-1,-1,-1],"loss_changes":[2.9063818E2,2.5039998E2,5.029474E2,2.5933496E2,2.6591644E1,3.1346088E2,9.9093506E1,0E0,0E0,0E0,0E0,0E0,0E0,0E0,0E0],"parents":[2147483647,0,0,1,1,2,2,3,3,4,4,5,5,6,6],"right_children":[2,4,6,8,10,12,14,-1,-1,-1,-1,-1,-1,-1,-1],"split_conditions":[-2.0559343E1,1.042154E5,1.001706E5,-1.0521647E3,1.01442E5,1.0110986E3,4.0920215E2,-2.2001723E-3,3.1062025E-3,-1.8568665E-2,-2.1312985E-4,-2.1519985E-3,3.4267968E-3,-3.148374E-3,-1.4802742E-2],"split_indices":[2,11,8,1,8,6,6,0,0,0,0,0,0,0,0],"split_type":[0,0,0,0,0,0,0,0,0,0,0,0,0,0,0],"sum_hessian":[1.1154521E4,5.316044E3,5.838477E3,5.241182E3,7.486194E1,5.421382E3,4.1709515E2,1.1912434E3,4.0499385E3,6.588713E1,8.974809E0,4.0857905E3,1.3355914E3,9.506176E1,3.220334E2],"tree_param":{"num_deleted":"0","num_feature":"13","num_nodes":"15","size_leaf_vector":"1"}},{"base_weights":[-3.7248776E-4,1.1028807E-1,-2.427258E-1,-3.0005285E-1,2.166507E-1,-1.4415122E0,-9.091196E-2,-1.4903821E-3,-1.9253734E-2,-5.3668665E-3,2.889026E-3,-1.8751832E-2,-9.679799E-3,1.6133905E-3,-5.058449E-3],"categories":[],"categories_nodes":[],"categories_segments":[],"categories_sizes":[],"default_left":[0,0,0,0,0,0,0,0,0,0,0,0,0,0,0],"id":36,"left_children":[1,3,5,7,9,11,13,-1,-1,-1,-1,-1,-1,-1,-1],"loss_changes":[2.9925436E2,3.344062E2,6.364487E2,3.868612E2,3.3131638E2,7.891205E1,3.251501E2,0E0,0E0,0E0,0E0,0E0,0E0,0E0,0E0],"parents":[2147483647,0,0,1,1,2,2,3,3,4,4,5,5,6,6],"right_children":[2,4,6,8,10,12,14,-1,-1,-1,-1,-1,-1,-1,-1],"split_conditions":[3.5704342E-1,-9.8039764E2,4.1424356E2,4.586946E1,2.50965E2,4.900441E-1,9.7639234E4,-1.4903821E-3,-1.9253734E-2,-5.3668665E-3,2.889026E-3,-1.8751832E-2,-9.679799E-3,1.6133905E-3,-5.058449E-3],"split_indices":[12,1,6,0,6,12,5,0,0,0,0,0,0,0,0],"split_type":[0,0,0,0,0,0,0,0,0,0,0,0,0,0,0],"sum_hessian":[1.1156318E4,7.65948E3,3.496838E3,1.5763173E3,6.0831626E3,3.921062E2,3.1047317E3,1.4433059E3,1.3301126E2,5.318089E2,5.551354E3,2.0312238E2,1.8898383E2,1.9312651E3,1.1734666E3],"tree_param":{"num_deleted":"0","num_feature":"13","num_nodes":"15","size_leaf_vector":"1"}},{"base_weights":[7.899258E-4,1.1008178E-1,-2.3636988E-1,-3.0284646E-1,2.1632381E-1,-9.878004E-1,-1.0361396E-1,-1.528195E-3,-1.9079858E-2,5.8897724E-3,6.720916E-4,-1.2599071E-2,1.9559009E-2,1.9490074E-2,-1.4239941E-3],"categories":[],"categories_nodes":[],"categories_segments":[],"categories_sizes":[],"default_left":[0,0,0,0,0,0,0,0,0,0,0,0,0,0,0],"id":37,"left_children":[1,3,5,7,9,11,13,-1,-1,-1,-1,-1,-1,-1,-1],"loss_changes":[2.9001233E2,3.3607895E2,3.5200537E2,3.7725433E2,3.385063E2,4.2686865E2,2.391782E2,0E0,0E0,0E0,0E0,0E0,0E0,0E0,0E0],"parents":[2147483647,0,0,1,1,2,2,3,3,4,4,5,5,6,6],"right_children":[2,4,6,8,10,12,14,-1,-1,-1,-1,-1,-1,-1,-1],"split_conditions":[3.5704342E-1,-9.8039764E2,4.900441E-1,4.586946E1,9.670903E4,1.6215233E2,-3.5650972E3,-1.528195E-3,-1.9079858E-2,5.8897724E-3,6.720916E-4,-1.2599071E-2,1.9559009E-2,1.9490074E-2,-1.4239941E-3],"split_indices":[12,1,12,0,8,2,1,0,0,0,0,0,0,0,0],"split_type":[0,0,0,0,0,0,0,0,0,0,0,0,0,0,0],"sum_hessian":[1.1186901E4,7.658241E3,3.5286597E3,1.5667894E3,6.0914517E3,5.288426E2,2.9998171E3,1.433866E3,1.329234E2,1.7400159E3,4.351436E3,4.84618E2,4.422459E1,5.4718704E1,2.9450984E3],"tree_param":{"num_deleted":"0","num_feature":"13","num_nodes":"15","size_leaf_vector":"1"}},{"base_weights":[-2.164924E-3,2.2187671E-1,-1.1147907E-1,1.8228933E-2,5.6482196E-1,-1.211721E0,-8.087564E-2,-2.8089507E-4,1.8172365E-2,3.6188604E-3,1.3482921E-2,-1.5613135E-2,-3.1013926E-3,-1.9761853E-2,-6.2055216E-4],"categories":[],"categories_nodes":[],"categories_segments":[],"categories_sizes":[],"default_left":[0,0,0,0,0,0,0,0,0,0,0,0,0,0,0],"id":38,"left_children":[1,3,5,7,9,11,13,-1,-1,-1,-1,-1,-1,-1,-1],"loss_changes":[2.7416452E2,2.5636688E2,2.5323064E2,1.9205818E2,2.1696307E2,6.366742E1,2.6102393E2,0E0,0E0,0E0,0E0,0E0,0E0,0E0,0E0],"parents":[2147483647,0,0,1,1,2,2,3,3,4,4,5,5,6,6],"right_children":[2,4,6,8,10,12,14,-1,-1,-1,-1,-1,-1,-1,-1],"split_conditions":[-3.2271606E-1,3.8983677E1,2.2554214E2,-1.9610852E-1,1.00766266E5,1.8304813E2,-4.3965015E2,-2.8089507E-4,1.8172365E-2,3.6188604E-3,1.3482921E-2,-1.5613135E-2,-3.1013926E-3,-1.9761853E-2,-6.2055216E-4],"split_indices":[12,0,6,3,11,1,2,0,0,0,0,0,0,0,0],"split_type":[0,0,0,0,0,0,0,0,0,0,0,0,0,0,0],"sum_hessian":[1.1192528E4,3.66992E3,7.5226084E3,2.3032544E3,1.3666656E3,2.025356E2,7.3200728E3,2.2464016E3,5.6852955E1,1.086659E3,2.800066E2,1.4541751E2,5.7118084E1,7.0951035E1,7.249122E3],"tree_param":{"num_deleted":"0","num_feature":"13","num_nodes":"15","size_leaf_vector":"1"}},{"base_weights":[6.835464E-4,1.6482951E-1,-1.4835529E-1,1.8625889E-2,1.4751066E-1,-6.940177E-2,-1.1809074E0,2.0125778E-3,-4.3677166E-3,-2.0851619E-3,3.4595423E-3,-2.9006149E-3,-1.5144247E-2],"categories":[],"categories_nodes":[],"categories_segments":[],"categories_sizes":[],"default_left":[0,0,0,0,0,0,0,0,0,0,0,0,0],"id":39,"left_children":[1,3,5,-1,7,9,11,-1,-1,-1,-1,-1,-1],"loss_changes":[2.7395895E2,1.5641814E2,4.784038E2,0E0,1.657847E2,3.1518283E2,1.2341223E2,0E0,0E0,0E0,0E0,0E0,0E0],"parents":[2147483647,0,0,1,1,2,2,4,4,5,5,6,6],"right_children":[2,4,6,-1,8,10,12,-1,-1,-1,-1,-1,-1],"split_conditions":[-2.0559343E1,8.587571E4,1.001706E5,1.8625889E-2,2.057629E-1,9.8858716E2,-4.6519443E-1,2.0125778E-3,-4.3677166E-3,-2.0851619E-3,3.4595423E-3,-2.9006149E-3,-1.5144247E-2],"split_indices":[2,9,8,0,3,6,3,0,0,0,0,0,0],"split_type":[0,0,0,0,0,0,0,0,0,0,0,0,0],"sum_hessian":[1.1196396E4,5.328107E3,5.8682896E3,5.272724E1,5.27538E3,5.452439E3,4.1585046E2,4.831586E3,4.4379373E2,4.0848167E3,1.3676222E3,1.1378723E2,3.0206323E2],"tree_param":{"num_deleted":"0","num_feature":"13","num_nodes":"13","size_leaf_vector":"1"}},{"base_weights":[-9.885711E-3,1.5256354E-1,-1.5821086E-1,1.784904E-1,-1.6369171E0,-7.7835485E-2,-1.1892639E0,-2.3017775E-3,2.9970305E-3,-1.8402575E-2,-8.6089596E-5,-2.1333143E-3,3.3435912E-3,-2.7685356E-3,-1.4553287E-2],"categories":[],"categories_nodes":[],"categories_segments":[],"categories_sizes":[],"default_left":[0,0,0,0,0,0,0,0,0,0,0,0,0,0,0],"id":40,"left_children":[1,3,5,7,9,11,13,-1,-1,-1,-1,-1,-1,-1,-1],"loss_changes":[2.6920892E2,2.4769577E2,4.8389148E2,2.604895E2,2.5232086E1,3.0272147E2,1.0210889E2,0E0,0E0,0E0,0E0,0E0,0E0,0E0,0E0],"parents":[2147483647,0,0,1,1,2,2,3,3,4,4,5,5,6,6],"right_children":[2,4,6,8,10,12,14,-1,-1,-1,-1,-1,-1,-1,-1],"split_conditions":[-2.0559343E1,1.042154E5,1.001706E5,-1.0521647E3,1.01442E5,1.0110986E3,4.0920215E2,-2.3017775E-3,2.9970305E-3,-1.8402575E-2,-8.6089596E-5,-2.1333143E-3,3.3435912E-3,-2.7685356E-3,-1.4553287E-2],"split_indices":[2,11,8,1,8,6,6,0,0,0,0,0,0,0,0],"split_type":[0,0,0,0,0,0,0,0,0,0,0,0,0,0,0],"sum_hessian":[1.1170668E4,5.3314775E3,5.8391904E3,5.256223E3,7.5254456E1,5.4179146E3,4.2127603E2,1.2021793E3,4.0540437E3,6.678437E1,8.47009E0,4.077912E3,1.3400022E3,9.557233E1,3.257037E2],"tree_param":{"num_deleted":"0","num_feature":"13","num_nodes":"15","size_leaf_vector":"1"}},{"base_weights":[6.1532855E-3,1.1818924E-1,-2.2555743E-1,-2.9674274E-1,2.2923036E-1,1.1636381E0,-3.0184892E-1,-1.4927603E-3,-1.8879704E-2,1.412301E-3,9.336298E-3,1.3676448E-2,-1.9007474E-2,-2.2364794E-3,-1.2378672E-2],"categories":[],"categories_nodes":[],"categories_segments":[],"categories_sizes":[],"default_left":[0,0,0,0,0,0,0,0,0,0,0,0,0,0,0],"id":41,"left_children":[1,3,5,7,9,11,13,-1,-1,-1,-1,-1,-1,-1,-1],"loss_changes":[2.8938568E2,3.4627814E2,3.8541522E2,3.7206265E2,3.6735068E2,1.20971344E2,2.518805E2,0E0,0E0,0E0,0E0,0E0,0E0,0E0,0E0],"parents":[2147483647,0,0,1,1,2,2,3,3,4,4,5,5,6,6],"right_children":[2,4,6,8,10,12,14,-1,-1,-1,-1,-1,-1,-1,-1],"split_conditions":[3.31535E-1,-9.65657E2,8.469232E4,4.586946E1,1.695715E-1,7.549689E1,1.04340984E5,-1.4927603E-3,-1.8879704E-2,1.412301E-3,9.336298E-3,1.3676448E-2,-1.9007474E-2,-2.2364794E-3,-1.2378672E-2],"split_indices":[12,1,10,0,12,0,10,0,0,0,0,0,0,0,0],"split_type":[0,0,0,0,0,0,0,0,0,0,0,0,0,0,0],"sum_hessian":[1.114537E4,7.5131353E3,3.6322349E3,1.585787E3,5.9273486E3,1.8834781E2,3.4438872E3,1.45229E3,1.3349686E2,5.270152E3,6.571968E2,1.7711063E2,1.1237172E1,3.179491E3,2.6439618E2],"tree_param":{"num_deleted":"0","num_feature":"13","num_nodes":"15","size_leaf_vector":"1"}},{"base_weights":[1.9630056E-3,1.0725302E-1,-2.2848742E-1,-2.9810047E-1,2.1399148E-1,7.211515E-1,-3.3861893E-1,-1.5341316E-3,-1.871939E-2,5.6775585E-3,7.170766E-4,-4.3973867E-3,1.2292969E-2,-1.016598E-2,-2.0769897E-3],"categories":[],"categories_nodes":[],"categories_segments":[],"categories_sizes":[],"default_left":[0,0,0,0,0,0,0,0,0,0,0,0,0,0,0],"id":42,"left_children":[1,3,5,7,9,11,13,-1,-1,-1,-1,-1,-1,-1,-1],"loss_changes":[2.7177954E2,3.32708E2,3.6761615E2,3.6472052E2,3.0631238E2,2.1606421E2,2.792354E2,0E0,0E0,0E0,0E0,0E0,0E0,0E0,0E0],"parents":[2147483647,0,0,1,1,2,2,3,3,4,4,5,5,6,6],"right_children":[2,4,6,8,10,12,14,-1,-1,-1,-1,-1,-1,-1,-1],"split_conditions":[3.5704342E-1,-9.65657E2,8.5641125E4,4.586946E1,9.670903E4,-2.979392E1,4.900441E-1,-1.5341316E-3,-1.871939E-2,5.6775585E-3,7.170766E-4,-4.3973867E-3,1.2292969E-2,-1.016598E-2,-2.0769897E-3],"split_indices":[12,1,5,0,8,7,12,0,0,0,0,0,0,0,0],"split_type":[0,0,0,0,0,0,0,0,0,0,0,0,0,0,0],"sum_hessian":[1.1198868E4,7.687209E3,3.5116587E3,1.6019182E3,6.085291E3,3.643556E2,3.147303E3,1.4680535E3,1.3386472E2,1.7446145E3,4.3406763E3,1.109707E2,2.533849E2,5.0829474E2,2.6390083E3],"tree_param":{"num_deleted":"0","num_feature":"13","num_nodes":"15","size_leaf_vector":"1"}},{"base_weights":[-4.1412017E-3,2.1421744E-1,-1.09444164E-1,1.7255887E-2,1.7315929E-1,-1.9644156E-2,-9.1500424E-2,-2.932393E-3,3.0320077E-3,1.7334437E-3,-2.2153861E-3],"categories":[],"categories_nodes":[],"categories_segments":[],"categories_sizes":[],"default_left":[0,0,0,0,0,0,0,0,0,0,0],"id":43,"left_children":[1,3,5,-1,7,-1,9,-1,-1,-1,-1],"loss_changes":[2.5696094E2,2.2532076E2,2.507684E2,0E0,2.1484285E2,0E0,2.5724155E2,0E0,0E0,0E0,0E0],"parents":[2147483647,0,0,1,1,2,2,4,4,6,6],"right_children":[2,4,6,-1,8,-1,10,-1,-1,-1,-1],"split_conditions":[-3.2271606E-1,8.824537E4,-4.3965015E2,1.7255887E-2,9.143319E4,-1.9644156E-2,-2.0559343E1,-2.932393E-3,3.0320077E-3,1.7334437E-3,-2.2153861E-3],"split_indices":[12,8,2,0,10,0,2,0,0,0,0],"split_type":[0,0,0,0,0,0,0,0,0,0,0],"sum_hessian":[1.11732E4,3.6348525E3,7.538348E3,9.50483E1,3.5398044E3,7.118298E1,7.467165E3,7.7150793E2,2.7682964E3,2.4588887E3,5.0082764E3],"tree_param":{"num_deleted":"0","num_feature":"13","num_nodes":"11","size_leaf_vector":"1"}},{"base_weights":[2.878029E-3,2.2455865E-1,-1.05458595E-1,1.2029177E0,1.5911633E-1,-1.1936069E0,-7.486506E-2,1.3629979E-2,-2.524662E-3,-1.8320246E-2,2.1178622E-3,-1.5570569E-2,-2.6424443E-3,-1.944548E-2,-5.631417E-4],"categories":[],"categories_nodes":[],"categories_segments":[],"categories_sizes":[],"default_left":[0,0,0,0,0,0,0,0,0,0,0,0,0,0,0],"id":44,"left_children":[1,3,5,7,9,11,13,-1,-1,-1,-1,-1,-1,-1,-1],"loss_changes":[2.6822464E2,2.3455064E2,2.4966064E2,5.3862366E1,3.6090384E2,6.8863464E1,2.5301965E2,0E0,0E0,0E0,0E0,0E0,0E0,0E0,0E0],"parents":[2147483647,0,0,1,1,2,2,3,3,4,4,5,5,6,6],"right_children":[2,4,6,8,10,12,14,-1,-1,-1,-1,-1,-1,-1,-1],"split_conditions":[-3.2271606E-1,8.7403984E4,2.2554214E2,5.788425E1,8.445667E4,1.8304813E2,-4.3965015E2,1.3629979E-2,-2.524662E-3,-1.8320246E-2,2.1178622E-3,-1.5570569E-2,-2.6424443E-3,-1.944548E-2,-5.631417E-4],"split_indices":[12,9,6,0,10,1,2,0,0,0,0,0,0,0,0],"split_type":[0,0,0,0,0,0,0,0,0,0,0,0,0,0,0],"sum_hessian":[1.1166535E4,3.665349E3,7.5011855E3,2.2871352E2,3.4366355E3,2.0409067E2,7.297095E3,2.0610693E2,2.2606583E1,8.769301E1,3.3489426E3,1.4622885E2,5.7861805E1,7.067005E1,7.226425E3],"tree_param":{"num_deleted":"0","num_feature":"13","num_nodes":"15","size_leaf_vector":"1"}},{"base_weights":[2.2129684E-3,1.8377995E-2,-1.2924508E0,1.7507297E-1,-1.24381624E-1,-6.0298467E-1,-1.7590234E-2,-2.5143693E-3,3.0041283E-3,-5.3904066E-4,-1.209744E-2,-1.340228E-2,1.8866789E-2],"categories":[],"categories_nodes":[],"categories_segments":[],"categories_sizes":[],"default_left":[0,0,0,0,0,0,0,0,0,0,0,0,0],"id":45,"left_children":[1,3,5,7,9,11,-1,-1,-1,-1,-1,-1,-1],"loss_changes":[2.3347641E2,2.4649837E2,4.319536E1,2.8090485E2,4.410063E2,1.0723655E2,0E0,0E0,0E0,0E0,0E0,0E0,0E0],"parents":[2147483647,0,0,1,1,2,2,3,3,4,4,5,5],"right_children":[2,4,6,8,10,12,-1,-1,-1,-1,-1,-1,-1],"split_conditions":[1.042154E5,-2.0559343E1,5.7156573E2,-1.0521647E3,1.001706E5,5.0452E2,-1.7590234E-2,-2.5143693E-3,3.0041283E-3,-5.3904066E-4,-1.209744E-2,-1.340228E-2,1.8866789E-2],"split_indices":[11,2,6,1,8,6,0,0,0,0,0,0,0],"split_type":[0,0,0,0,0,0,0,0,0,0,0,0,0],"sum_hessian":[1.1153893E4,1.1017317E4,1.3657518E2,5.252201E3,5.765116E3,5.6046394E1,8.052879E1,1.1926871E3,4.059514E3,5.4145728E3,3.505434E2,4.3597816E1,1.2448576E1],"tree_param":{"num_deleted":"0","num_feature":"13","num_nodes":"13","size_leaf_vector":"1"}},{"base_weights":[2.021383E-3,1.0508778E-1,-2.1469311E-1,-2.973397E-1,2.1201937E-1,2.2860937E-1,-4.50042E-1,-1.5446508E-3,-1.8511785E-2,1.2668207E-3,8.61113E-3,-3.1577374E-3,8.758324E-3,-1.0984231E-2,-2.720695E-3],"categories":[],"categories_nodes":[],"categories_segments":[],"categories_sizes":[],"default_left":[0,0,0,0,0,0,0,0,0,0,0,0,0,0,0],"id":46,"left_children":[1,3,5,7,9,11,13,-1,-1,-1,-1,-1,-1,-1,-1],"loss_changes":[2.4925569E2,3.2550113E2,3.7534998E2,3.5227292E2,3.3089014E2,4.3998004E2,2.708477E2,0E0,0E0,0E0,0E0,0E0,0E0,0E0,0E0],"parents":[2147483647,0,0,1,1,2,2,3,3,4,4,5,5,6,6],"right_children":[2,4,6,8,10,12,14,-1,-1,-1,-1,-1,-1,-1,-1],"split_conditions":[3.4225178E-1,-9.65657E2,9.59215E4,4.586946E1,1.695715E-1,4.826438E0,4.900441E-1,-1.5446508E-3,-1.8511785E-2,1.2668207E-3,8.61113E-3,-3.1577374E-3,8.758324E-3,-1.0984231E-2,-2.720695E-3],"split_indices":[12,1,5,0,12,7,12,0,0,0,0,0,0,0,0],"split_type":[0,0,0,0,0,0,0,0,0,0,0,0,0,0,0],"sum_hessian":[1.1157369E4,7.5616626E3,3.5957063E3,1.5870734E3,5.9745894E3,1.2469617E3,2.3487446E3,1.454438E3,1.3263536E2,5.2814272E3,6.931619E2,6.775677E2,5.69394E2,5.047373E2,1.8440073E3],"tree_param":{"num_deleted":"0","num_feature":"13","num_nodes":"15","size_leaf_vector":"1"}},{"base_weights":[2.4819004E-4,1.07825205E-1,-2.2566576E-1,-2.959215E-1,2.1297853E-1,-1.340039E0,-6.267657E-2,-1.5154706E-3,-1.8364675E-2,1.294011E-3,8.424463E-3,1.7879909E-2,-1.4170771E-2,1.8114599E-3,-4.6252687E-3],"categories":[],"categories_nodes":[],"categories_segments":[],"categories_sizes":[],"default_left":[0,0,0,0,0,0,0,0,0,0,0,0,0,0,0],"id":47,"left_children":[1,3,5,7,9,11,13,-1,-1,-1,-1,-1,-1,-1,-1],"loss_changes":[2.7154684E2,3.2140918E2,6.54563E2,3.4766846E2,3.1584378E2,1.1334735E2,3.067391E2,0E0,0E0,0E0,0E0,0E0,0E0,0E0,0E0],"parents":[2147483647,0,0,1,1,2,2,3,3,4,4,5,5,6,6],"right_children":[2,4,6,8,10,12,14,-1,-1,-1,-1,-1,-1,-1,-1],"split_conditions":[3.4225178E-1,-9.8039764E2,4.2195E2,4.586946E1,1.695715E-1,2.7251715E2,9.7639234E4,-1.5154706E-3,-1.8364675E-2,1.294011E-3,8.424463E-3,1.7879909E-2,-1.4170771E-2,1.8114599E-3,-4.6252687E-3],"split_indices":[12,1,6,0,12,6,5,0,0,0,0,0,0,0,0],"split_type":[0,0,0,0,0,0,0,0,0,0,0,0,0,0,0],"sum_hessian":[1.1171319E4,7.5680454E3,3.6032732E3,1.5634E3,6.0046455E3,4.5884982E2,3.1444233E3,1.4304425E3,1.3295755E2,5.3018936E3,7.0275195E2,1.0495251E1,4.4835455E2,1.9536592E3,1.1907643E3],"tree_param":{"num_deleted":"0","num_feature":"13","num_nodes":"15","size_leaf_vector":"1"}},{"base_weights":[-2.2937716E-3,9.962517E-2,-2.2661732E-1,4.0345017E-2,5.673627E-1,1.1635944E0,-3.0387247E-1,2.118647E-3,-1.5923552E-3,-1.3965596E-2,7.2651575E-3,1.3621829E-2,-1.8665794E-2,-2.204937E-3,-1.462916E-2],"categories":[],"categories_nodes":[],"categories_segments":[],"categories_sizes":[],"default_left":[0,0,0,0,0,0,0,0,0,0,0,0,0,0,0],"id":48,"left_children":[1,3,5,7,9,11,13,-1,-1,-1,-1,-1,-1,-1,-1],"loss_changes":[2.5565038E2,2.1316545E2,3.7553302E2,2.3366432E2,2.7130887E2,1.1333255E2,3.195688E2,0E0,0E0,0E0,0E0,0E0,0E0,0E0,0E0],"parents":[2147483647,0,0,1,1,2,2,3,3,4,4,5,5,6,6],"right_children":[2,4,6,8,10,12,14,-1,-1,-1,-1,-1,-1,-1,-1],"split_conditions":[3.5704342E-1,1.695715E-1,8.469232E4,-3.2271606E-1,4.057524E1,7.549689E1,1.04340984E5,2.118647E-3,-1.5923552E-3,-1.3965596E-2,7.2651575E-3,1.3621829E-2,-1.8665794E-2,-2.204937E-3,-1.462916E-2],"split_indices":[12,12,10,12,0,0,10,0,0,0,0,0,0,0,0],"split_type":[0,0,0,0,0,0,0,0,0,0,0,0,0,0,0],"sum_hessian":[1.1179939E4,7.6876816E3,3.4922578E3,6.823918E3,8.6376385E2,1.8311049E2,3.3091472E3,3.6699219E3,3.1539958E3,6.4167885E1,7.99596E2,1.7236469E2,1.074581E1,3.0881812E3,2.2096599E2],"tree_param":{"num_deleted":"0","num_feature":"13","num_nodes":"15","size_leaf_vector":"1"}},{"base_weights":[2.4906597E-3,2.2345115E-1,-1.0452501E-1,1.2028942E0,1.5763755E-1,-1.2134187E0,-7.375762E-2,1.5296615E-2,-7.182582E-3,-1.809256E-2,2.0253253E-3,1.887092E-2,-1.4091575E-2,-1.9265644E-2,-5.532939E-4],"categories":[],"categories_nodes":[],"categories_segments":[],"categories_sizes":[],"default_left":[0,0,0,0,0,0,0,0,0,0,0,0,0,0,0],"id":49,"left_children":[1,3,5,7,9,11,13,-1,-1,-1,-1,-1,-1,-1,-1],"loss_changes":[2.6423712E2,2.3484474E2,2.567641E2,1.4512576E2,3.0216547E2,1.25967316E2,2.5004086E2,0E0,0E0,0E0,0E0,0E0,0E0,0E0,0E0],"parents":[2147483647,0,0,1,1,2,2,3,3,4,4,5,5,6,6],"right_children":[2,4,6,8,10,12,14,-1,-1,-1,-1,-1,-1,-1,-1],"split_conditions":[-3.2271606E-1,8.7403984E4,2.2554214E2,1.4753839E2,8.638163E4,-3.9607483E1,-4.3965015E2,1.5296615E-2,-7.182582E-3,-1.809256E-2,2.0253253E-3,1.887092E-2,-1.4091575E-2,-1.9265644E-2,-5.532939E-4],"split_indices":[12,9,6,7,11,7,2,0,0,0,0,0,0,0,0],"split_type":[0,0,0,0,0,0,0,0,0,0,0,0,0,0,0],"sum_hessian":[1.1172607E4,3.6451663E3,7.5274414E3,2.2842662E2,3.4167395E3,2.0218031E2,7.325261E3,1.953957E2,3.3030922E1,7.537081E1,3.3413687E3,1.149281E1,1.9068752E2,7.112064E1,7.2541406E3],"tree_param":{"num_deleted":"0","num_feature":"13","num_nodes":"15","size_leaf_vector":"1"}},{"base_weights":[3.947409E-3,2.1673876E-1,-9.989242E-2,1.6940638E-2,1.7734154E-1,6.367085E-1,-1.4791213E-1,1.1100419E-3,1.0181325E-2,7.745281E-3,-1.8050877E-2,-1.6466737E-3,1.922465E-2],"categories":[],"categories_nodes":[],"categories_segments":[],"categories_sizes":[],"default_left":[0,0,0,0,0,0,0,0,0,0,0,0,0],"id":50,"left_children":[1,3,5,-1,7,9,11,-1,-1,-1,-1,-1,-1],"loss_changes":[2.4702312E2,2.1308803E2,2.6584418E2,0E0,1.9912915E2,1.5620123E2,2.4502223E2,0E0,0E0,0E0,0E0,0E0,0E0],"parents":[2147483647,0,0,1,1,2,2,4,4,5,5,6,6],"right_children":[2,4,6,-1,8,10,12,-1,-1,-1,-1,-1,-1],"split_conditions":[-3.2271606E-1,8.824537E4,-5.1910435E1,1.6940638E-2,-3.9294836E-1,1.0491842E5,3.499527E2,1.1100419E-3,1.0181325E-2,7.745281E-3,-1.8050877E-2,-1.6466737E-3,1.922465E-2],"split_indices":[12,8,7,0,12,5,7,0,0,0,0,0,0],"split_type":[0,0,0,0,0,0,0,0,0,0,0,0,0],"sum_hessian":[1.117745E4,3.6653105E3,7.5121396E3,9.411636E1,3.571194E3,4.5900156E2,7.0531377E3,3.3110857E3,2.601085E2,4.351251E2,2.3876482E1,6.997429E3,5.5708633E1],"tree_param":{"num_deleted":"0","num_feature":"13","num_nodes":"13","size_leaf_vector":"1"}},{"base_weights":[8.2526094E-4,2.1497776E-1,-1.0348487E-1,3.295968E-2,5.196209E-1,6.303769E-1,-1.5058872E-1,7.3852506E-4,-1.9993298E-2,3.1430277E-3,1.3188563E-2,7.6138284E-3,-1.913947E-2,-1.6689913E-3,1.9033337E-2],"categories":[],"categories_nodes":[],"categories_segments":[],"categories_sizes":[],"default_left":[0,0,0,0,0,0,0,0,0,0,0,0,0,0,0],"id":51,"left_children":[1,3,5,7,9,11,13,-1,-1,-1,-1,-1,-1,-1,-1],"loss_changes":[2.4944582E2,2.0279803E2,2.5966962E2,1.9051582E2,2.240578E2,1.5248772E2,2.3673111E2,0E0,0E0,0E0,0E0,0E0,0E0,0E0,0E0],"parents":[2147483647,0,0,1,1,2,2,3,3,4,4,5,5,6,6],"right_children":[2,4,6,8,10,12,14,-1,-1,-1,-1,-1,-1,-1,-1],"split_conditions":[-3.2271606E-1,3.8983677E1,-5.1910435E1,3.8851143E1,1.00766266E5,1.5117279E3,3.499527E2,7.3852506E-4,-1.9993298E-2,3.1430277E-3,1.3188563E-2,7.6138284E-3,-1.913947E-2,-1.6689913E-3,1.9033337E-2],"split_indices":[12,0,7,0,11,6,7,0,0,0,0,0,0,0,0],"split_type":[0,0,0,0,0,0,0,0,0,0,0,0,0,0,0],"sum_hessian":[1.1164749E4,3.6565852E3,7.5081636E3,2.289665E3,1.36692E3,4.5210724E2,7.056056E3,2.2454468E3,4.4218224E1,1.0886472E3,2.7827283E2,4.306348E2,2.1472422E1,7.0013765E3,5.4679863E1],"tree_param":{"num_deleted":"0","num_feature":"13","num_nodes":"15","size_leaf_vector":"1"}},{"base_weights":[1.8520085E-3,1.5424508E-1,-1.363268E-1,1.8005869E-1,-1.6224033E0,-6.772261E-2,-1.1919568E0,-2.2032056E-3,2.9784509E-3,-9.602994E-3,-1.800652E-2,-1.5056108E-3,5.213874E-3,-5.5243527E-3,-1.5690546E-2],"categories":[],"categories_nodes":[],"categories_segments":[],"categories_sizes":[],"default_left":[0,0,0,0,0,0,0,0,0,0,0,0,0,0,0],"id":52,"left_children":[1,3,5,7,9,11,13,-1,-1,-1,-1,-1,-1,-1,-1],"loss_changes":[2.3569173E2,2.443963E2,4.2503998E2,2.4752373E2,7.2788544E0,2.6911844E2,8.550656E1,0E0,0E0,0E0,0E0,0E0,0E0,0E0,0E0],"parents":[2147483647,0,0,1,1,2,2,3,3,4,4,5,5,6,6],"right_children":[2,4,6,8,10,12,14,-1,-1,-1,-1,-1,-1,-1,-1],"split_conditions":[-2.0559343E1,1.042154E5,1.0276729E5,-1.0521647E3,8.895418E-1,7.402183E1,4.6699562E1,-2.2032056E-3,2.9784509E-3,-9.602994E-3,-1.800652E-2,-1.5056108E-3,5.213874E-3,-5.5243527E-3,-1.5690546E-2],"split_indices":[2,11,11,1,4,7,0,0,0,0,0,0,0,0,0],"split_type":[0,0,0,0,0,0,0,0,0,0,0,0,0,0,0],"sum_hessian":[1.1190773E4,5.321615E3,5.8691587E3,5.2462886E3,7.532669E1,5.512004E3,3.571547E2,1.192358E3,4.0539307E3,1.733253E1,5.799416E1,4.8331313E3,6.788726E2,1.3339484E2,2.2375986E2],"tree_param":{"num_deleted":"0","num_feature":"13","num_nodes":"15","size_leaf_vector":"1"}},{"base_weights":[4.5273654E-4,1.02878064E-1,-2.238927E-1,-2.8498048E-1,2.0438564E-1,-1.3936312E0,-7.703905E-2,-1.46459E-3,-1.8198961E-2,5.5759815E-3,6.289752E-4,-2.7258177E-3,-1.5722532E-2,1.6219924E-3,-4.6516648E-3],"categories":[],"categories_nodes":[],"categories_segments":[],"categories_sizes":[],"default_left":[0,0,0,0,0,0,0,0,0,0,0,0,0,0,0],"id":53,"left_children":[1,3,5,7,9,11,13,-1,-1,-1,-1,-1,-1,-1,-1],"loss_changes":[2.5633234E2,3.0158405E2,6.005358E2,3.375905E2,3.03347E2,7.7657104E1,2.8863376E2,0E0,0E0,0E0,0E0,0E0,0E0,0E0,0E0],"parents":[2147483647,0,0,1,1,2,2,3,3,4,4,5,5,6,6],"right_children":[2,4,6,8,10,12,14,-1,-1,-1,-1,-1,-1,-1,-1],"split_conditions":[3.5704342E-1,-9.65657E2,4.1424356E2,4.586946E1,9.670903E4,9.634186E4,9.7639234E4,-1.46459E-3,-1.8198961E-2,5.5759815E-3,6.289752E-4,-2.7258177E-3,-1.5722532E-2,1.6219924E-3,-4.6516648E-3],"split_indices":[12,1,6,0,8,9,5,0,0,0,0,0,0,0,0],"split_type":[0,0,0,0,0,0,0,0,0,0,0,0,0,0,0],"sum_hessian":[1.1153234E4,7.657658E3,3.4955767E3,1.5880273E3,6.069631E3,3.889522E2,3.1066245E3,1.4575806E3,1.3044681E2,1.7351189E3,4.3345117E3,5.3803318E1,3.351489E2,1.9223112E3,1.1843134E3],"tree_param":{"num_deleted":"0","num_feature":"13","num_nodes":"15","size_leaf_vector":"1"}},{"base_weights":[9.947378E-4,1.5353173E-1,-1.3780452E-1,1.7965902E-1,-1.6105193E0,-6.8502896E-2,-1.1770849E0,-2.1939897E-3,2.9762306E-3,-9.359923E-3,-1.7843463E-2,-1.3895503E-3,6.719356E-3,-1.6442687E-3,-1.4481379E-2],"categories":[],"categories_nodes":[],"categories_segments":[],"categories_sizes":[],"default_left":[0,0,0,0,0,0,0,0,0,0,0,0,0,0,0],"id":54,"left_children":[1,3,5,7,9,11,13,-1,-1,-1,-1,-1,-1,-1,-1],"loss_changes":[2.3699615E2,2.460866E2,4.2203946E2,2.4749182E2,7.467743E0,2.8676974E2,1.0031128E2,0E0,0E0,0E0,0E0,0E0,0E0,0E0,0E0],"parents":[2147483647,0,0,1,1,2,2,3,3,4,4,5,5,6,6],"right_children":[2,4,6,8,10,12,14,-1,-1,-1,-1,-1,-1,-1,-1],"split_conditions":[-2.0559343E1,1.042154E5,1.0276729E5,-1.0521647E3,8.895418E-1,1.0193928E5,1.01995164E5,-2.1939897E-3,2.9762306E-3,-9.359923E-3,-1.7843463E-2,-1.3895503E-3,6.719356E-3,-1.6442687E-3,-1.4481379E-2],"split_indices":[2,11,11,1,4,5,5,0,0,0,0,0,0,0,0],"split_type":[0,0,0,0,0,0,0,0,0,0,0,0,0,0,0],"sum_hessian":[1.1191839E4,5.3319976E3,5.859841E3,5.2550635E3,7.69344E1,5.4945195E3,3.6532138E2,1.198802E3,4.0562612E3,1.7071987E1,5.986241E1,5.0178843E3,4.7663535E2,7.74761E1,2.8784528E2],"tree_param":{"num_deleted":"0","num_feature":"13","num_nodes":"15","size_leaf_vector":"1"}},{"base_weights":[1.5356304E-3,2.0952696E-1,-9.9720776E-2,1.6777063E-2,1.700341E-1,6.382246E-1,-1.4739247E-1,-2.7341603E-3,2.9307639E-3,7.665379E-3,-1.8888302E-2,-1.6429832E-3,1.881254E-2],"categories":[],"categories_nodes":[],"categories_segments":[],"categories_sizes":[],"default_left":[0,0,0,0,0,0,0,0,0,0,0,0,0],"id":55,"left_children":[1,3,5,-1,7,9,11,-1,-1,-1,-1,-1,-1],"loss_changes":[2.3407698E2,2.107254E2,2.6306946E2,0E0,1.9350601E2,1.4859302E2,2.4115404E2,0E0,0E0,0E0,0E0,0E0,0E0],"parents":[2147483647,0,0,1,1,2,2,4,4,5,5,6,6],"right_children":[2,4,6,-1,8,10,12,-1,-1,-1,-1,-1,-1],"split_conditions":[-3.2271606E-1,8.824537E4,-5.1910435E1,1.6777063E-2,9.143319E4,1.5117279E3,3.499527E2,-2.7341603E-3,2.9307639E-3,7.665379E-3,-1.8888302E-2,-1.6429832E-3,1.881254E-2],"split_indices":[12,8,7,0,10,6,7,0,0,0,0,0,0],"split_type":[0,0,0,0,0,0,0,0,0,0,0,0,0],"sum_hessian":[1.1112536E4,3.6382068E3,7.474329E3,9.4214745E1,3.543992E3,4.527949E2,7.021534E3,7.694906E2,2.7745015E3,4.3157782E2,2.1217056E1,6.964415E3,5.711941E1],"tree_param":{"num_deleted":"0","num_feature":"13","num_nodes":"13","size_leaf_vector":"1"}},{"base_weights":[-2.5897392E-3,9.655192E-2,-2.1946916E-1,-2.755379E-1,1.9480535E-1,-1.3705531E0,-7.289415E-2,1.0928088E-3,-6.9722566E-3,-4.950771E-3,2.6052454E-3,-2.4006015E-3,-1.5648326E-2,1.668561E-3,-4.655964E-3],"categories":[],"categories_nodes":[],"categories_segments":[],"categories_sizes":[],"default_left":[0,0,0,0,0,0,0,0,0,0,0,0,0,0,0],"id":56,"left_children":[1,3,5,7,9,11,13,-1,-1,-1,-1,-1,-1,-1,-1],"loss_changes":[2.4039445E2,2.8056403E2,5.9167505E2,2.6023926E2,2.7535864E2,8.6625E1,2.9310355E2,0E0,0E0,0E0,0E0,0E0,0E0,0E0,0E0],"parents":[2147483647,0,0,1,1,2,2,3,3,4,4,5,5,6,6],"right_children":[2,4,6,8,10,12,14,-1,-1,-1,-1,-1,-1,-1,-1],"split_conditions":[3.5704342E-1,-9.65657E2,4.1424356E2,-1.0058651E0,2.50965E2,9.634186E4,9.7639234E4,1.0928088E-3,-6.9722566E-3,-4.950771E-3,2.6052454E-3,-2.4006015E-3,-1.5648326E-2,1.668561E-3,-4.655964E-3],"split_indices":[12,1,6,12,6,9,5,0,0,0,0,0,0,0,0],"split_type":[0,0,0,0,0,0,0,0,0,0,0,0,0,0,0],"sum_hessian":[1.1178225E4,7.6717896E3,3.5064348E3,1.6022393E3,6.0695503E3,3.951206E2,3.1113142E3,8.381297E2,7.6410956E2,5.273367E2,5.542214E3,5.827281E1,3.3684778E2,1.9322336E3,1.1790806E3],"tree_param":{"num_deleted":"0","num_feature":"13","num_nodes":"15","size_leaf_vector":"1"}},{"base_weights":[2.264573E-3,1.780512E-2,-1.2420775E0,5.218246E-1,-2.2378774E-2,-5.822848E-1,-1.6283402E0,-5.14965E-3,7.4468195E-3,-1.5875838E-3,1.4503546E-3,-1.7522937E-2,1.5312284E-2,-1.714105E-2,-1.2455264E-2],"categories":[],"categories_nodes":[],"categories_segments":[],"categories_sizes":[],"default_left":[0,0,0,0,0,0,0,0,0,0,0,0,0,0,0],"id":57,"left_children":[1,3,5,7,9,11,13,-1,-1,-1,-1,-1,-1,-1,-1],"loss_changes":[2.1522456E2,2.2264444E2,3.403929E1,1.8793481E2,2.3248854E2,1.3188823E2,6.897278E-1,0E0,0E0,0E0,0E0,0E0,0E0,0E0,0E0],"parents":[2147483647,0,0,1,1,2,2,3,3,4,4,5,5,6,6],"right_children":[2,4,6,8,10,12,14,-1,-1,-1,-1,-1,-1,-1,-1],"split_conditions":[1.042154E5,-4.7964115E1,2.3425108E2,-1.6426586E3,6.378005E0,1.0450587E5,1.0354192E5,-5.14965E-3,7.4468195E-3,-1.5875838E-3,1.4503546E-3,-1.7522937E-2,1.5312284E-2,-1.714105E-2,-1.2455264E-2],"split_indices":[11,7,1,1,7,10,9,0,0,0,0,0,0,0,0],"split_type":[0,0,0,0,0,0,0,0,0,0,0,0,0,0,0],"sum_hessian":[1.1127614E4,1.0991329E4,1.3628465E2,8.10713E2,1.0180616E4,5.1249893E1,8.503476E1,1.4319984E2,6.675132E2,5.6103467E3,4.57027E3,3.309816E1,1.8151731E1,6.662958E1,1.8405182E1],"tree_param":{"num_deleted":"0","num_feature":"13","num_nodes":"15","size_leaf_vector":"1"}},{"base_weights":[-6.7003095E-3,4.9634936E-1,-4.6756756E-2,5.844625E-1,-1.914721E-2,1.6777693E-1,-1.4886132E-1,1.4330235E-2,3.7697724E-3,1.6625741E-2,1.2756266E-3,-1.912197E-2,-1.303577E-3],"categories":[],"categories_nodes":[],"categories_segments":[],"categories_sizes":[],"default_left":[0,0,0,0,0,0,0,0,0,0,0,0,0],"id":58,"left_children":[1,3,5,7,-1,9,11,-1,-1,-1,-1,-1,-1],"loss_changes":[2.2460011E2,1.7576788E2,2.2617001E2,1.3923059E2,0E0,1.9993628E2,2.2799681E2,0E0,0E0,0E0,0E0,0E0,0E0],"parents":[2147483647,0,0,1,1,2,2,3,3,5,5,6,6],"right_children":[2,4,6,8,-1,10,12,-1,-1,-1,-1,-1,-1],"split_conditions":[-4.7964115E1,1.620415E3,-3.2271606E-1,8.935975E4,-1.914721E-2,8.824537E4,-4.3965015E2,1.4330235E-2,3.7697724E-3,1.6625741E-2,1.2756266E-3,-1.912197E-2,-1.303577E-3],"split_indices":[7,6,12,8,0,8,2,0,0,0,0,0,0],"split_type":[0,0,0,0,0,0,0,0,0,0,0,0,0],"sum_hessian":[1.1144045E4,8.210817E2,1.0322963E4,7.9286395E2,2.8217815E1,3.3285808E3,6.994382E3,1.5461636E2,6.3824756E2,8.614534E1,3.2424355E3,7.157086E1,6.922811E3],"tree_param":{"num_deleted":"0","num_feature":"13","num_nodes":"13","size_leaf_vector":"1"}},{"base_weights":[-1.3981262E-3,2.0107505E-1,-1.0014383E-1,1.1414267E0,1.385563E-1,6.2473303E-1,-1.4636007E-1,1.4626824E-2,-7.5522214E-3,-1.7978985E-2,1.8980599E-3,7.630068E-3,-1.7951783E-2,-1.6249586E-3,1.8621426E-2],"categories":[],"categories_nodes":[],"categories_segments":[],"categories_sizes":[],"default_left":[0,0,0,0,0,0,0,0,0,0,0,0,0,0,0],"id":59,"left_children":[1,3,5,7,9,11,13,-1,-1,-1,-1,-1,-1,-1,-1],"loss_changes":[2.2322969E2,2.1502246E2,2.5151729E2,1.4004959E2,3.410558E2,1.5194771E2,2.2897887E2,0E0,0E0,0E0,0E0,0E0,0E0,0E0,0E0],"parents":[2147483647,0,0,1,1,2,2,3,3,4,4,5,5,6,6],"right_children":[2,4,6,8,10,12,14,-1,-1,-1,-1,-1,-1,-1,-1],"split_conditions":[-3.2271606E-1,8.7403984E4,-5.1910435E1,1.4753839E2,8.445667E4,1.0490492E5,3.499527E2,1.4626824E-2,-7.5522214E-3,-1.7978985E-2,1.8980599E-3,7.630068E-3,-1.7951783E-2,-1.6249586E-3,1.8621426E-2],"split_indices":[12,9,7,7,10,10,7,0,0,0,0,0,0,0,0],"split_type":[0,0,0,0,0,0,0,0,0,0,0,0,0,0,0],"sum_hessian":[1.1163187E4,3.659181E3,7.504006E3,2.2703682E2,3.432144E3,4.4900995E2,7.054996E3,1.94347E2,3.2689827E1,8.761346E1,3.3445308E3,4.2538797E2,2.3621983E1,6.9996816E3,5.531455E1],"tree_param":{"num_deleted":"0","num_feature":"13","num_nodes":"15","size_leaf_vector":"1"}},{"base_weights":[-2.06005E-3,1.34981265E-2,-1.2342819E0,1.6627409E-1,-1.2535594E-1,-1.5296514E0,-3.271219E-1,1.3806188E-3,1.2061856E-2,-5.589383E-4,-1.1953325E-2,-1.7622186E-2,-6.578474E-4,1.9486811E-2,-1.6122514E-2],"categories":[],"categories_nodes":[],"categories_segments":[],"categories_sizes":[],"default_left":[0,0,0,0,0,0,0,0,0,0,0,0,0,0,0],"id":60,"left_children":[1,3,5,7,9,11,13,-1,-1,-1,-1,-1,-1,-1,-1],"loss_changes":[2.1341342E2,2.3322905E2,3.6691147E1,1.5341023E2,4.2800647E2,3.54393E1,1.06573784E2,0E0,0E0,0E0,0E0,0E0,0E0,0E0,0E0],"parents":[2147483647,0,0,1,1,2,2,3,3,4,4,5,5,6,6],"right_children":[2,4,6,8,10,12,14,-1,-1,-1,-1,-1,-1,-1,-1],"split_conditions":[1.042154E5,-2.0559343E1,3.8242474E-1,1.0331665E5,1.001706E5,1.01442E5,4.9604887E-1,1.3806188E-3,1.2061856E-2,-5.589383E-4,-1.1953325E-2,-1.7622186E-2,-6.578474E-4,1.9486811E-2,-1.6122514E-2],"split_indices":[11,2,3,9,8,8,3,0,0,0,0,0,0,0,0],"split_type":[0,0,0,0,0,0,0,0,0,0,0,0,0,0,0],"sum_hessian":[1.1130154E4,1.0992353E4,1.3780168E2,5.233705E3,5.758648E3,1.0343671E2,3.436498E1,5.096571E3,1.3713425E2,5.408579E3,3.5006888E2,8.9080505E1,1.43562E1,1.2215873E1,2.2149107E1],"tree_param":{"num_deleted":"0","num_feature":"13","num_nodes":"15","size_leaf_vector":"1"}},{"base_weights":[-8.992271E-5,1.471554E-1,-1.3354613E-1,-2.0364492E-1,2.4949388E-1,-5.723899E-2,-1.1239204E0,-3.235685E-4,-9.446454E-3,6.0458384E-3,1.0153939E-3,-8.0403057E-4,1.8508548E-2,-2.2554796E-3,-1.4606834E-2],"categories":[],"categories_nodes":[],"categories_segments":[],"categories_sizes":[],"default_left":[0,0,0,0,0,0,0,0,0,0,0,0,0,0,0],"id":61,"left_children":[1,3,5,7,9,11,13,-1,-1,-1,-1,-1,-1,-1,-1],"loss_changes":[2.1922801E2,1.9046915E2,4.4219495E2,1.5208118E2,2.1568948E2,2.4035042E2,1.2630975E2,0E0,0E0,0E0,0E0,0E0,0E0,0E0,0E0],"parents":[2147483647,0,0,1,1,2,2,3,3,4,4,5,5,6,6],"right_children":[2,4,6,8,10,12,14,-1,-1,-1,-1,-1,-1,-1,-1],"split_conditions":[-2.0559343E1,-1.0521647E3,1.001706E5,-6.823011E1,9.624935E4,3.499527E2,-4.6519443E-1,-3.235685E-4,-9.446454E-3,6.0458384E-3,1.0153939E-3,-8.0403057E-4,1.8508548E-2,-2.2554796E-3,-1.4606834E-2],"split_indices":[2,1,8,2,5,7,3,0,0,0,0,0,0,0,0],"split_type":[0,0,0,0,0,0,0,0,0,0,0,0,0,0,0],"sum_hessian":[1.1154186E4,5.3030767E3,5.8511094E3,1.1974421E3,4.1056343E3,5.433521E3,4.1758844E2,9.7346234E2,2.2397977E2,1.2066337E3,2.8990005E3,5.3692964E3,6.422488E1,1.1431187E2,3.0327655E2],"tree_param":{"num_deleted":"0","num_feature":"13","num_nodes":"15","size_leaf_vector":"1"}},{"base_weights":[2.4597195E-3,1.02634594E-1,-2.0916459E-1,-2.7858344E-1,2.0430622E-1,1.152909E0,-2.8357437E-1,-1.4033833E-3,-1.7914074E-2,1.2416128E-3,8.172732E-3,1.347498E-2,-1.838822E-2,-8.52538E-3,-1.6089462E-3],"categories":[],"categories_nodes":[],"categories_segments":[],"categories_sizes":[],"default_left":[0,0,0,0,0,0,0,0,0,0,0,0,0,0,0],"id":62,"left_children":[1,3,5,7,9,11,13,-1,-1,-1,-1,-1,-1,-1,-1],"loss_changes":[2.3600871E2,2.9292126E2,3.628358E2,3.325604E2,2.929702E2,1.1045216E2,2.3664444E2,0E0,0E0,0E0,0E0,0E0,0E0,0E0,0E0],"parents":[2147483647,0,0,1,1,2,2,3,3,4,4,5,5,6,6],"right_children":[2,4,6,8,10,12,14,-1,-1,-1,-1,-1,-1,-1,-1],"split_conditions":[3.4225178E-1,-9.65657E2,8.469232E4,4.586946E1,1.695715E-1,7.549689E1,4.900441E-1,-1.4033833E-3,-1.7914074E-2,1.2416128E-3,8.172732E-3,1.347498E-2,-1.838822E-2,-8.52538E-3,-1.6089462E-3],"split_indices":[12,1,10,0,12,0,12,0,0,0,0,0,0,0,0],"split_type":[0,0,0,0,0,0,0,0,0,0,0,0,0,0,0],"sum_hessian":[1.113077E4,7.555024E3,3.575745E3,1.5903314E3,5.9646924E3,1.8447266E2,3.3912725E3,1.4581732E3,1.3215823E2,5.276055E3,6.8863727E2,1.7372292E2,1.0749741E1,6.004692E2,2.7908035E3],"tree_param":{"num_deleted":"0","num_feature":"13","num_nodes":"15","size_leaf_vector":"1"}},{"base_weights":[-2.7510084E-3,1.2663072E-2,-1.2231987E0,1.6276154E-1,-1.2390365E-1,-1.496952E0,-3.9863282E-1,-2.0951403E-3,2.7234182E-3,-6.5675675E-4,-1.1995156E-2,-1.6878873E-2,-7.2399178E-3,1.8011458E-2,-1.6397448E-2],"categories":[],"categories_nodes":[],"categories_segments":[],"categories_sizes":[],"default_left":[0,0,0,0,0,0,0,0,0,0,0,0,0,0,0],"id":63,"left_children":[1,3,5,7,9,11,13,-1,-1,-1,-1,-1,-1,-1,-1],"loss_changes":[2.0958852E2,2.2555212E2,3.0769547E1,2.1389742E2,3.6076425E2,1.4120789E1,1.012327E2,0E0,0E0,0E0,0E0,0E0,0E0,0E0,0E0],"parents":[2147483647,0,0,1,1,2,2,3,3,4,4,5,5,6,6],"right_children":[2,4,6,8,10,12,14,-1,-1,-1,-1,-1,-1,-1,-1],"split_conditions":[1.042154E5,-2.0559343E1,3.8242474E-1,-1.0521647E3,1.0276729E5,1.04322305E5,2.666254E-1,-2.0951403E-3,2.7234182E-3,-6.5675675E-4,-1.1995156E-2,-1.6878873E-2,-7.2399178E-3,1.8011458E-2,-1.6397448E-2],"split_indices":[11,2,3,1,11,11,12,0,0,0,0,0,0,0,0],"split_type":[0,0,0,0,0,0,0,0,0,0,0,0,0,0,0],"sum_hessian":[1.1139344E4,1.1001388E4,1.3795634E2,5.2409478E3,5.76044E3,1.0295887E2,3.4997475E1,1.1916522E3,4.0492954E3,5.465621E3,2.9481888E2,8.1614845E1,2.1344027E1,1.2460655E1,2.253682E1],"tree_param":{"num_deleted":"0","num_feature":"13","num_nodes":"15","size_leaf_vector":"1"}},{"base_weights":[-3.313639E-3,9.508107E-2,-2.0577249E-1,3.409972E-2,6.563959E-1,-1.1173983E0,-6.7777626E-2,1.956893E-3,-1.5427915E-3,8.131241E-3,-1.218918E-2,1.847977E-2,-1.2635936E-2,1.1440593E-2,-1.4477404E-3],"categories":[],"categories_nodes":[],"categories_segments":[],"categories_sizes":[],"default_left":[0,0,0,0,0,0,0,0,0,0,0,0,0,0,0],"id":64,"left_children":[1,3,5,7,9,11,13,-1,-1,-1,-1,-1,-1,-1,-1],"loss_changes":[2.2255356E2,2.5732074E2,4.595682E2,2.0648807E2,2.1751105E2,2.1055756E2,2.9636667E2,0E0,0E0,0E0,0E0,0E0,0E0,0E0,0E0],"parents":[2147483647,0,0,1,1,2,2,3,3,4,4,5,5,6,6],"right_children":[2,4,6,8,10,12,14,-1,-1,-1,-1,-1,-1,-1,-1],"split_conditions":[3.31535E-1,1.695715E-1,4.2195E2,-3.2271606E-1,6.1382496E1,3.4225178E-1,8.469232E4,1.956893E-3,-1.5427915E-3,8.131241E-3,-1.218918E-2,1.847977E-2,-1.2635936E-2,1.1440593E-2,-1.4477404E-3],"split_indices":[12,12,6,12,7,12,10,0,0,0,0,0,0,0,0],"split_type":[0,0,0,0,0,0,0,0,0,0,0,0,0,0,0],"sum_hessian":[1.1169893E4,7.5171157E3,3.6527769E3,6.7814395E3,7.356761E2,4.793018E2,3.173475E3,3.650251E3,3.1311885E3,6.794573E2,5.6218826E1,2.19728E1,4.5732898E2,1.8875916E2,2.984716E3],"tree_param":{"num_deleted":"0","num_feature":"13","num_nodes":"15","size_leaf_vector":"1"}},{"base_weights":[5.3927262E-5,4.920824E-1,-3.929752E-2,5.85705E-1,-1.9039592E-2,1.6845937E-1,-1.382983E-1,-2.1055823E-3,8.000131E-3,1.0655746E-2,1.0952526E-3,-1.8954115E-2,-1.1943926E-3],"categories":[],"categories_nodes":[],"categories_segments":[],"categories_sizes":[],"default_left":[0,0,0,0,0,0,0,0,0,0,0,0,0],"id":65,"left_children":[1,3,5,7,-1,9,11,-1,-1,-1,-1,-1,-1],"loss_changes":[2.153586E2,1.8588956E2,2.1185478E2,1.3557343E2,0E0,1.7564066E2,2.3093214E2,0E0,0E0,0E0,0E0,0E0,0E0],"parents":[2147483647,0,0,1,1,2,2,3,3,5,5,6,6],"right_children":[2,4,6,8,-1,10,12,-1,-1,-1,-1,-1,-1],"split_conditions":[-4.7964115E1,1.620415E3,-3.2271606E-1,4.7075287E2,-1.9039592E-2,8.7403984E4,-4.3965015E2,-2.1055823E-3,8.000131E-3,1.0655746E-2,1.0952526E-3,-1.8954115E-2,-1.1943926E-3],"split_indices":[7,6,12,6,0,9,2,0,0,0,0,0,0],"split_type":[0,0,0,0,0,0,0,0,0,0,0,0,0],"sum_hessian":[1.1120728E4,8.226958E2,1.0298032E4,7.9248584E2,3.0209925E1,3.3232869E3,6.974745E3,1.680633E2,6.2442255E2,2.0380571E2,3.1194812E3,7.300815E1,6.901737E3],"tree_param":{"num_deleted":"0","num_feature":"13","num_nodes":"13","size_leaf_vector":"1"}},{"base_weights":[-4.9852543E-3,4.8586935E-1,-4.406327E-2,6.569339E-1,-3.968678E-1,-1.7548229E-1,1.1556635E-1,1.3845616E-2,4.0266393E-3,-1.9736731E-2,4.0035546E-3,-2.6698404E-3,1.646372E-3,3.416138E-3,-2.2733302E-3],"categories":[],"categories_nodes":[],"categories_segments":[],"categories_sizes":[],"default_left":[0,0,0,0,0,0,0,0,0,0,0,0,0,0,0],"id":66,"left_children":[1,3,5,7,9,11,13,-1,-1,-1,-1,-1,-1,-1,-1],"loss_changes":[2.141554E2,1.24582565E2,2.169618E2,1.2710693E2,1.6957614E2,1.7657057E2,3.620589E2,0E0,0E0,0E0,0E0,0E0,0E0,0E0,0E0],"parents":[2147483647,0,0,1,1,2,2,3,3,4,4,5,5,6,6],"right_children":[2,4,6,8,10,12,14,-1,-1,-1,-1,-1,-1,-1,-1],"split_conditions":[-4.7964115E1,6.245947E1,6.378005E0,4.8384795E-1,6.886172E1,1.0062061E5,9.7181E4,1.3845616E-2,4.0266393E-3,-1.9736731E-2,4.0035546E-3,-2.6698404E-3,1.646372E-3,3.416138E-3,-2.2733302E-3],"split_indices":[7,0,7,4,0,10,9,0,0,0,0,0,0,0,0],"split_type":[0,0,0,0,0,0,0,0,0,0,0,0,0,0,0],"sum_hessian":[1.1162497E4,8.2229596E2,1.0340201E4,6.890262E2,1.3326978E2,5.671171E3,4.669031E3,1.7727753E2,5.1174866E2,4.4257812E1,8.901196E1,4.4690776E3,1.2020931E3,2.813987E3,1.8550436E3],"tree_param":{"num_deleted":"0","num_feature":"13","num_nodes":"15","size_leaf_vector":"1"}},{"base_weights":[3.6156052E-3,4.8328063E-1,-3.4812234E-2,5.7542926E-1,-1.8900147E-2,1.7265548E-1,-1.334344E-1,-2.4357198E-3,7.9254415E-3,1.6365383E-2,1.340709E-3,-1.4952694E-3,1.8343085E-2],"categories":[],"categories_nodes":[],"categories_segments":[],"categories_sizes":[],"default_left":[0,0,0,0,0,0,0,0,0,0,0,0,0],"id":67,"left_children":[1,3,5,7,-1,9,11,-1,-1,-1,-1,-1,-1],"loss_changes":[2.0589612E2,1.8228114E2,2.1162674E2,1.4214798E2,0E0,1.8801572E2,2.2226144E2,0E0,0E0,0E0,0E0,0E0,0E0],"parents":[2147483647,0,0,1,1,2,2,3,3,5,5,6,6],"right_children":[2,4,6,8,-1,10,12,-1,-1,-1,-1,-1,-1],"split_conditions":[-4.7964115E1,1.620415E3,-3.2271606E-1,4.7075287E2,-1.8900147E-2,8.824537E4,3.499527E2,-2.4357198E-3,7.9254415E-3,1.6365383E-2,1.340709E-3,-1.4952694E-3,1.8343085E-2],"split_indices":[7,6,12,6,0,8,7,0,0,0,0,0,0],"split_type":[0,0,0,0,0,0,0,0,0,0,0,0,0],"sum_hessian":[1.1168369E4,8.2751855E2,1.0340851E4,7.9731836E2,3.0200167E1,3.3315806E3,7.0092705E3,1.6705006E2,6.302683E2,8.4494125E1,3.2470864E3,6.9533286E3,5.5941517E1],"tree_param":{"num_deleted":"0","num_feature":"13","num_nodes":"13","size_leaf_vector":"1"}},{"base_weights":[-1.9050743E-3,1.275166E-2,-1.1861027E0,1.5898567E-1,-1.1950991E-1,-4.193706E-1,-1.6730439E-2,-2.064822E-3,2.6660715E-3,-6.1678456E-4,-1.1700531E-2,1.6362384E-2,-1.5052466E-2],"categories":[],"categories_nodes":[],"categories_segments":[],"categories_sizes":[],"default_left":[0,0,0,0,0,0,0,0,0,0,0,0,0],"id":68,"left_children":[1,3,5,7,9,11,-1,-1,-1,-1,-1,-1,-1],"loss_changes":[1.9302353E2,2.1248712E2,5.00605E1,2.05271E2,3.5040747E2,1.23319695E2,0E0,0E0,0E0,0E0,0E0,0E0,0E0],"parents":[2147483647,0,0,1,1,2,2,3,3,4,4,5,5],"right_children":[2,4,6,8,10,12,-1,-1,-1,-1,-1,-1,-1],"split_conditions":[1.042154E5,-2.0559343E1,5.7156573E2,-1.0521647E3,1.0276729E5,5.431622E1,-1.6730439E-2,-2.064822E-3,2.6660715E-3,-6.1678456E-4,-1.1700531E-2,1.6362384E-2,-1.5052466E-2],"split_indices":[11,2,6,1,11,0,0,0,0,0,0,0,0],"split_type":[0,0,0,0,0,0,0,0,0,0,0,0,0],"sum_hessian":[1.1119257E4,1.0984294E4,1.3496265E2,5.216504E3,5.7677905E3,5.314398E1,8.181867E1,1.1864758E3,4.030028E3,5.467849E3,2.9994144E2,1.8194391E1,3.494959E1],"tree_param":{"num_deleted":"0","num_feature":"13","num_nodes":"13","size_leaf_vector":"1"}},{"base_weights":[1.0991549E-3,9.4829686E-2,-2.040717E-1,-2.7362463E-1,1.9262655E-1,-1.3464259E0,-6.0793977E-2,1.0669803E-3,-6.952434E-3,5.2887886E-3,5.773582E-4,-2.8739125E-3,-1.5244128E-2,1.1494599E-2,-1.3742944E-3],"categories":[],"categories_nodes":[],"categories_segments":[],"categories_sizes":[],"default_left":[0,0,0,0,0,0,0,0,0,0,0,0,0,0,0],"id":69,"left_children":[1,3,5,7,9,11,13,-1,-1,-1,-1,-1,-1,-1,-1],"loss_changes":[2.1407524E2,2.7539038E2,5.712685E2,2.5714102E2,2.7388098E2,7.28833E1,2.8793765E2,0E0,0E0,0E0,0E0,0E0,0E0,0E0,0E0],"parents":[2147483647,0,0,1,1,2,2,3,3,4,4,5,5,6,6],"right_children":[2,4,6,8,10,12,14,-1,-1,-1,-1,-1,-1,-1,-1],"split_conditions":[3.5704342E-1,-9.65657E2,4.1424356E2,-1.0058651E0,9.670903E4,9.634186E4,8.469232E4,1.0669803E-3,-6.952434E-3,5.2887886E-3,5.773582E-4,-2.8739125E-3,-1.5244128E-2,1.1494599E-2,-1.3742944E-3],"split_indices":[12,1,6,12,8,9,10,0,0,0,0,0,0,0,0],"split_type":[0,0,0,0,0,0,0,0,0,0,0,0,0,0,0],"sum_hessian":[1.1129904E4,7.64012E3,3.489785E3,1.6021492E3,6.0379707E3,3.8798453E2,3.1018003E3,8.4271875E2,7.594304E2,1.7278666E3,4.310104E3,5.6200775E1,3.3178375E2,1.8388145E2,2.917919E3],"tree_param":{"num_deleted":"0","num_feature":"13","num_nodes":"15","size_leaf_vector":"1"}},{"base_weights":[-1.4009338E-3,8.022019E-2,-2.3044148E-1,1.7826494E-2,6.160811E-2,9.4329655E-1,-3.150056E-1,8.0357894E-4,-1.148878E-2,-5.3881616E-3,1.5200369E-2,-4.4549033E-3,1.957023E-3],"categories":[],"categories_nodes":[],"categories_segments":[],"categories_sizes":[],"default_left":[0,0,0,0,0,0,0,0,0,0,0,0,0],"id":70,"left_children":[1,3,5,-1,7,9,11,-1,-1,-1,-1,-1,-1],"loss_changes":[2.082942E2,2.601767E2,2.9085596E2,0E0,1.8454153E2,1.6919958E2,1.8210532E2,0E0,0E0,0E0,0E0,0E0,0E0],"parents":[2147483647,0,0,1,1,2,2,4,4,5,5,6,6],"right_children":[2,4,6,-1,8,10,12,-1,-1,-1,-1,-1,-1],"split_conditions":[7.3168564E-1,8.588637E4,8.4961945E4,1.7826494E-2,1.042154E5,4.1795954E-1,1.014681E5,8.0357894E-4,-1.148878E-2,-5.3881616E-3,1.5200369E-2,-4.4549033E-3,1.957023E-3],"split_indices":[3,9,5,0,11,4,5,0,0,0,0,0,0],"split_type":[0,0,0,0,0,0,0,0,0,0,0,0,0],"sum_hessian":[1.1139987E4,8.213622E3,2.926365E3,8.780068E1,8.1258213E3,1.9598369E2,2.7303813E3,8.002796E3,1.230254E2,5.491875E1,1.4106494E2,2.1748418E3,5.5553955E2],"tree_param":{"num_deleted":"0","num_feature":"13","num_nodes":"13","size_leaf_vector":"1"}},{"base_weights":[-1.4816729E-3,4.7082806E-1,-3.9327547E-2,-5.306415E-1,6.881455E-1,-1.632066E-1,1.1175261E-1,-1.5455055E-2,1.8264588E-2,7.7673784E-3,-1.8283617E-2,-1.8561101E-3,1.4117262E-2,3.2476047E-3,-2.2209226E-3],"categories":[],"categories_nodes":[],"categories_segments":[],"categories_sizes":[],"default_left":[0,0,0,0,0,0,0,0,0,0,0,0,0,0,0],"id":71,"left_children":[1,3,5,7,9,11,13,-1,-1,-1,-1,-1,-1,-1,-1],"loss_changes":[1.992922E2,1.8037381E2,1.9320303E2,3.5696133E2,1.5303555E2,2.0040167E2,3.3081693E2,0E0,0E0,0E0,0E0,0E0,0E0,0E0,0E0],"parents":[2147483647,0,0,1,1,2,2,3,3,4,4,5,5,6,6],"right_children":[2,4,6,8,10,12,14,-1,-1,-1,-1,-1,-1,-1,-1],"split_conditions":[-4.7964115E1,-1.6426586E3,6.378005E0,-5.404081E1,8.386775E2,7.5349277E3,9.718613E4,-1.5455055E-2,1.8264588E-2,7.7673784E-3,-1.8283617E-2,-1.8561101E-3,1.4117262E-2,3.2476047E-3,-2.2209226E-3],"split_indices":[7,1,7,7,2,1,9,0,0,0,0,0,0,0,0],"split_type":[0,0,0,0,0,0,0,0,0,0,0,0,0,0,0],"sum_hessian":[1.1147194E4,8.261055E2,1.0321089E4,1.4704279E2,6.7906274E2,5.6710215E3,4.6500674E3,1.0302784E2,4.401495E1,6.566375E2,2.2425241E1,5.592349E3,7.8672485E1,2.8388086E3,1.8112589E3],"tree_param":{"num_deleted":"0","num_feature":"13","num_nodes":"15","size_leaf_vector":"1"}},{"base_weights":[2.2137582E-3,1.9223493E-1,-9.012788E-2,1.6266719E-2,1.5443948E-1,-4.530358E-2,-8.4921503E-1,-3.189904E-3,2.8524245E-3,-1.1956862E-2,-1.16944066E-4,1.0688095E-3,-1.3585986E-2],"categories":[],"categories_nodes":[],"categories_segments":[],"categories_sizes":[],"default_left":[0,0,0,0,0,0,0,0,0,0,0,0,0],"id":72,"left_children":[1,3,5,-1,7,9,11,-1,-1,-1,-1,-1,-1],"loss_changes":[1.9570294E2,1.974951E2,2.5534828E2,0E0,2.2023193E2,2.7404343E2,2.0393692E2,0E0,0E0,0E0,0E0,0E0,0E0],"parents":[2147483647,0,0,1,1,2,2,4,4,5,5,6,6],"right_children":[2,4,6,-1,8,10,12,-1,-1,-1,-1,-1,-1],"split_conditions":[-3.2271606E-1,8.824537E4,1.0487044E5,1.6266719E-2,9.143319E4,2.2554214E2,5.4852013E1,-3.189904E-3,2.8524245E-3,-1.1956862E-2,-1.16944066E-4,1.0688095E-3,-1.3585986E-2],"split_indices":[12,8,10,0,10,6,0,0,0,0,0,0,0],"split_type":[0,0,0,0,0,0,0,0,0,0,0,0,0],"sum_hessian":[1.1151169E4,3.6464338E3,7.5047354E3,9.253277E1,3.5539011E3,7.0872886E3,4.174466E2,7.690291E2,2.7848718E3,2.0020056E2,6.887088E3,1.453742E2,2.720724E2],"tree_param":{"num_deleted":"0","num_feature":"13","num_nodes":"13","size_leaf_vector":"1"}},{"base_weights":[3.0527103E-3,1.8555373E-2,-1.2142208E0,1.0145195E-1,-2.1179903E-1,-5.242079E-1,-1.6667902E-2,9.646752E-3,6.6863076E-4,-5.611653E-3,9.40139E-4,1.4824553E-2,-1.5214569E-2],"categories":[],"categories_nodes":[],"categories_segments":[],"categories_sizes":[],"default_left":[0,0,0,0,0,0,0,0,0,0,0,0,0],"id":73,"left_children":[1,3,5,7,9,11,-1,-1,-1,-1,-1,-1,-1],"loss_changes":[2.1051819E2,2.1036282E2,4.2934937E1,2.418107E2,3.11526E2,1.1637183E2,0E0,0E0,0E0,0E0,0E0,0E0,0E0],"parents":[2147483647,0,0,1,1,2,2,3,3,4,4,5,5],"right_children":[2,4,6,8,10,12,-1,-1,-1,-1,-1,-1,-1],"split_conditions":[1.042154E5,7.3168564E-1,5.7156573E2,8.710371E4,8.776007E2,5.431622E1,-1.6667902E-2,9.646752E-3,6.6863076E-4,-5.611653E-3,9.40139E-4,1.4824553E-2,-1.5214569E-2],"split_indices":[11,3,6,9,6,0,0,0,0,0,0,0,0],"split_type":[0,0,0,0,0,0,0,0,0,0,0,0,0],"sum_hessian":[1.1153464E4,1.1014178E4,1.39287E2,8.099873E3,2.9143042E3,5.6025578E1,8.326142E1,3.110176E2,7.7888555E3,1.3598975E3,1.5544067E3,1.8438038E1,3.7587543E1],"tree_param":{"num_deleted":"0","num_feature":"13","num_nodes":"13","size_leaf_vector":"1"}},{"base_weights":[-4.190216E-3,1.3664037E-1,-1.316442E-1,1.762607E-2,1.19144626E-1,-5.740064E-2,-1.1143086E0,-2.5229058E-3,1.9209812E-3,-7.6940744E-3,1.5310466E-4,-1.2063179E-2,1.6005358E-2],"categories":[],"categories_nodes":[],"categories_segments":[],"categories_sizes":[],"default_left":[0,0,0,0,0,0,0,0,0,0,0,0,0],"id":74,"left_children":[1,3,5,-1,7,9,11,-1,-1,-1,-1,-1,-1],"loss_changes":[1.999436E2,1.5033281E2,4.2653638E2,0E0,1.4194966E2,2.815221E2,1.04519104E2,0E0,0E0,0E0,0E0,0E0,0E0],"parents":[2147483647,0,0,1,1,2,2,4,4,5,5,6,6],"right_children":[2,4,6,-1,8,10,12,-1,-1,-1,-1,-1,-1],"split_conditions":[-2.0559343E1,8.587571E4,1.001706E5,1.762607E-2,9.143319E4,3.269357E2,2.1814716E0,-2.5229058E-3,1.9209812E-3,-7.6940744E-3,1.5310466E-4,-1.2063179E-2,1.6005358E-2],"split_indices":[2,9,8,0,10,6,12,0,0,0,0,0,0],"split_type":[0,0,0,0,0,0,0,0,0,0,0,0,0],"sum_hessian":[1.1137278E4,5.290954E3,5.8463237E3,5.526384E1,5.23569E3,5.436627E3,4.0969684E2,8.591186E2,4.376572E3,5.028641E2,4.933763E3,3.9680432E2,1.28925085E1],"tree_param":{"num_deleted":"0","num_feature":"13","num_nodes":"13","size_leaf_vector":"1"}},{"base_weights":[7.114733E-4,9.3668975E-2,-2.0205054E-1,3.4823526E-2,5.5127126E-1,-1.3318688E0,-5.9692904E-2,1.9576335E-3,-1.5182614E-3,-1.33773135E-2,7.078102E-3,-2.386604E-3,-1.5145626E-2,1.104017E-2,-1.3425899E-3],"categories":[],"categories_nodes":[],"categories_segments":[],"categories_sizes":[],"default_left":[0,0,0,0,0,0,0,0,0,0,0,0,0,0,0],"id":75,"left_children":[1,3,5,7,9,11,13,-1,-1,-1,-1,-1,-1,-1,-1],"loss_changes":[2.1052252E2,2.0620279E2,5.646252E2,2.0390038E2,2.5895987E2,7.809729E1,2.7080905E2,0E0,0E0,0E0,0E0,0E0,0E0,0E0,0E0],"parents":[2147483647,0,0,1,1,2,2,3,3,4,4,5,5,6,6],"right_children":[2,4,6,8,10,12,14,-1,-1,-1,-1,-1,-1,-1,-1],"split_conditions":[3.5704342E-1,1.695715E-1,4.1424356E2,-3.2271606E-1,4.057524E1,9.634186E4,8.469232E4,1.9576335E-3,-1.5182614E-3,-1.33773135E-2,7.078102E-3,-2.386604E-3,-1.5145626E-2,1.104017E-2,-1.3425899E-3],"split_indices":[12,12,6,12,0,9,10,0,0,0,0,0,0,0,0],"split_type":[0,0,0,0,0,0,0,0,0,0,0,0,0,0,0],"sum_hessian":[1.1167336E4,7.6573257E3,3.5100105E3,6.7857827E3,8.715428E2,3.9183835E2,3.118172E3,3.643824E3,3.1419587E3,6.6119E1,8.054238E2,5.6436802E1,3.3540152E2,1.8693765E2,2.9312344E3],"tree_param":{"num_deleted":"0","num_feature":"13","num_nodes":"15","size_leaf_vector":"1"}},{"base_weights":[-8.2921406E-4,8.9160845E-2,-1.9676772E-1,3.0652326E-2,5.4207236E-1,-1.319272E0,-5.5256292E-2,1.8068978E-3,-1.4444595E-3,-1.3238894E-2,7.0004114E-3,-2.1678093E-3,-1.4986377E-2,1.7535044E-3,-4.355107E-3],"categories":[],"categories_nodes":[],"categories_segments":[],"categories_sizes":[],"default_left":[0,0,0,0,0,0,0,0,0,0,0,0,0,0,0],"id":76,"left_children":[1,3,5,7,9,11,13,-1,-1,-1,-1,-1,-1,-1,-1],"loss_changes":[1.9676378E2,2.0262375E2,5.578153E2,1.7796812E2,2.5878397E2,7.742023E1,2.7366296E2,0E0,0E0,0E0,0E0,0E0,0E0,0E0,0E0],"parents":[2147483647,0,0,1,1,2,2,3,3,4,4,5,5,6,6],"right_children":[2,4,6,8,10,12,14,-1,-1,-1,-1,-1,-1,-1,-1],"split_conditions":[3.5704342E-1,1.695715E-1,4.1424356E2,-3.2271606E-1,4.057524E1,9.634186E4,9.7639234E4,1.8068978E-3,-1.4444595E-3,-1.3238894E-2,7.0004114E-3,-2.1678093E-3,-1.4986377E-2,1.7535044E-3,-4.355107E-3],"split_indices":[12,12,6,12,0,9,5,0,0,0,0,0,0,0,0],"split_type":[0,0,0,0,0,0,0,0,0,0,0,0,0,0,0],"sum_hessian":[1.1157147E4,7.646041E3,3.5111064E3,6.7722485E3,8.7379254E2,3.9215012E2,3.1189563E3,3.647103E3,3.1251458E3,6.76239E1,8.0616864E2,5.5181236E1,3.3696887E2,1.9418518E3,1.1771045E3],"tree_param":{"num_deleted":"0","num_feature":"13","num_nodes":"15","size_leaf_vector":"1"}},{"base_weights":[-4.919049E-3,7.1637884E-2,-2.216241E-1,9.613111E-1,3.6208235E-2,-5.6742626E-1,8.479624E-2,-1.4001058E-2,1.434436E-2,-8.635782E-3,7.367348E-4,1.8341681E-2,-6.6861943E-3,-9.78015E-4,9.121141E-3],"categories":[],"categories_nodes":[],"categories_segments":[],"categories_sizes":[],"default_left":[0,0,0,0,0,0,0,0,0,0,0,0,0,0,0],"id":77,"left_children":[1,3,5,7,9,11,13,-1,-1,-1,-1,-1,-1,-1,-1],"loss_changes":[1.844941E2,2.5899048E2,3.0765924E2,3.5358173E2,2.6651028E2,3.327168E2,2.3273862E2,0E0,0E0,0E0,0E0,0E0,0E0,0E0,0E0],"parents":[2147483647,0,0,1,1,2,2,3,3,4,4,5,5,6,6],"right_children":[2,4,6,8,10,12,14,-1,-1,-1,-1,-1,-1,-1,-1],"split_conditions":[7.3168564E-1,8.710371E4,8.776007E2,4.87285E2,8.5184375E4,-5.267186E1,1.0193928E5,-1.4001058E-2,1.434436E-2,-8.635782E-3,7.367348E-4,1.8341681E-2,-6.6861943E-3,-9.78015E-4,9.121141E-3],"split_indices":[3,9,6,6,10,7,5,0,0,0,0,0,0,0,0],"split_type":[0,0,0,0,0,0,0,0,0,0,0,0,0,0,0],"sum_hessian":[1.111866E4,8.216595E3,2.9020654E3,3.1367883E2,7.902916E3,1.3630178E3,1.5390476E3,5.2030373E1,2.6164847E2,3.150259E2,7.58789E3,5.441738E1,1.3086003E3,1.2615026E3,2.7754504E2],"tree_param":{"num_deleted":"0","num_feature":"13","num_nodes":"15","size_leaf_vector":"1"}},{"base_weights":[-3.6776618E-3,8.921916E-2,-1.9497533E-1,-2.8583866E-1,1.9006665E-1,2.1524443E-1,-4.0744677E-1,7.9942576E-4,-6.9562253E-3,1.1027157E-3,8.431214E-3,-3.176969E-3,8.586379E-3,-1.6592143E-3,-9.337465E-3],"categories":[],"categories_nodes":[],"categories_segments":[],"categories_sizes":[],"default_left":[0,0,0,0,0,0,0,0,0,0,0,0,0,0,0],"id":78,"left_children":[1,3,5,7,9,11,13,-1,-1,-1,-1,-1,-1,-1,-1],"loss_changes":[1.9783655E2,2.8349023E2,3.1726172E2,2.381349E2,3.076861E2,4.2625668E2,3.046225E2,0E0,0E0,0E0,0E0,0E0,0E0,0E0,0E0],"parents":[2147483647,0,0,1,1,2,2,3,3,4,4,5,5,6,6],"right_children":[2,4,6,8,10,12,14,-1,-1,-1,-1,-1,-1,-1,-1],"split_conditions":[3.31535E-1,-9.65657E2,9.59215E4,-1.0058651E0,1.695715E-1,4.826438E0,1.0350205E0,7.9942576E-4,-6.9562253E-3,1.1027157E-3,8.431214E-3,-3.176969E-3,8.586379E-3,-1.6592143E-3,-9.337465E-3],"split_indices":[12,1,5,12,12,7,4,0,0,0,0,0,0,0,0],"split_type":[0,0,0,0,0,0,0,0,0,0,0,0,0,0,0],"sum_hessian":[1.1130605E4,7.4926187E3,3.6379866E3,1.5873468E3,5.905272E3,1.2413303E3,2.3966562E3,8.391287E2,7.482181E2,5.2633286E3,6.4194354E2,6.792195E2,5.621108E2,1.6436711E3,7.529852E2],"tree_param":{"num_deleted":"0","num_feature":"13","num_nodes":"15","size_leaf_vector":"1"}},{"base_weights":[-7.047139E-4,4.618637E-1,-3.7382334E-2,5.507483E-1,-1.859014E-2,-6.789669E-3,-7.209483E-1,-2.7586843E-3,7.6783514E-3,-1.2296406E-3,2.4254462E-3,8.4757395E-3,-1.1170406E-2],"categories":[],"categories_nodes":[],"categories_segments":[],"categories_sizes":[],"default_left":[0,0,0,0,0,0,0,0,0,0,0,0,0],"id":79,"left_children":[1,3,5,7,-1,9,11,-1,-1,-1,-1,-1,-1],"loss_changes":[1.8895966E2,1.6981804E2,2.1579456E2,1.4176486E2,0E0,2.8616754E2,